{"learner":{"attributes":{},"feature_names":[],"feature_types":[],"gradient_booster":{"model":{"gbtree_model_param":{"num_parallel_tree":"1","num_trees":"1500"},"iteration_indptr":[0,2,4,6,8,10,12,14,16,18,20,22,24,26,28,30,32,34,36,38,40,42,44,46,48,50,52,54,56,58,60,62,64,66,68,70,72,74,76,78,80,82,84,86,88,90,92,94,96,98,100,102,104,106,108,110,112,114,116,118,120,122,124,126,128,130,132,134,136,138,140,142,144,146,148,150,152,154,156,158,160,162,164,166,168,170,172,174,176,178,180,182,184,186,188,190,192,194,196,198,200,202,204,206,208,210,212,214,216,218,220,222,224,226,228,230,232,234,236,238,240,242,244,246,248,250,252,254,256,258,260,262,264,266,268,270,272,274,276,278,280,282,284,286,288,290,292,294,296,298,300,302,304,306,308,310,312,314,316,318,320,322,324,326,328,330,332,334,336,338,340,342,344,346,348,350,352,354,356,358,360,362,364,366,368,370,372,374,376,378,380,382,384,386,388,390,392,394,396,398,400,402,404,406,408,410,412,414,416,418,420,422,424,426,428,430,432,434,436,438,440,442,444,446,448,450,452,454,456,458,460,462,464,466,468,470,472,474,476,478,480,482,484,486,488,490,492,494,496,498,500,502,504,506,508,510,512,514,516,518,520,522,524,526,528,530,532,534,536,538,540,542,544,546,548,550,552,554,556,558,560,562,564,566,568,570,572,574,576,578,580,582,584,586,588,590,592,594,596,598,600,602,604,606,608,610,612,614,616,618,620,622,624,626,628,630,632,634,636,638,640,642,644,646,648,650,652,654,656,658,660,662,664,666,668,670,672,674,676,678,680,682,684,686,688,690,692,694,696,698,700,702,704,706,708,710,712,714,716,718,720,722,724,726,728,730,732,734,736,738,740,742,744,746,748,750,752,754,756,758,760,762,764,766,768,770,772,774,776,778,780,782,784,786,788,790,792,794,796,798,800,802,804,806,808,810,812,814,816,818,820,822,824,826,828,830,832,834,836,838,840,842,844,846,848,850,852,854,856,858,860,862,864,866,868,870,872,874,876,878,880,882,884,886,888,890,892,894,896,898,900,902,904,906,908,910,912,914,916,918,920,922,924,926,928,930,932,934,936,938,940,942,944,946,948,950,952,954,956,958,960,962,964,966,968,970,972,974,976,978,980,982,984,986,988,990,992,994,996,998,1000,1002,1004,1006,1008,1010,1012,1014,1016,1018,1020,1022,1024,1026,1028,1030,1032,1034,1036,1038,1040,1042,1044,1046,1048,1050,1052,1054,1056,1058,1060,1062,1064,1066,1068,1070,1072,1074,1076,1078,1080,1082,1084,1086,1088,1090,1092,1094,1096,1098,1100,1102,1104,1106,1108,1110,1112,1114,1116,1118,1120,1122,1124,1126,1128,1130,1132,1134,1136,1138,1140,1142,1144,1146,1148,1150,1152,1154,1156,1158,1160,1162,1164,1166,1168,1170,1172,1174,1176,1178,1180,1182,1184,1186,1188,1190,1192,1194,1196,1198,1200,1202,1204,1206,1208,1210,1212,1214,1216,1218,1220,1222,1224,1226,1228,1230,1232,1234,1236,1238,1240,1242,1244,1246,1248,1250,1252,1254,1256,1258,1260,1262,1264,1266,1268,1270,1272,1274,1276,1278,1280,1282,1284,1286,1288,1290,1292,1294,1296,1298,1300,1302,1304,1306,1308,1310,1312,1314,1316,1318,1320,1322,1324,1326,1328,1330,1332,1334,1336,1338,1340,1342,1344,1346,1348,1350,1352,1354,1356,1358,1360,1362,1364,1366,1368,1370,1372,1374,1376,1378,1380,1382,1384,1386,1388,1390,1392,1394,1396,1398,1400,1402,1404,1406,1408,1410,1412,1414,1416,1418,1420,1422,1424,1426,1428,1430,1432,1434,1436,1438,1440,1442,1444,1446,1448,1450,1452,1454,1456,1458,1460,1462,1464,1466,1468,1470,1472,1474,1476,1478,1480,1482,1484,1486,1488,1490,1492,1494,1496,1498,1500],"tree_info":[0,1,0,1,0,1,0,1,0,1,0,1,0,1,0,1,0,1,0,1,0,1,0,1,0,1,0,1,0,1,0,1,0,1,0,1,0,1,0,1,0,1,0,1,0,1,0,1,0,1,0,1,0,1,0,1,0,1,0,1,0,1,0,1,0,1,0,1,0,1,0,1,0,1,0,1,0,1,0,1,0,1,0,1,0,1,0,1,0,1,0,1,0,1,0,1,0,1,0,1,0,1,0,1,0,1,0,1,0,1,0,1,0,1,0,1,0,1,0,1,0,1,0,1,0,1,0,1,0,1,0,1,0,1,0,1,0,1,0,1,0,1,0,1,0,1,0,1,0,1,0,1,0,1,0,1,0,1,0,1,0,1,0,1,0,1,0,1,0,1,0,1,0,1,0,1,0,1,0,1,0,1,0,1,0,1,0,1,0,1,0,1,0,1,0,1,0,1,0,1,0,1,0,1,0,1,0,1,0,1,0,1,0,1,0,1,0,1,0,1,0,1,0,1,0,1,0,1,0,1,0,1,0,1,0,1,0,1,0,1,0,1,0,1,0,1,0,1,0,1,0,1,0,1,0,1,0,1,0,1,0,1,0,1,0,1,0,1,0,1,0,1,0,1,0,1,0,1,0,1,0,1,0,1,0,1,0,1,0,1,0,1,0,1,0,1,0,1,0,1,0,1,0,1,0,1,0,1,0,1,0,1,0,1,0,1,0,1,0,1,0,1,0,1,0,1,0,1,0,1,0,1,0,1,0,1,0,1,0,1,0,1,0,1,0,1,0,1,0,1,0,1,0,1,0,1,0,1,0,1,0,1,0,1,0,1,0,1,0,1,0,1,0,1,0,1,0,1,0,1,0,1,0,1,0,1,0,1,0,1,0,1,0,1,0,1,0,1,0,1,0,1,0,1,0,1,0,1,0,1,0,1,0,1,0,1,0,1,0,1,0,1,0,1,0,1,0,1,0,1,0,1,0,1,0,1,0,1,0,1,0,1,0,1,0,1,0,1,0,1,0,1,0,1,0,1,0,1,0,1,0,1,0,1,0,1,0,1,0,1,0,1,0,1,0,1,0,1,0,1,0,1,0,1,0,1,0,1,0,1,0,1,0,1,0,1,0,1,0,1,0,1,0,1,0,1,0,1,0,1,0,1,0,1,0,1,0,1,0,1,0,1,0,1,0,1,0,1,0,1,0,1,0,1,0,1,0,1,0,1,0,1,0,1,0,1,0,1,0,1,0,1,0,1,0,1,0,1,0,1,0,1,0,1,0,1,0,1,0,1,0,1,0,1,0,1,0,1,0,1,0,1,0,1,0,1,0,1,0,1,0,1,0,1,0,1,0,1,0,1,0,1,0,1,0,1,0,1,0,1,0,1,0,1,0,1,0,1,0,1,0,1,0,1,0,1,0,1,0,1,0,1,0,1,0,1,0,1,0,1,0,1,0,1,0,1,0,1,0,1,0,1,0,1,0,1,0,1,0,1,0,1,0,1,0,1,0,1,0,1,0,1,0,1,0,1,0,1,0,1,0,1,0,1,0,1,0,1,0,1,0,1,0,1,0,1,0,1,0,1,0,1,0,1,0,1,0,1,0,1,0,1,0,1,0,1,0,1,0,1,0,1,0,1,0,1,0,1,0,1,0,1,0,1,0,1,0,1,0,1,0,1,0,1,0,1,0,1,0,1,0,1,0,1,0,1,0,1,0,1,0,1,0,1,0,1,0,1,0,1,0,1,0,1,0,1,0,1,0,1,0,1,0,1,0,1,0,1,0,1,0,1,0,1,0,1,0,1,0,1,0,1,0,1,0,1,0,1,0,1,0,1,0,1,0,1,0,1,0,1,0,1,0,1,0,1,0,1,0,1,0,1,0,1,0,1,0,1,0,1,0,1,0,1,0,1,0,1,0,1,0,1,0,1,0,1,0,1,0,1,0,1,0,1,0,1,0,1,0,1,0,1,0,1,0,1,0,1,0,1,0,1,0,1,0,1,0,1,0,1,0,1,0,1,0,1,0,1,0,1,0,1,0,1,0,1,0,1,0,1,0,1,0,1,0,1,0,1,0,1,0,1,0,1,0,1,0,1,0,1,0,1,0,1,0,1,0,1,0,1,0,1,0,1,0,1,0,1,0,1,0,1,0,1,0,1,0,1,0,1,0,1,0,1,0,1,0,1,0,1,0,1,0,1,0,1,0,1,0,1,0,1,0,1,0,1,0,1,0,1,0,1,0,1,0,1,0,1,0,1,0,1,0,1,0,1,0,1,0,1,0,1,0,1,0,1,0,1,0,1,0,1,0,1,0,1,0,1,0,1,0,1,0,1,0,1,0,1,0,1,0,1,0,1,0,1,0,1,0,1,0,1,0,1,0,1,0,1,0,1,0,1,0,1,0,1,0,1,0,1,0,1,0,1,0,1,0,1,0,1,0,1,0,1,0,1,0,1,0,1,0,1,0,1,0,1,0,1,0,1,0,1,0,1,0,1,0,1,0,1,0,1,0,1,0,1,0,1,0,1,0,1,0,1,0,1,0,1,0,1,0,1,0,1,0,1,0,1,0,1,0,1,0,1,0,1,0,1,0,1,0,1,0,1,0,1,0,1,0,1,0,1,0,1,0,1,0,1,0,1,0,1,0,1,0,1,0,1,0,1,0,1,0,1,0,1,0,1,0,1,0,1,0,1,0,1,0,1,0,1,0,1,0,1,0,1,0,1,0,1,0,1,0,1,0,1,0,1,0,1,0,1,0,1,0,1,0,1,0,1,0,1,0,1,0,1,0,1,0,1,0,1,0,1,0,1,0,1,0,1,0,1,0,1,0,1,0,1,0,1,0,1,0,1,0,1,0,1,0,1,0,1,0,1,0,1,0,1,0,1,0,1,0,1,0,1,0,1,0,1,0,1,0,1,0,1,0,1,0,1,0,1,0,1,0,1,0,1,0,1,0,1,0,1,0,1,0,1,0,1,0,1,0,1,0,1,0,1,0,1,0,1,0,1,0,1,0,1,0,1,0,1,0,1,0,1,0,1,0,1,0,1,0,1,0,1,0,1,0,1,0,1,0,1,0,1,0,1,0,1,0,1,0,1,0,1,0,1,0,1,0,1,0,1,0,1,0,1,0,1,0,1,0,1,0,1,0,1,0,1,0,1,0,1,0,1,0,1,0,1,0,1,0,1,0,1,0,1,0,1,0,1,0,1,0,1,0,1,0,1,0,1,0,1,0,1,0,1,0,1,0,1,0,1,0,1,0,1,0,1,0,1,0,1,0,1,0,1,0,1,0,1,0,1,0,1,0,1,0,1,0,1,0,1,0,1,0,1,0,1,0,1,0,1,0,1,0,1,0,1,0,1,0,1,0,1,0,1,0,1],"trees":[{"base_weights":[-1.4546123E-1,1.19518824E-1,-3.069916E-1,-1.6041794E-1,2.4851233E-1,-1.4062849E-1,-4.9495968E-1,4.1666668E-4,-3.20132E-3,8.802118E-4,3.6831682E-3,-2.8584816E-3,-8.9171976E-5,-3.9799036E-3,-6.2641287E-3],"categories":[],"categories_nodes":[],"categories_segments":[],"categories_sizes":[],"default_left":[0,0,0,0,0,0,0,0,0,0,0,0,0,0,0],"id":0,"left_children":[1,3,5,7,9,11,13,-1,-1,-1,-1,-1,-1,-1,-1],"loss_changes":[2.9119952E2,9.30954E1,1.320971E2,2.6269667E1,3.3894608E1,4.2909035E1,2.5040588E1,0E0,0E0,0E0,0E0,0E0,0E0,0E0,0E0],"parents":[2147483647,0,0,1,1,2,2,3,3,4,4,5,5,6,6],"right_children":[2,4,6,8,10,12,14,-1,-1,-1,-1,-1,-1,-1,-1],"split_conditions":[4.64E-1,-2E0,1.4E1,-4.7E0,2.4E1,9E0,2.3E1,4.1666668E-4,-3.20132E-3,8.802118E-4,3.6831682E-3,-2.8584816E-3,-8.9171976E-5,-3.9799036E-3,-6.2641287E-3],"split_indices":[3,77,80,25,51,51,80,0,0,0,0,0,0,0,0],"split_type":[0,0,0,0,0,0,0,0,0,0,0,0,0,0,0],"sum_hessian":[6.8015E3,2.576E3,4.2255E3,8.125E2,1.7635E3,2.2425E3,1.983E3,3.59E2,4.535E2,7.545E2,1.009E3,1.066E3,1.1765E3,1.1435E3,8.395E2],"tree_param":{"num_deleted":"0","num_feature":"106","num_nodes":"15","size_leaf_vector":"1"}},{"base_weights":[1.4546123E-1,-1.19518824E-1,3.069916E-1,1.6041794E-1,-2.4851233E-1,1.4062849E-1,4.9495968E-1,-4.1666668E-4,3.20132E-3,-8.802118E-4,-3.6831682E-3,2.8584816E-3,8.9171976E-5,3.9799036E-3,6.2641287E-3],"categories":[],"categories_nodes":[],"categories_segments":[],"categories_sizes":[],"default_left":[0,0,0,0,0,0,0,0,0,0,0,0,0,0,0],"id":1,"left_children":[1,3,5,7,9,11,13,-1,-1,-1,-1,-1,-1,-1,-1],"loss_changes":[2.9119952E2,9.30954E1,1.320971E2,2.6269667E1,3.3894608E1,4.2909035E1,2.5040588E1,0E0,0E0,0E0,0E0,0E0,0E0,0E0,0E0],"parents":[2147483647,0,0,1,1,2,2,3,3,4,4,5,5,6,6],"right_children":[2,4,6,8,10,12,14,-1,-1,-1,-1,-1,-1,-1,-1],"split_conditions":[4.64E-1,-2E0,1.4E1,-4.7E0,2.4E1,9E0,2.3E1,-4.1666668E-4,3.20132E-3,-8.802118E-4,-3.6831682E-3,2.8584816E-3,8.9171976E-5,3.9799036E-3,6.2641287E-3],"split_indices":[3,77,80,25,51,51,80,0,0,0,0,0,0,0,0],"split_type":[0,0,0,0,0,0,0,0,0,0,0,0,0,0,0],"sum_hessian":[6.8015E3,2.576E3,4.2255E3,8.125E2,1.7635E3,2.2425E3,1.983E3,3.59E2,4.535E2,7.545E2,1.009E3,1.066E3,1.1765E3,1.1435E3,8.395E2],"tree_param":{"num_deleted":"0","num_feature":"106","num_nodes":"15","size_leaf_vector":"1"}},{"base_weights":[-1.4400996E-1,1.1832521E-1,-3.0392912E-1,-1.5881814E-1,2.4603182E-1,-1.3922404E-1,-4.900279E-1,4.1251193E-4,-3.1694104E-3,8.7142165E-4,3.6464233E-3,-2.829946E-3,-8.828104E-5,-3.940202E-3,-6.201806E-3],"categories":[],"categories_nodes":[],"categories_segments":[],"categories_sizes":[],"default_left":[0,0,0,0,0,0,0,0,0,0,0,0,0,0,0],"id":2,"left_children":[1,3,5,7,9,11,13,-1,-1,-1,-1,-1,-1,-1,-1],"loss_changes":[2.8541397E2,9.124625E1,1.2947815E2,2.5748444E1,3.3221695E1,4.2056454E1,2.4546387E1,0E0,0E0,0E0,0E0,0E0,0E0,0E0,0E0],"parents":[2147483647,0,0,1,1,2,2,3,3,4,4,5,5,6,6],"right_children":[2,4,6,8,10,12,14,-1,-1,-1,-1,-1,-1,-1,-1],"split_conditions":[4.64E-1,-2E0,1.4E1,-4.7E0,2.4E1,9E0,2.3E1,4.1251193E-4,-3.1694104E-3,8.7142165E-4,3.6464233E-3,-2.829946E-3,-8.828104E-5,-3.940202E-3,-6.201806E-3],"split_indices":[3,77,80,25,51,51,80,0,0,0,0,0,0,0,0],"split_type":[0,0,0,0,0,0,0,0,0,0,0,0,0,0,0],"sum_hessian":[6.8014214E3,2.575981E3,4.2254404E3,8.124953E2,1.7634857E3,2.2424912E3,1.9829489E3,3.5899994E2,4.5349536E2,7.544994E2,1.00898627E3,1.0659913E3,1.1765E3,1.1434818E3,8.3946704E2],"tree_param":{"num_deleted":"0","num_feature":"106","num_nodes":"15","size_leaf_vector":"1"}},{"base_weights":[1.4400999E-1,-1.183252E-1,3.0392915E-1,1.5881811E-1,-2.460318E-1,1.392241E-1,4.9002793E-1,-4.1251103E-4,3.1694092E-3,-8.7142165E-4,-3.646423E-3,2.8299475E-3,8.828104E-5,3.940203E-3,6.2018046E-3],"categories":[],"categories_nodes":[],"categories_segments":[],"categories_sizes":[],"default_left":[0,0,0,0,0,0,0,0,0,0,0,0,0,0,0],"id":3,"left_children":[1,3,5,7,9,11,13,-1,-1,-1,-1,-1,-1,-1,-1],"loss_changes":[2.85414E2,9.124625E1,1.2947818E2,2.5748411E1,3.3221687E1,4.2056488E1,2.4546387E1,0E0,0E0,0E0,0E0,0E0,0E0,0E0,0E0],"parents":[2147483647,0,0,1,1,2,2,3,3,4,4,5,5,6,6],"right_children":[2,4,6,8,10,12,14,-1,-1,-1,-1,-1,-1,-1,-1],"split_conditions":[4.64E-1,-2E0,1.4E1,-4.7E0,2.4E1,9E0,2.3E1,-4.1251103E-4,3.1694092E-3,-8.7142165E-4,-3.646423E-3,2.8299475E-3,8.828104E-5,3.940203E-3,6.2018046E-3],"split_indices":[3,77,80,25,51,51,80,0,0,0,0,0,0,0,0],"split_type":[0,0,0,0,0,0,0,0,0,0,0,0,0,0,0],"sum_hessian":[6.8014214E3,2.575981E3,4.2254404E3,8.124953E2,1.7634856E3,2.2424912E3,1.982949E3,3.5899997E2,4.5349536E2,7.544994E2,1.0089862E3,1.0659913E3,1.1765E3,1.1434818E3,8.394671E2],"tree_param":{"num_deleted":"0","num_feature":"106","num_nodes":"15","size_leaf_vector":"1"}},{"base_weights":[-1.4257646E-1,1.1714519E-1,-3.009056E-1,-1.5723605E-1,2.4357988E-1,-1.3783468E-1,-4.8516983E-1,4.0839778E-4,-3.1378807E-3,8.6272095E-4,3.6101397E-3,-2.645426E-3,7.3440795E-5,-3.9010171E-3,-6.140577E-3],"categories":[],"categories_nodes":[],"categories_segments":[],"categories_sizes":[],"default_left":[0,0,0,0,0,0,0,0,0,0,0,0,0,0,0],"id":4,"left_children":[1,3,5,7,9,11,13,-1,-1,-1,-1,-1,-1,-1,-1],"loss_changes":[2.7975146E2,8.9435196E1,1.2692447E2,2.5238194E1,3.2563965E1,4.127116E1,2.4068176E1,0E0,0E0,0E0,0E0,0E0,0E0,0E0,0E0],"parents":[2147483647,0,0,1,1,2,2,3,3,4,4,5,5,6,6],"right_children":[2,4,6,8,10,12,14,-1,-1,-1,-1,-1,-1,-1,-1],"split_conditions":[4.64E-1,-2E0,1.4E1,-4.7E0,2.4E1,1E1,2.3E1,4.0839778E-4,-3.1378807E-3,8.6272095E-4,3.6101397E-3,-2.645426E-3,7.3440795E-5,-3.9010171E-3,-6.140577E-3],"split_indices":[3,77,80,25,51,51,80,0,0,0,0,0,0,0,0],"split_type":[0,0,0,0,0,0,0,0,0,0,0,0,0,0,0],"sum_hessian":[6.801188E3,2.5759248E3,4.225263E3,8.124813E2,1.7634435E3,2.2424656E3,1.9827979E3,3.5899976E2,4.534816E2,7.544977E2,1.0089458E3,1.1969656E3,1.0454999E3,1.1434283E3,8.393695E2],"tree_param":{"num_deleted":"0","num_feature":"106","num_nodes":"15","size_leaf_vector":"1"}},{"base_weights":[1.4257652E-1,-1.1714519E-1,3.0090567E-1,1.5723605E-1,-2.4357988E-1,1.3783479E-1,4.8516992E-1,-4.0839778E-4,3.1378807E-3,-8.6272095E-4,-3.6101397E-3,2.645427E-3,-7.34396E-5,3.9010185E-3,6.140577E-3],"categories":[],"categories_nodes":[],"categories_segments":[],"categories_sizes":[],"default_left":[0,0,0,0,0,0,0,0,0,0,0,0,0,0,0],"id":5,"left_children":[1,3,5,7,9,11,13,-1,-1,-1,-1,-1,-1,-1,-1],"loss_changes":[2.7975156E2,8.9435196E1,1.2692444E2,2.5238194E1,3.2563965E1,4.1271156E1,2.4068146E1,0E0,0E0,0E0,0E0,0E0,0E0,0E0,0E0],"parents":[2147483647,0,0,1,1,2,2,3,3,4,4,5,5,6,6],"right_children":[2,4,6,8,10,12,14,-1,-1,-1,-1,-1,-1,-1,-1],"split_conditions":[4.64E-1,-2E0,1.4E1,-4.7E0,2.4E1,1E1,2.3E1,-4.0839778E-4,3.1378807E-3,-8.6272095E-4,-3.6101397E-3,2.645427E-3,-7.34396E-5,3.9010185E-3,6.140577E-3],"split_indices":[3,77,80,25,51,51,80,0,0,0,0,0,0,0,0],"split_type":[0,0,0,0,0,0,0,0,0,0,0,0,0,0,0],"sum_hessian":[6.801188E3,2.5759248E3,4.225263E3,8.124813E2,1.7634435E3,2.2424653E3,1.9827979E3,3.5899976E2,4.534816E2,7.544977E2,1.0089458E3,1.1969655E3,1.0454999E3,1.1434283E3,8.3936957E2],"tree_param":{"num_deleted":"0","num_feature":"106","num_nodes":"15","size_leaf_vector":"1"}},{"base_weights":[-1.411603E-1,-2.720976E-1,1.6690053E-1,-1.11479744E-1,-4.5477447E-1,-1.07724905E-1,2.917493E-1,-2.628767E-3,2.4994765E-4,-3.4205888E-3,-5.7336437E-3,4.856805E-4,-2.7861302E-3,4.358736E-3,1.8282142E-3],"categories":[],"categories_nodes":[],"categories_segments":[],"categories_sizes":[],"default_left":[0,0,0,0,0,0,0,0,0,0,0,0,0,0,0],"id":6,"left_children":[1,3,5,7,9,11,13,-1,-1,-1,-1,-1,-1,-1,-1],"loss_changes":[2.7440753E2,1.40008E2,6.9611145E1,5.2516838E1,2.9652771E1,1.6972687E1,2.1826653E1,0E0,0E0,0E0,0E0,0E0,0E0,0E0,0E0],"parents":[2147483647,0,0,1,1,2,2,3,3,4,4,5,5,6,6],"right_children":[2,4,6,8,10,12,14,-1,-1,-1,-1,-1,-1,-1,-1],"split_conditions":[2E1,1.4E1,-2E0,1E1,2.2E1,-4.6E0,-5.9E0,-2.628767E-3,2.4994765E-4,-3.4205888E-3,-5.7336437E-3,4.856805E-4,-2.7861302E-3,4.358736E-3,1.8282142E-3],"split_indices":[28,80,77,51,80,25,25,0,0,0,0,0,0,0,0],"split_type":[0,0,0,0,0,0,0,0,0,0,0,0,0,0,0],"sum_hessian":[6.800807E3,4.7724536E3,2.0283531E3,2.5404155E3,2.2320383E3,6.339696E2,1.3943835E3,1.2039248E3,1.3364907E3,1.1463536E3,1.0856847E3,3.31499E2,3.0247064E2,5.9892896E2,7.9545465E2],"tree_param":{"num_deleted":"0","num_feature":"106","num_nodes":"15","size_leaf_vector":"1"}},{"base_weights":[1.411603E-1,2.7209756E-1,-1.6690049E-1,1.114797E-1,4.547745E-1,1.07724965E-1,-2.9174924E-1,2.6287665E-3,-2.4994847E-4,3.4205888E-3,5.733644E-3,-4.8568047E-4,2.7861313E-3,-4.358735E-3,-1.8282144E-3],"categories":[],"categories_nodes":[],"categories_segments":[],"categories_sizes":[],"default_left":[0,0,0,0,0,0,0,0,0,0,0,0,0,0,0],"id":7,"left_children":[1,3,5,7,9,11,13,-1,-1,-1,-1,-1,-1,-1,-1],"loss_changes":[2.744074E2,1.4000806E2,6.961116E1,5.2516865E1,2.9652771E1,1.6972698E1,2.182663E1,0E0,0E0,0E0,0E0,0E0,0E0,0E0,0E0],"parents":[2147483647,0,0,1,1,2,2,3,3,4,4,5,5,6,6],"right_children":[2,4,6,8,10,12,14,-1,-1,-1,-1,-1,-1,-1,-1],"split_conditions":[2E1,1.4E1,-2E0,1E1,2.2E1,-4.6E0,-5.9E0,2.6287665E-3,-2.4994847E-4,3.4205888E-3,5.733644E-3,-4.8568047E-4,2.7861313E-3,-4.358735E-3,-1.8282144E-3],"split_indices":[28,80,77,51,80,25,25,0,0,0,0,0,0,0,0],"split_type":[0,0,0,0,0,0,0,0,0,0,0,0,0,0,0],"sum_hessian":[6.800807E3,4.772454E3,2.0283533E3,2.5404155E3,2.2320383E3,6.339696E2,1.3943835E3,1.2039248E3,1.3364907E3,1.1463536E3,1.0856847E3,3.31499E2,3.0247064E2,5.9892896E2,7.9545465E2],"tree_param":{"num_deleted":"0","num_feature":"106","num_nodes":"15","size_leaf_vector":"1"}},{"base_weights":[-1.3976024E-1,1.1511001E-1,-2.9514334E-1,-1.5381189E-1,2.3903091E-1,-1.2587313E-1,-4.6613792E-1,4.0338933E-4,-3.0728162E-3,8.466375E-4,3.542855E-3,-2.4576033E-3,1.0383465E-4,-6.0119126E-3,-3.7183114E-3],"categories":[],"categories_nodes":[],"categories_segments":[],"categories_sizes":[],"default_left":[0,0,0,0,0,0,0,0,0,0,0,0,0,0,0],"id":8,"left_children":[1,3,5,7,9,11,13,-1,-1,-1,-1,-1,-1,-1,-1],"loss_changes":[2.6938284E2,8.590567E1,1.222482E2,2.4249338E1,3.135933E1,3.471329E1,2.6544922E1,0E0,0E0,0E0,0E0,0E0,0E0,0E0,0E0],"parents":[2147483647,0,0,1,1,2,2,3,3,4,4,5,5,6,6],"right_children":[2,4,6,8,10,12,14,-1,-1,-1,-1,-1,-1,-1,-1],"split_conditions":[4.64E-1,-2E0,1.3E1,-4.7E0,2.4E1,1E1,-3.4E0,4.0338933E-4,-3.0728162E-3,8.466375E-4,3.542855E-3,-2.4576033E-3,1.0383465E-4,-6.0119126E-3,-3.7183114E-3],"split_indices":[3,77,80,25,51,51,77,0,0,0,0,0,0,0,0],"split_type":[0,0,0,0,0,0,0,0,0,0,0,0,0,0,0],"sum_hessian":[6.8003047E3,2.5757078E3,4.224597E3,8.12422E2,1.7632858E3,2.1238755E3,2.1007214E3,3.589987E2,4.534233E2,7.544892E2,1.0087966E3,1.1293756E3,9.9449994E2,8.6155054E2,1.2391709E3],"tree_param":{"num_deleted":"0","num_feature":"106","num_nodes":"15","size_leaf_vector":"1"}},{"base_weights":[1.3976026E-1,-1.1510996E-1,2.9514337E-1,1.5381195E-1,-2.3903087E-1,1.258732E-1,4.661379E-1,-4.0338928E-4,3.0728173E-3,-8.466378E-4,-3.5428538E-3,2.4576043E-3,-1.0383465E-4,6.0119126E-3,3.7183107E-3],"categories":[],"categories_nodes":[],"categories_segments":[],"categories_sizes":[],"default_left":[0,0,0,0,0,0,0,0,0,0,0,0,0,0,0],"id":9,"left_children":[1,3,5,7,9,11,13,-1,-1,-1,-1,-1,-1,-1,-1],"loss_changes":[2.693828E2,8.590566E1,1.2224817E2,2.4249355E1,3.1359291E1,3.4713314E1,2.6544922E1,0E0,0E0,0E0,0E0,0E0,0E0,0E0,0E0],"parents":[2147483647,0,0,1,1,2,2,3,3,4,4,5,5,6,6],"right_children":[2,4,6,8,10,12,14,-1,-1,-1,-1,-1,-1,-1,-1],"split_conditions":[4.64E-1,-2E0,1.3E1,-4.7E0,2.4E1,1E1,-3.4E0,-4.0338928E-4,3.0728173E-3,-8.466378E-4,-3.5428538E-3,2.4576043E-3,-1.0383465E-4,6.0119126E-3,3.7183107E-3],"split_indices":[3,77,80,25,51,51,77,0,0,0,0,0,0,0,0],"split_type":[0,0,0,0,0,0,0,0,0,0,0,0,0,0,0],"sum_hessian":[6.8003047E3,2.5757078E3,4.224597E3,8.12422E2,1.7632858E3,2.1238755E3,2.1007214E3,3.589987E2,4.534233E2,7.544892E2,1.0087966E3,1.1293755E3,9.9449994E2,8.6155054E2,1.239171E3],"tree_param":{"num_deleted":"0","num_feature":"106","num_nodes":"15","size_leaf_vector":"1"}},{"base_weights":[-1.3837753E-1,-2.6684296E-1,1.6384733E-1,-1.0929362E-1,-4.4608203E-1,-1.05337575E-1,2.8623095E-1,-2.5776012E-3,2.4525952E-4,-3.3517163E-3,-5.628063E-3,4.7739336E-4,-2.727347E-3,4.2811045E-3,1.7901771E-3],"categories":[],"categories_nodes":[],"categories_segments":[],"categories_sizes":[],"default_left":[0,0,0,0,0,0,0,0,0,0,0,0,0,0,0],"id":10,"left_children":[1,3,5,7,9,11,13,-1,-1,-1,-1,-1,-1,-1,-1],"loss_changes":[2.640822E2,1.347233E2,6.687665E1,5.049577E1,2.8710175E1,1.628267E1,2.1145988E1,0E0,0E0,0E0,0E0,0E0,0E0,0E0,0E0],"parents":[2147483647,0,0,1,1,2,2,3,3,4,4,5,5,6,6],"right_children":[2,4,6,8,10,12,14,-1,-1,-1,-1,-1,-1,-1,-1],"split_conditions":[2E1,1.4E1,-2E0,1E1,2.2E1,-4.6E0,-5.9E0,-2.5776012E-3,2.4525952E-4,-3.3517163E-3,-5.628063E-3,4.7739336E-4,-2.727347E-3,4.2811045E-3,1.7901771E-3],"split_indices":[28,80,77,51,80,25,25,0,0,0,0,0,0,0,0],"split_type":[0,0,0,0,0,0,0,0,0,0,0,0,0,0,0],"sum_hessian":[6.7996553E3,4.77155E3,2.0281055E3,2.5402793E3,2.2312705E3,6.339222E2,1.3941833E3,1.203797E3,1.3364823E3,1.1461143E3,1.0851564E3,3.314977E2,3.0242447E2,5.9878906E2,7.953943E2],"tree_param":{"num_deleted":"0","num_feature":"106","num_nodes":"15","size_leaf_vector":"1"}},{"base_weights":[1.3837753E-1,2.6684296E-1,-1.6384731E-1,1.09293625E-1,4.4608203E-1,1.0533758E-1,-2.8623095E-1,2.5776012E-3,-2.4525935E-4,3.3517163E-3,5.628063E-3,-4.7739336E-4,2.727347E-3,-4.281105E-3,-1.7901768E-3],"categories":[],"categories_nodes":[],"categories_segments":[],"categories_sizes":[],"default_left":[0,0,0,0,0,0,0,0,0,0,0,0,0,0,0],"id":11,"left_children":[1,3,5,7,9,11,13,-1,-1,-1,-1,-1,-1,-1,-1],"loss_changes":[2.640822E2,1.3472327E2,6.687665E1,5.0495766E1,2.8710175E1,1.6282673E1,2.1146019E1,0E0,0E0,0E0,0E0,0E0,0E0,0E0,0E0],"parents":[2147483647,0,0,1,1,2,2,3,3,4,4,5,5,6,6],"right_children":[2,4,6,8,10,12,14,-1,-1,-1,-1,-1,-1,-1,-1],"split_conditions":[2E1,1.4E1,-2E0,1E1,2.2E1,-4.6E0,-5.9E0,2.5776012E-3,-2.4525935E-4,3.3517163E-3,5.628063E-3,-4.7739336E-4,2.727347E-3,-4.281105E-3,-1.7901768E-3],"split_indices":[28,80,77,51,80,25,25,0,0,0,0,0,0,0,0],"split_type":[0,0,0,0,0,0,0,0,0,0,0,0,0,0,0],"sum_hessian":[6.7996553E3,4.77155E3,2.0281056E3,2.5402793E3,2.2312705E3,6.3392224E2,1.3941833E3,1.203797E3,1.3364823E3,1.1461143E3,1.0851562E3,3.314977E2,3.024245E2,5.9878906E2,7.953943E2],"tree_param":{"num_deleted":"0","num_feature":"106","num_nodes":"15","size_leaf_vector":"1"}},{"base_weights":[-1.3701057E-1,1.1311679E-1,-2.895194E-1,-1.5046714E-1,2.3458071E-1,-4.0584028E-1,-4.7853835E-2,3.9844055E-4,-3.0093337E-3,8.308811E-4,3.4771364E-3,-3.2813384E-3,-5.9172395E-3,8.235232E-4,-1.8264339E-3],"categories":[],"categories_nodes":[],"categories_segments":[],"categories_sizes":[],"default_left":[0,0,0,0,0,0,0,0,0,0,0,0,0,0,0],"id":12,"left_children":[1,3,5,7,9,11,13,-1,-1,-1,-1,-1,-1,-1,-1],"loss_changes":[2.594254E2,8.251958E1,1.1873541E2,2.3301826E1,3.020443E1,4.09971E1,2.4126099E1,0E0,0E0,0E0,0E0,0E0,0E0,0E0,0E0],"parents":[2147483647,0,0,1,1,2,2,3,3,4,4,5,5,6,6],"right_children":[2,4,6,8,10,12,14,-1,-1,-1,-1,-1,-1,-1,-1],"split_conditions":[4.64E-1,-2E0,2.9E0,-4.7E0,2.4E1,2.3E1,3.2E0,3.9844055E-4,-3.0093337E-3,8.308811E-4,3.4771364E-3,-3.2813384E-3,-5.9172395E-3,8.235232E-4,-1.8264339E-3],"split_indices":[3,77,77,25,51,80,25,0,0,0,0,0,0,0,0],"split_type":[0,0,0,0,0,0,0,0,0,0,0,0,0,0,0],"sum_hessian":[6.798885E3,2.5753506E3,4.223534E3,8.123229E2,1.7630277E3,2.8507185E3,1.3728157E3,3.5899612E2,4.5332672E2,7.544726E2,1.0085551E3,2.0122761E3,8.3844226E2,6.984779E2,6.7433777E2],"tree_param":{"num_deleted":"0","num_feature":"106","num_nodes":"15","size_leaf_vector":"1"}},{"base_weights":[1.3701056E-1,-1.1311678E-1,2.8951937E-1,1.504671E-1,-2.3458068E-1,4.0584028E-1,4.7853798E-2,-3.9844163E-4,3.0093337E-3,-8.308811E-4,-3.477136E-3,3.2813384E-3,5.9172395E-3,-8.2352397E-4,1.8264339E-3],"categories":[],"categories_nodes":[],"categories_segments":[],"categories_sizes":[],"default_left":[0,0,0,0,0,0,0,0,0,0,0,0,0,0,0],"id":13,"left_children":[1,3,5,7,9,11,13,-1,-1,-1,-1,-1,-1,-1,-1],"loss_changes":[2.594254E2,8.251955E1,1.1873541E2,2.3301838E1,3.0204414E1,4.09971E1,2.412611E1,0E0,0E0,0E0,0E0,0E0,0E0,0E0,0E0],"parents":[2147483647,0,0,1,1,2,2,3,3,4,4,5,5,6,6],"right_children":[2,4,6,8,10,12,14,-1,-1,-1,-1,-1,-1,-1,-1],"split_conditions":[4.64E-1,-2E0,2.9E0,-4.7E0,2.4E1,2.3E1,3.2E0,-3.9844163E-4,3.0093337E-3,-8.308811E-4,-3.477136E-3,3.2813384E-3,5.9172395E-3,-8.2352397E-4,1.8264339E-3],"split_indices":[3,77,77,25,51,80,25,0,0,0,0,0,0,0,0],"split_type":[0,0,0,0,0,0,0,0,0,0,0,0,0,0,0],"sum_hessian":[6.798885E3,2.5753506E3,4.223534E3,8.123229E2,1.7630277E3,2.8507185E3,1.3728157E3,3.5899612E2,4.5332675E2,7.544726E2,1.0085551E3,2.0122761E3,8.3844226E2,6.984779E2,6.7433777E2],"tree_param":{"num_deleted":"0","num_feature":"106","num_nodes":"15","size_leaf_vector":"1"}},{"base_weights":[-1.3565949E-1,1.1199598E-1,-2.866717E-1,-1.489763E-1,2.3225912E-1,-4.0187317E-1,-4.7377344E-2,3.9446822E-4,-2.9796814E-3,8.2259026E-4,3.44294E-3,-3.248931E-3,-5.8608116E-3,8.1529847E-4,-1.8083024E-3],"categories":[],"categories_nodes":[],"categories_segments":[],"categories_sizes":[],"default_left":[0,0,0,0,0,0,0,0,0,0,0,0,0,0,0],"id":14,"left_children":[1,3,5,7,9,11,13,-1,-1,-1,-1,-1,-1,-1,-1],"loss_changes":[2.54308E2,8.088728E1,1.16420746E2,2.2842972E1,2.9613823E1,4.0239136E1,2.3647892E1,0E0,0E0,0E0,0E0,0E0,0E0,0E0,0E0],"parents":[2147483647,0,0,1,1,2,2,3,3,4,4,5,5,6,6],"right_children":[2,4,6,8,10,12,14,-1,-1,-1,-1,-1,-1,-1,-1],"split_conditions":[4.64E-1,-2E0,2.9E0,-4.7E0,2.4E1,2.3E1,3.2E0,3.9446822E-4,-2.9796814E-3,8.2259026E-4,3.44294E-3,-3.248931E-3,-5.8608116E-3,8.1529847E-4,-1.8083024E-3],"split_indices":[3,77,77,25,51,80,25,0,0,0,0,0,0,0,0],"split_type":[0,0,0,0,0,0,0,0,0,0,0,0,0,0,0],"sum_hessian":[6.798003E3,2.5751284E3,4.2228745E3,8.122654E2,1.7628632E3,2.850097E3,1.3727777E3,3.5899557E2,4.5326984E2,7.544659E2,1.0083972E3,2.0120356E3,8.380611E2,6.9847925E2,6.742984E2],"tree_param":{"num_deleted":"0","num_feature":"106","num_nodes":"15","size_leaf_vector":"1"}},{"base_weights":[1.356595E-1,-1.11996025E-1,2.8667176E-1,1.4897628E-1,-2.3225918E-1,4.0187326E-1,4.7377348E-2,-3.9446822E-4,2.9796811E-3,-8.2259096E-4,-3.4429405E-3,3.2489316E-3,5.8608125E-3,-8.152984E-4,1.8083024E-3],"categories":[],"categories_nodes":[],"categories_segments":[],"categories_sizes":[],"default_left":[0,0,0,0,0,0,0,0,0,0,0,0,0,0,0],"id":15,"left_children":[1,3,5,7,9,11,13,-1,-1,-1,-1,-1,-1,-1,-1],"loss_changes":[2.5430814E2,8.08873E1,1.1642081E2,2.2842968E1,2.9613838E1,4.0239105E1,2.3647892E1,0E0,0E0,0E0,0E0,0E0,0E0,0E0,0E0],"parents":[2147483647,0,0,1,1,2,2,3,3,4,4,5,5,6,6],"right_children":[2,4,6,8,10,12,14,-1,-1,-1,-1,-1,-1,-1,-1],"split_conditions":[4.64E-1,-2E0,2.9E0,-4.7E0,2.4E1,2.3E1,3.2E0,-3.9446822E-4,2.9796811E-3,-8.2259096E-4,-3.4429405E-3,3.2489316E-3,5.8608125E-3,-8.152984E-4,1.8083024E-3],"split_indices":[3,77,77,25,51,80,25,0,0,0,0,0,0,0,0],"split_type":[0,0,0,0,0,0,0,0,0,0,0,0,0,0,0],"sum_hessian":[6.798003E3,2.5751284E3,4.2228745E3,8.122654E2,1.7628632E3,2.8500967E3,1.3727777E3,3.5899557E2,4.5326984E2,7.544659E2,1.0083972E3,2.0120356E3,8.380611E2,6.9847925E2,6.742984E2],"tree_param":{"num_deleted":"0","num_feature":"106","num_nodes":"15","size_leaf_vector":"1"}},{"base_weights":[-1.3432436E-1,-2.5924668E-1,1.5952162E-1,-1.0572021E-1,-4.3402463E-1,-1.0173891E-1,2.7832136E-1,-2.5085248E-3,2.5066512E-4,-3.2627725E-3,-5.475026E-3,4.6585582E-4,-2.6399686E-3,4.1720546E-3,1.7341136E-3],"categories":[],"categories_nodes":[],"categories_segments":[],"categories_sizes":[],"default_left":[0,0,0,0,0,0,0,0,0,0,0,0,0,0,0],"id":16,"left_children":[1,3,5,7,9,11,13,-1,-1,-1,-1,-1,-1,-1,-1],"loss_changes":[2.4958148E2,1.2796033E2,6.2988903E1,4.823713E1,2.7093811E1,1.5290161E1,2.0249039E1,0E0,0E0,0E0,0E0,0E0,0E0,0E0,0E0],"parents":[2147483647,0,0,1,1,2,2,3,3,4,4,5,5,6,6],"right_children":[2,4,6,8,10,12,14,-1,-1,-1,-1,-1,-1,-1,-1],"split_conditions":[2E1,1.4E1,-2E0,1E1,2.2E1,-4.6E0,-5.9E0,-2.5085248E-3,2.5066512E-4,-3.2627725E-3,-5.475026E-3,4.6585582E-4,-2.6399686E-3,4.1720546E-3,1.7341136E-3],"split_indices":[28,80,77,51,80,25,25,0,0,0,0,0,0,0,0],"split_type":[0,0,0,0,0,0,0,0,0,0,0,0,0,0,0],"sum_hessian":[6.7969907E3,4.76947E3,2.0275205E3,2.5399558E3,2.2295144E3,6.3380994E2,1.3937106E3,1.2035142E3,1.3364417E3,1.1456215E3,1.0838928E3,3.3149454E2,3.023154E2,5.984636E2,7.95247E2],"tree_param":{"num_deleted":"0","num_feature":"106","num_nodes":"15","size_leaf_vector":"1"}},{"base_weights":[1.3432436E-1,2.5924668E-1,-1.5952164E-1,1.0572018E-1,4.340247E-1,1.0173902E-1,-2.7832144E-1,2.5085246E-3,-2.5066553E-4,3.2627732E-3,5.475026E-3,-4.6585465E-4,2.6399698E-3,-4.1720555E-3,-1.7341141E-3],"categories":[],"categories_nodes":[],"categories_segments":[],"categories_sizes":[],"default_left":[0,0,0,0,0,0,0,0,0,0,0,0,0,0,0],"id":17,"left_children":[1,3,5,7,9,11,13,-1,-1,-1,-1,-1,-1,-1,-1],"loss_changes":[2.4958148E2,1.2796042E2,6.2988964E1,4.8237137E1,2.709375E1,1.5290161E1,2.0249054E1,0E0,0E0,0E0,0E0,0E0,0E0,0E0,0E0],"parents":[2147483647,0,0,1,1,2,2,3,3,4,4,5,5,6,6],"right_children":[2,4,6,8,10,12,14,-1,-1,-1,-1,-1,-1,-1,-1],"split_conditions":[2E1,1.4E1,-2E0,1E1,2.2E1,-4.6E0,-5.9E0,2.5085246E-3,-2.5066553E-4,3.2627732E-3,5.475026E-3,-4.6585465E-4,2.6399698E-3,-4.1720555E-3,-1.7341141E-3],"split_indices":[28,80,77,51,80,25,25,0,0,0,0,0,0,0,0],"split_type":[0,0,0,0,0,0,0,0,0,0,0,0,0,0,0],"sum_hessian":[6.7969907E3,4.76947E3,2.0275205E3,2.5399558E3,2.2295144E3,6.3380994E2,1.3937106E3,1.2035142E3,1.3364418E3,1.1456215E3,1.083893E3,3.3149454E2,3.023154E2,5.9846356E2,7.9524695E2],"tree_param":{"num_deleted":"0","num_feature":"106","num_nodes":"15","size_leaf_vector":"1"}},{"base_weights":[-1.3300456E-1,1.1006281E-1,-2.812436E-1,-1.4574432E-1,2.2794998E-1,-3.9470524E-1,-4.5665655E-2,3.896216E-4,-2.9184395E-3,8.0728944E-4,3.3794579E-3,-5.2844766E-3,-2.922536E-3,8.0849044E-4,-1.7666295E-3],"categories":[],"categories_nodes":[],"categories_segments":[],"categories_sizes":[],"default_left":[0,0,0,0,0,0,0,0,0,0,0,0,0,0,0],"id":18,"left_children":[1,3,5,7,9,11,13,-1,-1,-1,-1,-1,-1,-1,-1],"loss_changes":[2.4493579E2,7.77034E1,1.128396E2,2.195368E1,2.8529762E1,3.8891388E1,2.2780054E1,0E0,0E0,0E0,0E0,0E0,0E0,0E0,0E0],"parents":[2147483647,0,0,1,1,2,2,3,3,4,4,5,5,6,6],"right_children":[2,4,6,8,10,12,14,-1,-1,-1,-1,-1,-1,-1,-1],"split_conditions":[4.64E-1,-2E0,2.9E0,-4.7E0,2.4E1,-1.9E0,3.2E0,3.896216E-4,-2.9184395E-3,8.0728944E-4,3.3794579E-3,-5.2844766E-3,-2.922536E-3,8.0849044E-4,-1.7666295E-3],"split_indices":[3,77,77,25,51,77,25,0,0,0,0,0,0,0,0],"split_type":[0,0,0,0,0,0,0,0,0,0,0,0,0,0,0],"sum_hessian":[6.7958594E3,2.5745803E3,4.2212793E3,8.1211334E2,1.7624669E3,2.8486196E3,1.3726594E3,3.5899152E2,4.5312183E2,7.5444006E2,1.00802686E3,1.2338148E3,1.6148049E3,6.9847156E2,6.741878E2],"tree_param":{"num_deleted":"0","num_feature":"106","num_nodes":"15","size_leaf_vector":"1"}},{"base_weights":[1.3300456E-1,-1.1006279E-1,2.8124356E-1,1.4574428E-1,-2.2794995E-1,3.9470524E-1,4.5665633E-2,-3.896218E-4,2.9184388E-3,-8.072891E-4,-3.3794576E-3,5.2844766E-3,2.9225359E-3,-8.0849126E-4,1.7666296E-3],"categories":[],"categories_nodes":[],"categories_segments":[],"categories_sizes":[],"default_left":[0,0,0,0,0,0,0,0,0,0,0,0,0,0,0],"id":19,"left_children":[1,3,5,7,9,11,13,-1,-1,-1,-1,-1,-1,-1,-1],"loss_changes":[2.4493585E2,7.770337E1,1.1283951E2,2.1953676E1,2.852977E1,3.889145E1,2.2780073E1,0E0,0E0,0E0,0E0,0E0,0E0,0E0,0E0],"parents":[2147483647,0,0,1,1,2,2,3,3,4,4,5,5,6,6],"right_children":[2,4,6,8,10,12,14,-1,-1,-1,-1,-1,-1,-1,-1],"split_conditions":[4.64E-1,-2E0,2.9E0,-4.7E0,2.4E1,-1.9E0,3.2E0,-3.896218E-4,2.9184388E-3,-8.072891E-4,-3.3794576E-3,5.2844766E-3,2.9225359E-3,-8.0849126E-4,1.7666296E-3],"split_indices":[3,77,77,25,51,77,25,0,0,0,0,0,0,0,0],"split_type":[0,0,0,0,0,0,0,0,0,0,0,0,0,0,0],"sum_hessian":[6.7958594E3,2.5745803E3,4.221279E3,8.121134E2,1.7624669E3,2.8486196E3,1.3726594E3,3.5899155E2,4.5312186E2,7.5444006E2,1.0080268E3,1.2338148E3,1.6148048E3,6.9847156E2,6.741878E2],"tree_param":{"num_deleted":"0","num_feature":"106","num_nodes":"15","size_leaf_vector":"1"}},{"base_weights":[-1.3169977E-1,-3.2416296E-1,5.2663423E-2,-1.7212687E-1,-4.796726E-1,-2.140524E-1,1.7526689E-1,-2.6155293E-3,-2.9019685E-4,-3.9143623E-3,-6.151307E-3,2.656417E-4,-3.4634834E-3,5.825607E-4,3.2877E-3],"categories":[],"categories_nodes":[],"categories_segments":[],"categories_sizes":[],"default_left":[0,0,0,0,0,0,0,0,0,0,0,0,0,0,0],"id":20,"left_children":[1,3,5,7,9,11,13,-1,-1,-1,-1,-1,-1,-1,-1],"loss_changes":[2.4114713E2,7.852872E1,1.1356342E2,2.1527973E1,1.9398346E1,3.4826183E1,4.2710564E1,0E0,0E0,0E0,0E0,0E0,0E0,0E0,0E0],"parents":[2147483647,0,0,1,1,2,2,3,3,4,4,5,5,6,6],"right_children":[2,4,6,8,10,12,14,-1,-1,-1,-1,-1,-1,-1,-1],"split_conditions":[1.5E1,1.3E1,-1.9E0,4.9E0,2.3E1,-4.6E0,2.4E1,-2.6155293E-3,-2.9019685E-4,-3.9143623E-3,-6.151307E-3,2.656417E-4,-3.4634834E-3,5.825607E-4,3.2877E-3],"split_indices":[51,80,77,77,80,25,51,0,0,0,0,0,0,0,0],"split_type":[0,0,0,0,0,0,0,0,0,0,0,0,0,0,0],"sum_hessian":[6.794626E3,3.3239155E3,3.4707104E3,1.681794E3,1.6421216E3,1.0927526E3,2.3779578E3,1.0345117E3,6.472822E2,9.967416E2,6.4538E2,3.8795285E2,7.0479974E2,1.3501549E3,1.0278029E3],"tree_param":{"num_deleted":"0","num_feature":"106","num_nodes":"15","size_leaf_vector":"1"}},{"base_weights":[1.3169979E-1,3.24163E-1,-5.2663404E-2,1.721269E-1,4.7967258E-1,2.1405238E-1,-1.7526685E-1,2.6155298E-3,2.9019694E-4,3.9143628E-3,6.1513064E-3,-2.6564166E-4,3.4634832E-3,-5.825602E-4,-3.2877E-3],"categories":[],"categories_nodes":[],"categories_segments":[],"categories_sizes":[],"default_left":[0,0,0,0,0,0,0,0,0,0,0,0,0,0,0],"id":21,"left_children":[1,3,5,7,9,11,13,-1,-1,-1,-1,-1,-1,-1,-1],"loss_changes":[2.4114716E2,7.8528656E1,1.1356339E2,2.1527988E1,1.9398346E1,3.4826183E1,4.271058E1,0E0,0E0,0E0,0E0,0E0,0E0,0E0,0E0],"parents":[2147483647,0,0,1,1,2,2,3,3,4,4,5,5,6,6],"right_children":[2,4,6,8,10,12,14,-1,-1,-1,-1,-1,-1,-1,-1],"split_conditions":[1.5E1,1.3E1,-1.9E0,4.9E0,2.3E1,-4.6E0,2.4E1,2.6155298E-3,2.9019694E-4,3.9143628E-3,6.1513064E-3,-2.6564166E-4,3.4634832E-3,-5.825602E-4,-3.2877E-3],"split_indices":[51,80,77,77,80,25,51,0,0,0,0,0,0,0,0],"split_type":[0,0,0,0,0,0,0,0,0,0,0,0,0,0,0],"sum_hessian":[6.794626E3,3.3239155E3,3.4707104E3,1.6817938E3,1.6421216E3,1.0927526E3,2.3779578E3,1.0345116E3,6.472822E2,9.967416E2,6.4538E2,3.8795285E2,7.0479974E2,1.3501549E3,1.0278029E3],"tree_param":{"num_deleted":"0","num_feature":"106","num_nodes":"15","size_leaf_vector":"1"}},{"base_weights":[-1.304099E-1,-3.210102E-1,5.214345E-2,-1.7041883E-1,-4.7510323E-1,-2.119537E-1,1.7353281E-1,-2.589669E-3,-2.873017E-4,-3.8763685E-3,-6.0944036E-3,2.6299266E-4,-3.4298687E-3,5.767384E-4,3.2555952E-3],"categories":[],"categories_nodes":[],"categories_segments":[],"categories_sizes":[],"default_left":[0,0,0,0,0,0,0,0,0,0,0,0,0,0,0],"id":22,"left_children":[1,3,5,7,9,11,13,-1,-1,-1,-1,-1,-1,-1,-1],"loss_changes":[2.3642331E2,7.705374E1,1.1132112E2,2.1103912E1,1.9061462E1,3.414871E1,4.187932E1,0E0,0E0,0E0,0E0,0E0,0E0,0E0,0E0],"parents":[2147483647,0,0,1,1,2,2,3,3,4,4,5,5,6,6],"right_children":[2,4,6,8,10,12,14,-1,-1,-1,-1,-1,-1,-1,-1],"split_conditions":[1.5E1,1.3E1,-1.9E0,4.9E0,2.3E1,-4.6E0,2.4E1,-2.589669E-3,-2.873017E-4,-3.8763685E-3,-6.0944036E-3,2.6299266E-4,-3.4298687E-3,5.767384E-4,3.2555952E-3],"split_indices":[51,80,77,77,80,25,51,0,0,0,0,0,0,0,0],"split_type":[0,0,0,0,0,0,0,0,0,0,0,0,0,0,0],"sum_hessian":[6.7933228E3,3.3230422E3,3.4702805E3,1.6816815E3,1.6413606E3,1.0925533E3,2.377727E3,1.0344044E3,6.4727716E2,9.964571E2,6.449035E2,3.8795248E2,7.046009E2,1.350157E3,1.0275701E3],"tree_param":{"num_deleted":"0","num_feature":"106","num_nodes":"15","size_leaf_vector":"1"}},{"base_weights":[1.304099E-1,3.210102E-1,-5.214345E-2,1.704188E-1,4.751033E-1,2.119537E-1,-1.7353283E-1,2.5896688E-3,2.873017E-4,3.8763692E-3,6.0944036E-3,-2.629925E-4,3.4298687E-3,-5.76738E-4,-3.2555962E-3],"categories":[],"categories_nodes":[],"categories_segments":[],"categories_sizes":[],"default_left":[0,0,0,0,0,0,0,0,0,0,0,0,0,0,0],"id":23,"left_children":[1,3,5,7,9,11,13,-1,-1,-1,-1,-1,-1,-1,-1],"loss_changes":[2.3642334E2,7.705371E1,1.1132114E2,2.1103916E1,1.9061462E1,3.414871E1,4.187935E1,0E0,0E0,0E0,0E0,0E0,0E0,0E0,0E0],"parents":[2147483647,0,0,1,1,2,2,3,3,4,4,5,5,6,6],"right_children":[2,4,6,8,10,12,14,-1,-1,-1,-1,-1,-1,-1,-1],"split_conditions":[1.5E1,1.3E1,-1.9E0,4.9E0,2.3E1,-4.6E0,2.4E1,2.5896688E-3,2.873017E-4,3.8763692E-3,6.0944036E-3,-2.629925E-4,3.4298687E-3,-5.76738E-4,-3.2555962E-3],"split_indices":[51,80,77,77,80,25,51,0,0,0,0,0,0,0,0],"split_type":[0,0,0,0,0,0,0,0,0,0,0,0,0,0,0],"sum_hessian":[6.7933228E3,3.3230422E3,3.4702805E3,1.6816815E3,1.6413606E3,1.0925533E3,2.377727E3,1.0344044E3,6.4727716E2,9.9645703E2,6.449035E2,3.8795245E2,7.046009E2,1.350157E3,1.0275701E3],"tree_param":{"num_deleted":"0","num_feature":"106","num_nodes":"15","size_leaf_vector":"1"}},{"base_weights":[-1.2913495E-1,-2.497473E-1,1.5449734E-1,-1.0145426E-1,-4.1878232E-1,-1.7422178E-1,2.4236174E-1,-2.4262585E-3,2.571721E-4,-3.1448114E-3,-5.2877725E-3,-2.82762E-3,8.2616124E-4,3.8069168E-3,1.387097E-3],"categories":[],"categories_nodes":[],"categories_segments":[],"categories_sizes":[],"default_left":[0,0,0,0,0,0,0,0,0,0,0,0,0,0,0],"id":24,"left_children":[1,3,5,7,9,11,13,-1,-1,-1,-1,-1,-1,-1,-1],"loss_changes":[2.3242073E2,1.1943857E2,5.8598457E1,4.5613335E1,2.538504E1,1.1960115E1,2.2891006E1,0E0,0E0,0E0,0E0,0E0,0E0,0E0,0E0],"parents":[2147483647,0,0,1,1,2,2,3,3,4,4,5,5,6,6],"right_children":[2,4,6,8,10,12,14,-1,-1,-1,-1,-1,-1,-1,-1],"split_conditions":[2E1,1.4E1,3.6E-1,1E1,2.2E1,2.7E1,-5.9E0,-2.4262585E-3,2.571721E-4,-3.1448114E-3,-5.2877725E-3,-2.82762E-3,8.2616124E-4,3.8069168E-3,1.387097E-3],"split_indices":[28,80,55,51,80,28,25,0,0,0,0,0,0,0,0],"split_type":[0,0,0,0,0,0,0,0,0,0,0,0,0,0,0],"sum_hessian":[6.791901E3,4.765521E3,2.0263801E3,2.5393606E3,2.2261602E3,4.2719003E2,1.5991901E3,1.2030076E3,1.336353E3,1.1446348E3,1.0815254E3,3.0021686E2,1.26973175E2,6.83862E2,9.153281E2],"tree_param":{"num_deleted":"0","num_feature":"106","num_nodes":"15","size_leaf_vector":"1"}},{"base_weights":[1.2913494E-1,2.4974729E-1,-1.5449736E-1,1.01454236E-1,4.1878232E-1,1.742218E-1,-2.4236177E-1,2.4262583E-3,-2.5717207E-4,3.1448114E-3,5.2877725E-3,2.8276201E-3,-8.2616106E-4,-3.8069168E-3,-1.3870974E-3],"categories":[],"categories_nodes":[],"categories_segments":[],"categories_sizes":[],"default_left":[0,0,0,0,0,0,0,0,0,0,0,0,0,0,0],"id":25,"left_children":[1,3,5,7,9,11,13,-1,-1,-1,-1,-1,-1,-1,-1],"loss_changes":[2.3242072E2,1.1943857E2,5.8598465E1,4.5613323E1,2.538501E1,1.1960115E1,2.2891014E1,0E0,0E0,0E0,0E0,0E0,0E0,0E0,0E0],"parents":[2147483647,0,0,1,1,2,2,3,3,4,4,5,5,6,6],"right_children":[2,4,6,8,10,12,14,-1,-1,-1,-1,-1,-1,-1,-1],"split_conditions":[2E1,1.4E1,3.6E-1,1E1,2.2E1,2.7E1,-5.9E0,2.4262583E-3,-2.5717207E-4,3.1448114E-3,5.2877725E-3,2.8276201E-3,-8.2616106E-4,-3.8069168E-3,-1.3870974E-3],"split_indices":[28,80,55,51,80,28,25,0,0,0,0,0,0,0,0],"split_type":[0,0,0,0,0,0,0,0,0,0,0,0,0,0,0],"sum_hessian":[6.791901E3,4.765521E3,2.0263801E3,2.5393606E3,2.2261602E3,4.2719E2,1.5991901E3,1.2030076E3,1.336353E3,1.1446348E3,1.0815255E3,3.0021686E2,1.2697317E2,6.8386194E2,9.153281E2],"tree_param":{"num_deleted":"0","num_feature":"106","num_nodes":"15","size_leaf_vector":"1"}},{"base_weights":[-1.2787327E-1,-3.1524602E-1,5.1539943E-2,-4.2040536E-1,-1.0095157E-1,-1.8846864E-1,1.8058482E-1,-3.474157E-3,-5.9906887E-3,-1.8640466E-3,1.1481851E-4,5.010881E-4,-3.1722095E-3,6.6342903E-4,3.3331704E-3],"categories":[],"categories_nodes":[],"categories_segments":[],"categories_sizes":[],"default_left":[0,0,0,0,0,0,0,0,0,0,0,0,0,0,0],"id":26,"left_children":[1,3,5,7,9,11,13,-1,-1,-1,-1,-1,-1,-1,-1],"loss_changes":[2.2832373E2,7.482245E1,1.07514145E2,2.8849365E1,1.0521873E1,3.7304108E1,3.9364845E1,0E0,0E0,0E0,0E0,0E0,0E0,0E0,0E0],"parents":[2147483647,0,0,1,1,2,2,3,3,4,4,5,5,6,6],"right_children":[2,4,6,8,10,12,14,-1,-1,-1,-1,-1,-1,-1,-1],"split_conditions":[1.5E1,2.9E0,-1.4E0,2.3E1,1.16E1,-4.7E0,2.4E1,-3.474157E-3,-5.9906887E-3,-1.8640466E-3,1.1481851E-4,5.010881E-4,-3.1722095E-3,6.6342903E-4,3.3331704E-3],"split_indices":[51,77,77,80,60,25,51,0,0,0,0,0,0,0,0],"split_type":[0,0,0,0,0,0,0,0,0,0,0,0,0,0,0],"sum_hessian":[6.7904E3,3.3211514E3,3.4692485E3,2.2272334E3,1.0939178E3,1.2129119E3,2.2563367E3,1.5833356E3,6.438978E2,6.211588E2,4.727591E2,4.253504E2,7.8756146E2,1.2916398E3,9.646969E2],"tree_param":{"num_deleted":"0","num_feature":"106","num_nodes":"15","size_leaf_vector":"1"}},{"base_weights":[1.2787327E-1,3.15246E-1,-5.1539924E-2,4.2040536E-1,1.00951545E-1,1.8846866E-1,-1.805848E-1,3.474157E-3,5.9906873E-3,1.8640464E-3,-1.1481867E-4,-5.0108746E-4,3.1722097E-3,-6.63429E-4,-3.3331704E-3],"categories":[],"categories_nodes":[],"categories_segments":[],"categories_sizes":[],"default_left":[0,0,0,0,0,0,0,0,0,0,0,0,0,0,0],"id":27,"left_children":[1,3,5,7,9,11,13,-1,-1,-1,-1,-1,-1,-1,-1],"loss_changes":[2.2832367E2,7.482245E1,1.07514145E2,2.8849335E1,1.0521876E1,3.7304104E1,3.9364845E1,0E0,0E0,0E0,0E0,0E0,0E0,0E0,0E0],"parents":[2147483647,0,0,1,1,2,2,3,3,4,4,5,5,6,6],"right_children":[2,4,6,8,10,12,14,-1,-1,-1,-1,-1,-1,-1,-1],"split_conditions":[1.5E1,2.9E0,-1.4E0,2.3E1,1.16E1,-4.7E0,2.4E1,3.474157E-3,5.9906873E-3,1.8640464E-3,-1.1481867E-4,-5.0108746E-4,3.1722097E-3,-6.63429E-4,-3.3331704E-3],"split_indices":[51,77,77,80,60,25,51,0,0,0,0,0,0,0,0],"split_type":[0,0,0,0,0,0,0,0,0,0,0,0,0,0,0],"sum_hessian":[6.7904E3,3.3211514E3,3.4692485E3,2.2272334E3,1.093918E3,1.2129119E3,2.2563367E3,1.5833356E3,6.438978E2,6.211588E2,4.727591E2,4.253504E2,7.8756146E2,1.2916398E3,9.646969E2],"tree_param":{"num_deleted":"0","num_feature":"106","num_nodes":"15","size_leaf_vector":"1"}},{"base_weights":[-1.2662624E-1,1.0598641E-1,-2.6856554E-1,-1.3791905E-1,2.1839531E-1,-3.7796596E-1,-4.1766796E-2,3.7218435E-4,-2.7660707E-3,7.8845985E-4,3.2277652E-3,-5.060358E-3,-2.8004958E-3,8.1075623E-4,-1.690116E-3],"categories":[],"categories_nodes":[],"categories_segments":[],"categories_sizes":[],"default_left":[0,0,0,0,0,0,0,0,0,0,0,0,0,0,0],"id":28,"left_children":[1,3,5,7,9,11,13,-1,-1,-1,-1,-1,-1,-1,-1],"loss_changes":[2.2420639E2,7.059534E1,1.0461676E2,1.9747313E1,2.564315E1,3.5530853E1,2.1480816E1,0E0,0E0,0E0,0E0,0E0,0E0,0E0,0E0],"parents":[2147483647,0,0,1,1,2,2,3,3,4,4,5,5,6,6],"right_children":[2,4,6,8,10,12,14,-1,-1,-1,-1,-1,-1,-1,-1],"split_conditions":[4.64E-1,-2E0,2.9E0,-4.7E0,2.4E1,-1.9E0,3.2E0,3.7218435E-4,-2.7660707E-3,7.8845985E-4,3.2277652E-3,-5.060358E-3,-2.8004958E-3,8.1075623E-4,-1.690116E-3],"split_indices":[3,77,77,25,51,77,25,0,0,0,0,0,0,0,0],"split_type":[0,0,0,0,0,0,0,0,0,0,0,0,0,0,0],"sum_hessian":[6.788798E3,2.5727625E3,4.216035E3,8.115751E2,1.7611873E3,2.8436726E3,1.3723627E3,3.589804E2,4.525947E2,7.543873E2,1.0067999E3,1.2303136E3,1.613359E3,6.9844507E2,6.7391754E2],"tree_param":{"num_deleted":"0","num_feature":"106","num_nodes":"15","size_leaf_vector":"1"}},{"base_weights":[1.2662624E-1,-1.0598638E-1,2.6856554E-1,1.3791905E-1,-2.1839526E-1,3.7796593E-1,4.176677E-2,-3.7218462E-4,2.7660707E-3,-7.884588E-4,-3.2277652E-3,5.060358E-3,2.8004958E-3,-8.107566E-4,1.6901159E-3],"categories":[],"categories_nodes":[],"categories_segments":[],"categories_sizes":[],"default_left":[0,0,0,0,0,0,0,0,0,0,0,0,0,0,0],"id":29,"left_children":[1,3,5,7,9,11,13,-1,-1,-1,-1,-1,-1,-1,-1],"loss_changes":[2.2420638E2,7.0595314E1,1.0461676E2,1.9747316E1,2.5643166E1,3.5530853E1,2.1480824E1,0E0,0E0,0E0,0E0,0E0,0E0,0E0,0E0],"parents":[2147483647,0,0,1,1,2,2,3,3,4,4,5,5,6,6],"right_children":[2,4,6,8,10,12,14,-1,-1,-1,-1,-1,-1,-1,-1],"split_conditions":[4.64E-1,-2E0,2.9E0,-4.7E0,2.4E1,-1.9E0,3.2E0,-3.7218462E-4,2.7660707E-3,-7.884588E-4,-3.2277652E-3,5.060358E-3,2.8004958E-3,-8.107566E-4,1.6901159E-3],"split_indices":[3,77,77,25,51,77,25,0,0,0,0,0,0,0,0],"split_type":[0,0,0,0,0,0,0,0,0,0,0,0,0,0,0],"sum_hessian":[6.788798E3,2.5727622E3,4.216035E3,8.115751E2,1.7611873E3,2.8436726E3,1.3723627E3,3.589804E2,4.525947E2,7.543873E2,1.0067999E3,1.2303136E3,1.6133591E3,6.984451E2,6.7391754E2],"tree_param":{"num_deleted":"0","num_feature":"106","num_nodes":"15","size_leaf_vector":"1"}},{"base_weights":[-1.2539357E-1,-3.0959937E-1,5.093455E-2,-1.6384149E-1,-4.590005E-1,-1.847069E-1,1.776073E-1,-2.3414928E-3,7.31198E-5,-3.7434776E-3,-5.8927783E-3,4.9081806E-4,-3.1095427E-3,6.586517E-4,3.2707849E-3],"categories":[],"categories_nodes":[],"categories_segments":[],"categories_sizes":[],"default_left":[0,0,0,0,0,0,0,0,0,0,0,0,0,0,0],"id":30,"left_children":[1,3,5,7,9,11,13,-1,-1,-1,-1,-1,-1,-1,-1],"loss_changes":[2.2049626E2,7.2222626E1,1.0358154E2,2.0242523E1,1.785437E1,3.582731E1,3.7670433E1,0E0,0E0,0E0,0E0,0E0,0E0,0E0,0E0],"parents":[2147483647,0,0,1,1,2,2,3,3,4,4,5,5,6,6],"right_children":[2,4,6,8,10,12,14,-1,-1,-1,-1,-1,-1,-1,-1],"split_conditions":[1.5E1,1.3E1,-1.4E0,6E0,2.3E1,-4.7E0,2.4E1,-2.3414928E-3,7.31198E-5,-3.7434776E-3,-5.8927783E-3,4.9081806E-4,-3.1095427E-3,6.586517E-4,3.2707849E-3],"split_indices":[51,80,77,77,80,25,51,0,0,0,0,0,0,0,0],"split_type":[0,0,0,0,0,0,0,0,0,0,0,0,0,0,0],"sum_hessian":[6.7870537E3,3.3190085E3,3.4680454E3,1.6810492E3,1.6379594E3,1.2123422E3,2.2557031E3,1.1913065E3,4.8974265E2,9.9517786E2,6.427815E2,4.253246E2,7.8701764E2,1.2915804E3,9.6412274E2],"tree_param":{"num_deleted":"0","num_feature":"106","num_nodes":"15","size_leaf_vector":"1"}},{"base_weights":[1.2539358E-1,3.095994E-1,-5.0934542E-2,1.638415E-1,4.590005E-1,1.847069E-1,-1.7760728E-1,2.341493E-3,-7.311968E-5,3.7434779E-3,5.8927783E-3,-4.908182E-4,3.109543E-3,-6.586517E-4,-3.2707846E-3],"categories":[],"categories_nodes":[],"categories_segments":[],"categories_sizes":[],"default_left":[0,0,0,0,0,0,0,0,0,0,0,0,0,0,0],"id":31,"left_children":[1,3,5,7,9,11,13,-1,-1,-1,-1,-1,-1,-1,-1],"loss_changes":[2.2049628E2,7.2222626E1,1.0358155E2,2.0242523E1,1.785437E1,3.5827316E1,3.767041E1,0E0,0E0,0E0,0E0,0E0,0E0,0E0,0E0],"parents":[2147483647,0,0,1,1,2,2,3,3,4,4,5,5,6,6],"right_children":[2,4,6,8,10,12,14,-1,-1,-1,-1,-1,-1,-1,-1],"split_conditions":[1.5E1,1.3E1,-1.4E0,6E0,2.3E1,-4.7E0,2.4E1,2.341493E-3,-7.311968E-5,3.7434779E-3,5.8927783E-3,-4.908182E-4,3.109543E-3,-6.586517E-4,-3.2707846E-3],"split_indices":[51,80,77,77,80,25,51,0,0,0,0,0,0,0,0],"split_type":[0,0,0,0,0,0,0,0,0,0,0,0,0,0,0],"sum_hessian":[6.787054E3,3.3190085E3,3.4680454E3,1.6810492E3,1.6379594E3,1.2123422E3,2.2557031E3,1.1913066E3,4.8974265E2,9.9517786E2,6.427815E2,4.253246E2,7.870176E2,1.2915804E3,9.641228E2],"tree_param":{"num_deleted":"0","num_feature":"106","num_nodes":"15","size_leaf_vector":"1"}},{"base_weights":[-1.2417472E-1,-2.4066345E-1,1.4965232E-1,-9.72869E-2,-4.0436554E-1,-8.904116E-3,3.2139945E-1,-2.3458106E-3,2.633399E-4,-3.0330254E-3,-5.111329E-3,1.3992767E-3,-1.6888104E-3,4.5552263E-3,2.347066E-3],"categories":[],"categories_nodes":[],"categories_segments":[],"categories_sizes":[],"default_left":[0,0,0,0,0,0,0,0,0,0,0,0,0,0,0],"id":32,"left_children":[1,3,5,7,9,11,13,-1,-1,-1,-1,-1,-1,-1,-1],"loss_changes":[2.1650204E2,1.11713104E2,5.5172844E1,4.310829E1,2.382901E1,2.5128603E1,1.1201447E1,0E0,0E0,0E0,0E0,0E0,0E0,0E0,0E0],"parents":[2147483647,0,0,1,1,2,2,3,3,4,4,5,5,6,6],"right_children":[2,4,6,8,10,12,14,-1,-1,-1,-1,-1,-1,-1,-1],"split_conditions":[2E1,1.4E1,5.14E-1,1E1,2.2E1,-4.9E0,-6.1E0,-2.3458106E-3,2.633399E-4,-3.0330254E-3,-5.111329E-3,1.3992767E-3,-1.6888104E-3,4.5552263E-3,2.347066E-3],"split_indices":[28,80,55,51,80,25,25,0,0,0,0,0,0,0,0],"split_type":[0,0,0,0,0,0,0,0,0,0,0,0,0,0,0],"sum_hessian":[6.785244E3,4.7602905E3,2.0249536E3,2.5385369E3,2.2217537E3,1.0534032E3,9.715504E2,1.202327E3,1.3362098E3,1.1433405E3,1.0784132E3,5.457756E2,5.0762762E2,3.7976242E2,5.9178796E2],"tree_param":{"num_deleted":"0","num_feature":"106","num_nodes":"15","size_leaf_vector":"1"}},{"base_weights":[1.2417472E-1,2.4066345E-1,-1.4965232E-1,9.728691E-2,4.0436554E-1,8.904101E-3,-3.2139945E-1,2.3458106E-3,-2.6333972E-4,3.0330245E-3,5.1113293E-3,-1.3992765E-3,1.68881E-3,-4.5552263E-3,-2.347066E-3],"categories":[],"categories_nodes":[],"categories_segments":[],"categories_sizes":[],"default_left":[0,0,0,0,0,0,0,0,0,0,0,0,0,0,0],"id":33,"left_children":[1,3,5,7,9,11,13,-1,-1,-1,-1,-1,-1,-1,-1],"loss_changes":[2.1650204E2,1.1171307E2,5.517284E1,4.3108276E1,2.382904E1,2.5128595E1,1.1201447E1,0E0,0E0,0E0,0E0,0E0,0E0,0E0,0E0],"parents":[2147483647,0,0,1,1,2,2,3,3,4,4,5,5,6,6],"right_children":[2,4,6,8,10,12,14,-1,-1,-1,-1,-1,-1,-1,-1],"split_conditions":[2E1,1.4E1,5.14E-1,1E1,2.2E1,-4.9E0,-6.1E0,2.3458106E-3,-2.6333972E-4,3.0330245E-3,5.1113293E-3,-1.3992765E-3,1.68881E-3,-4.5552263E-3,-2.347066E-3],"split_indices":[28,80,55,51,80,25,25,0,0,0,0,0,0,0,0],"split_type":[0,0,0,0,0,0,0,0,0,0,0,0,0,0,0],"sum_hessian":[6.785244E3,4.7602905E3,2.0249536E3,2.5385369E3,2.2217537E3,1.0534032E3,9.715504E2,1.202327E3,1.3362098E3,1.1433405E3,1.0784132E3,5.4577563E2,5.0762762E2,3.7976242E2,5.9178796E2],"tree_param":{"num_deleted":"0","num_feature":"106","num_nodes":"15","size_leaf_vector":"1"}},{"base_weights":[-1.229677E-1,-3.0408117E-1,5.0338812E-2,-4.061322E-1,-9.6464165E-2,-2.0030822E-1,1.654705E-1,-3.3548262E-3,-5.795081E-3,-1.8095227E-3,1.467967E-4,2.4065776E-4,-3.2396284E-3,5.652318E-4,3.0863604E-3],"categories":[],"categories_nodes":[],"categories_segments":[],"categories_sizes":[],"default_left":[0,0,0,0,0,0,0,0,0,0,0,0,0,0,0],"id":34,"left_children":[1,3,5,7,9,11,13,-1,-1,-1,-1,-1,-1,-1,-1],"loss_changes":[2.1296432E2,7.025278E1,1.0010396E2,2.7046967E1,1.0281584E1,3.030407E1,3.7054832E1,0E0,0E0,0E0,0E0,0E0,0E0,0E0,0E0],"parents":[2147483647,0,0,1,1,2,2,3,3,4,4,5,5,6,6],"right_children":[2,4,6,8,10,12,14,-1,-1,-1,-1,-1,-1,-1,-1],"split_conditions":[1.5E1,2.9E0,-1.9E0,2.3E1,1.16E1,-4.6E0,2.4E1,-3.3548262E-3,-5.795081E-3,-1.8095227E-3,1.467967E-4,2.4065776E-4,-3.2396284E-3,5.652318E-4,3.0863604E-3],"split_indices":[51,77,77,80,60,25,51,0,0,0,0,0,0,0,0],"split_type":[0,0,0,0,0,0,0,0,0,0,0,0,0,0,0],"sum_hessian":[6.783377E3,3.3166094E3,3.4667678E3,2.2229805E3,1.0936288E3,1.0909591E3,2.3758086E3,1.5814747E3,6.415058E2,6.209635E2,4.726653E2,3.8790408E2,7.0305505E2,1.3499257E3,1.0258829E3],"tree_param":{"num_deleted":"0","num_feature":"106","num_nodes":"15","size_leaf_vector":"1"}},{"base_weights":[1.2296773E-1,3.0408123E-1,-5.0338794E-2,4.0613228E-1,9.646416E-2,2.0030823E-1,-1.6547047E-1,3.3548267E-3,5.7950825E-3,1.8095225E-3,-1.4679648E-4,-2.406577E-4,3.2396284E-3,-5.6523166E-4,-3.0863597E-3],"categories":[],"categories_nodes":[],"categories_segments":[],"categories_sizes":[],"default_left":[0,0,0,0,0,0,0,0,0,0,0,0,0,0,0],"id":35,"left_children":[1,3,5,7,9,11,13,-1,-1,-1,-1,-1,-1,-1,-1],"loss_changes":[2.1296436E2,7.025278E1,1.0010395E2,2.7046997E1,1.0281579E1,3.030407E1,3.7054825E1,0E0,0E0,0E0,0E0,0E0,0E0,0E0,0E0],"parents":[2147483647,0,0,1,1,2,2,3,3,4,4,5,5,6,6],"right_children":[2,4,6,8,10,12,14,-1,-1,-1,-1,-1,-1,-1,-1],"split_conditions":[1.5E1,2.9E0,-1.9E0,2.3E1,1.16E1,-4.6E0,2.4E1,3.3548267E-3,5.7950825E-3,1.8095225E-3,-1.4679648E-4,-2.406577E-4,3.2396284E-3,-5.6523166E-4,-3.0863597E-3],"split_indices":[51,77,77,80,60,25,51,0,0,0,0,0,0,0,0],"split_type":[0,0,0,0,0,0,0,0,0,0,0,0,0,0,0],"sum_hessian":[6.783377E3,3.3166091E3,3.4667678E3,2.2229805E3,1.0936288E3,1.0909591E3,2.3758086E3,1.5814747E3,6.4150574E2,6.209635E2,4.726653E2,3.8790408E2,7.0305505E2,1.3499257E3,1.0258829E3],"tree_param":{"num_deleted":"0","num_feature":"106","num_nodes":"15","size_leaf_vector":"1"}},{"base_weights":[-1.21775664E-1,-3.0116692E-1,4.984482E-2,-4.0231058E-1,-9.550572E-2,-1.7966332E-1,1.7318232E-1,-3.3224812E-3,-5.743821E-3,-1.7916188E-3,1.4533101E-4,4.7169585E-4,-3.0227746E-3,6.462403E-4,3.1852599E-3],"categories":[],"categories_nodes":[],"categories_segments":[],"categories_sizes":[],"default_left":[0,0,0,0,0,0,0,0,0,0,0,0,0,0,0],"id":36,"left_children":[1,3,5,7,9,11,13,-1,-1,-1,-1,-1,-1,-1,-1],"loss_changes":[2.088259E2,6.8944244E1,9.817495E1,2.6605286E1,1.0078639E1,3.3735435E1,3.5570427E1,0E0,0E0,0E0,0E0,0E0,0E0,0E0,0E0],"parents":[2147483647,0,0,1,1,2,2,3,3,4,4,5,5,6,6],"right_children":[2,4,6,8,10,12,14,-1,-1,-1,-1,-1,-1,-1,-1],"split_conditions":[1.5E1,2.9E0,-1.4E0,2.3E1,1.16E1,-4.7E0,2.4E1,-3.3224812E-3,-5.743821E-3,-1.7916188E-3,1.4533101E-4,4.7169585E-4,-3.0227746E-3,6.462403E-4,3.1852599E-3],"split_indices":[51,77,77,80,60,25,51,0,0,0,0,0,0,0,0],"split_type":[0,0,0,0,0,0,0,0,0,0,0,0,0,0,0],"sum_hessian":[6.7813887E3,3.3152612E3,3.4661274E3,2.2216855E3,1.0935757E3,1.2114282E3,2.2546992E3,1.5809146E3,6.407711E2,6.209074E2,4.7266824E2,4.252824E2,7.8614575E2,1.2915073E3,9.631919E2],"tree_param":{"num_deleted":"0","num_feature":"106","num_nodes":"15","size_leaf_vector":"1"}},{"base_weights":[1.2177567E-1,3.0116695E-1,-4.9844824E-2,4.023106E-1,9.550573E-2,1.7966332E-1,-1.7318232E-1,3.3224812E-3,5.7438225E-3,1.7916188E-3,-1.4533073E-4,-4.7169594E-4,3.0227746E-3,-6.4624054E-4,-3.1852596E-3],"categories":[],"categories_nodes":[],"categories_segments":[],"categories_sizes":[],"default_left":[0,0,0,0,0,0,0,0,0,0,0,0,0,0,0],"id":37,"left_children":[1,3,5,7,9,11,13,-1,-1,-1,-1,-1,-1,-1,-1],"loss_changes":[2.0882591E2,6.894418E1,9.817495E1,2.6605377E1,1.0078635E1,3.373544E1,3.557042E1,0E0,0E0,0E0,0E0,0E0,0E0,0E0,0E0],"parents":[2147483647,0,0,1,1,2,2,3,3,4,4,5,5,6,6],"right_children":[2,4,6,8,10,12,14,-1,-1,-1,-1,-1,-1,-1,-1],"split_conditions":[1.5E1,2.9E0,-1.4E0,2.3E1,1.16E1,-4.7E0,2.4E1,3.3224812E-3,5.7438225E-3,1.7916188E-3,-1.4533073E-4,-4.7169594E-4,3.0227746E-3,-6.4624054E-4,-3.1852596E-3],"split_indices":[51,77,77,80,60,25,51,0,0,0,0,0,0,0,0],"split_type":[0,0,0,0,0,0,0,0,0,0,0,0,0,0,0],"sum_hessian":[6.7813887E3,3.3152612E3,3.4661274E3,2.2216858E3,1.0935757E3,1.2114282E3,2.2546992E3,1.5809146E3,6.4077106E2,6.209074E2,4.7266824E2,4.2528238E2,7.8614575E2,1.2915073E3,9.6319183E2],"tree_param":{"num_deleted":"0","num_feature":"106","num_nodes":"15","size_leaf_vector":"1"}},{"base_weights":[-1.205967E-1,-2.3413114E-1,1.4619124E-1,-9.420247E-2,-3.9413044E-1,-1.6626786E-1,2.2974966E-1,-2.2856963E-3,2.6729782E-4,-5.4959785E-3,-3.2611676E-3,-2.7027025E-3,7.9575635E-4,3.6094575E-3,1.3157212E-3],"categories":[],"categories_nodes":[],"categories_segments":[],"categories_sizes":[],"default_left":[0,0,0,0,0,0,0,0,0,0,0,0,0,0,0],"id":38,"left_children":[1,3,5,7,9,11,13,-1,-1,-1,-1,-1,-1,-1,-1],"loss_changes":[2.0540729E2,1.0645654E2,5.289988E1,4.1259556E1,2.3282623E1,1.0959173E1,2.0534302E1,0E0,0E0,0E0,0E0,0E0,0E0,0E0,0E0],"parents":[2147483647,0,0,1,1,2,2,3,3,4,4,5,5,6,6],"right_children":[2,4,6,8,10,12,14,-1,-1,-1,-1,-1,-1,-1,-1],"split_conditions":[2E1,1.4E1,3.6E-1,1E1,7E0,2.7E1,-5.9E0,-2.2856963E-3,2.6729782E-4,-5.4959785E-3,-3.2611676E-3,-2.7027025E-3,7.9575635E-4,3.6094575E-3,1.3157212E-3],"split_indices":[28,80,55,51,51,28,25,0,0,0,0,0,0,0,0],"split_type":[0,0,0,0,0,0,0,0,0,0,0,0,0,0,0],"sum_hessian":[6.779311E3,4.755626E3,2.0236849E3,2.537779E3,2.217847E3,4.2678214E2,1.5969027E3,1.2016936E3,1.3360856E3,6.728189E2,1.5450281E3,2.998383E2,1.2694386E2,6.823679E2,9.1453485E2],"tree_param":{"num_deleted":"0","num_feature":"106","num_nodes":"15","size_leaf_vector":"1"}},{"base_weights":[1.205967E-1,2.3413116E-1,-1.4619125E-1,9.420247E-2,3.9413044E-1,1.6626792E-1,-2.297497E-1,2.2856963E-3,-2.6729776E-4,5.4959785E-3,3.2611676E-3,2.7027035E-3,-7.957564E-4,-3.6094585E-3,-1.3157212E-3],"categories":[],"categories_nodes":[],"categories_segments":[],"categories_sizes":[],"default_left":[0,0,0,0,0,0,0,0,0,0,0,0,0,0,0],"id":39,"left_children":[1,3,5,7,9,11,13,-1,-1,-1,-1,-1,-1,-1,-1],"loss_changes":[2.0540732E2,1.0645654E2,5.289989E1,4.1259552E1,2.3282593E1,1.0959181E1,2.0534325E1,0E0,0E0,0E0,0E0,0E0,0E0,0E0,0E0],"parents":[2147483647,0,0,1,1,2,2,3,3,4,4,5,5,6,6],"right_children":[2,4,6,8,10,12,14,-1,-1,-1,-1,-1,-1,-1,-1],"split_conditions":[2E1,1.4E1,3.6E-1,1E1,7E0,2.7E1,-5.9E0,2.2856963E-3,-2.6729776E-4,5.4959785E-3,3.2611676E-3,2.7027035E-3,-7.957564E-4,-3.6094585E-3,-1.3157212E-3],"split_indices":[28,80,55,51,51,28,25,0,0,0,0,0,0,0,0],"split_type":[0,0,0,0,0,0,0,0,0,0,0,0,0,0,0],"sum_hessian":[6.779311E3,4.755626E3,2.0236849E3,2.537779E3,2.217847E3,4.2678217E2,1.5969027E3,1.2016936E3,1.3360856E3,6.728189E2,1.5450281E3,2.998383E2,1.2694387E2,6.823679E2,9.1453485E2],"tree_param":{"num_deleted":"0","num_feature":"106","num_nodes":"15","size_leaf_vector":"1"}},{"base_weights":[-1.19428396E-1,1.01268105E-1,-2.5421828E-1,-1.2995552E-1,2.0784448E-1,-3.5921672E-1,-3.708831E-2,3.4336947E-4,-2.602812E-3,1.2681838E-3,3.6741835E-3,-4.816841E-3,-2.6586396E-3,8.124679E-4,-1.5973999E-3],"categories":[],"categories_nodes":[],"categories_segments":[],"categories_sizes":[],"default_left":[0,0,0,0,0,0,0,0,0,0,0,0,0,0,0],"id":40,"left_children":[1,3,5,7,9,11,13,-1,-1,-1,-1,-1,-1,-1,-1],"loss_changes":[2.0166318E2,6.337993E1,9.593176E1,1.7389019E1,2.271106E1,3.2301483E1,1.9938696E1,0E0,0E0,0E0,0E0,0E0,0E0,0E0,0E0],"parents":[2147483647,0,0,1,1,2,2,3,3,4,4,5,5,6,6],"right_children":[2,4,6,8,10,12,14,-1,-1,-1,-1,-1,-1,-1,-1],"split_conditions":[4.64E-1,-2E0,2.9E0,-4.7E0,2.7E1,-1.9E0,3.2E0,3.4336947E-4,-2.602812E-3,1.2681838E-3,3.6741835E-3,-4.816841E-3,-2.6586396E-3,8.124679E-4,-1.5973999E-3],"split_indices":[3,77,77,25,51,77,25,0,0,0,0,0,0,0,0],"split_type":[0,0,0,0,0,0,0,0,0,0,0,0,0,0,0],"sum_hessian":[6.777261E3,2.5698308E3,4.2074307E3,8.10716E2,1.7591147E3,2.8355688E3,1.3718619E3,3.5894974E2,4.5176627E2,1.1678936E3,5.912212E2,1.2247227E3,1.6108461E3,6.983893E2,6.7347266E2],"tree_param":{"num_deleted":"0","num_feature":"106","num_nodes":"15","size_leaf_vector":"1"}},{"base_weights":[1.1942838E-1,-1.01268135E-1,2.5421828E-1,1.2995549E-1,-2.0784451E-1,3.592167E-1,3.7088316E-2,-3.4336976E-4,2.6028117E-3,-1.268184E-3,-3.674184E-3,4.816841E-3,2.6586396E-3,-8.1246777E-4,1.5973999E-3],"categories":[],"categories_nodes":[],"categories_segments":[],"categories_sizes":[],"default_left":[0,0,0,0,0,0,0,0,0,0,0,0,0,0,0],"id":41,"left_children":[1,3,5,7,9,11,13,-1,-1,-1,-1,-1,-1,-1,-1],"loss_changes":[2.016632E2,6.3379936E1,9.59317E1,1.7389017E1,2.2711075E1,3.2301514E1,1.9938694E1,0E0,0E0,0E0,0E0,0E0,0E0,0E0,0E0],"parents":[2147483647,0,0,1,1,2,2,3,3,4,4,5,5,6,6],"right_children":[2,4,6,8,10,12,14,-1,-1,-1,-1,-1,-1,-1,-1],"split_conditions":[4.64E-1,-2E0,2.9E0,-4.7E0,2.7E1,-1.9E0,3.2E0,-3.4336976E-4,2.6028117E-3,-1.268184E-3,-3.674184E-3,4.816841E-3,2.6586396E-3,-8.1246777E-4,1.5973999E-3],"split_indices":[3,77,77,25,51,77,25,0,0,0,0,0,0,0,0],"split_type":[0,0,0,0,0,0,0,0,0,0,0,0,0,0,0],"sum_hessian":[6.7772617E3,2.5698308E3,4.2074307E3,8.10716E2,1.7591147E3,2.8355688E3,1.3718619E3,3.5894974E2,4.5176627E2,1.1678936E3,5.912212E2,1.2247227E3,1.6108462E3,6.983893E2,6.7347266E2],"tree_param":{"num_deleted":"0","num_feature":"106","num_nodes":"15","size_leaf_vector":"1"}},{"base_weights":[-1.1827422E-1,-2.9326758E-1,4.9034633E-2,-3.9218205E-1,-9.2443965E-2,-1.7489934E-1,1.6933863E-1,-3.2332353E-3,-5.6164064E-3,-1.7526112E-3,1.6471614E-4,4.5656072E-4,-2.9424587E-3,6.389265E-4,3.1064795E-3],"categories":[],"categories_nodes":[],"categories_segments":[],"categories_sizes":[],"default_left":[0,0,0,0,0,0,0,0,0,0,0,0,0,0,0],"id":42,"left_children":[1,3,5,7,9,11,13,-1,-1,-1,-1,-1,-1,-1,-1],"loss_changes":[1.9840274E2,6.575656E1,9.337545E1,2.570871E1,9.87367E0,3.1900917E1,3.3573616E1,0E0,0E0,0E0,0E0,0E0,0E0,0E0,0E0],"parents":[2147483647,0,0,1,1,2,2,3,3,4,4,5,5,6,6],"right_children":[2,4,6,8,10,12,14,-1,-1,-1,-1,-1,-1,-1,-1],"split_conditions":[1.5E1,2.9E0,-1.4E0,2.3E1,1.16E1,-4.7E0,2.4E1,-3.2332353E-3,-5.6164064E-3,-1.7526112E-3,1.6471614E-4,4.5656072E-4,-2.9424587E-3,6.389265E-4,3.1064795E-3],"split_indices":[51,77,77,80,60,25,51,0,0,0,0,0,0,0,0],"split_type":[0,0,0,0,0,0,0,0,0,0,0,0,0,0,0],"sum_hessian":[6.7750356E3,3.311102E3,3.4639338E3,2.2177898E3,1.093312E3,1.2104141E3,2.2535198E3,1.5790575E3,6.387324E2,6.207201E2,4.7259195E2,4.2521796E2,7.8519604E2,1.2913545E3,9.621652E2],"tree_param":{"num_deleted":"0","num_feature":"106","num_nodes":"15","size_leaf_vector":"1"}},{"base_weights":[1.18274204E-1,2.9326758E-1,-4.903465E-2,3.9218202E-1,9.2443965E-2,1.748993E-1,-1.6933863E-1,3.2332353E-3,5.6164064E-3,1.7526115E-3,-1.647165E-4,-4.5656122E-4,2.9424583E-3,-6.389265E-4,-3.1064795E-3],"categories":[],"categories_nodes":[],"categories_segments":[],"categories_sizes":[],"default_left":[0,0,0,0,0,0,0,0,0,0,0,0,0,0,0],"id":43,"left_children":[1,3,5,7,9,11,13,-1,-1,-1,-1,-1,-1,-1,-1],"loss_changes":[1.9840276E2,6.575653E1,9.3375435E1,2.570871E1,9.873675E0,3.190091E1,3.357363E1,0E0,0E0,0E0,0E0,0E0,0E0,0E0,0E0],"parents":[2147483647,0,0,1,1,2,2,3,3,4,4,5,5,6,6],"right_children":[2,4,6,8,10,12,14,-1,-1,-1,-1,-1,-1,-1,-1],"split_conditions":[1.5E1,2.9E0,-1.4E0,2.3E1,1.16E1,-4.7E0,2.4E1,3.2332353E-3,5.6164064E-3,1.7526115E-3,-1.647165E-4,-4.5656122E-4,2.9424583E-3,-6.389265E-4,-3.1064795E-3],"split_indices":[51,77,77,80,60,25,51,0,0,0,0,0,0,0,0],"split_type":[0,0,0,0,0,0,0,0,0,0,0,0,0,0,0],"sum_hessian":[6.7750356E3,3.311102E3,3.4639338E3,2.2177898E3,1.093312E3,1.2104141E3,2.2535198E3,1.5790575E3,6.387324E2,6.207201E2,4.7259195E2,4.2521796E2,7.8519604E2,1.2913545E3,9.621652E2],"tree_param":{"num_deleted":"0","num_feature":"106","num_nodes":"15","size_leaf_vector":"1"}},{"base_weights":[-1.1713336E-1,-2.2773449E-1,1.4265595E-1,-9.125483E-2,-3.8404265E-1,-9.723183E-3,3.078127E-1,-2.2269266E-3,2.6983238E-4,-5.3742556E-3,-3.1700272E-3,1.3124199E-3,-1.612775E-3,4.3618637E-3,2.249912E-3],"categories":[],"categories_nodes":[],"categories_segments":[],"categories_sizes":[],"default_left":[0,0,0,0,0,0,0,0,0,0,0,0,0,0,0],"id":44,"left_children":[1,3,5,7,9,11,13,-1,-1,-1,-1,-1,-1,-1,-1],"loss_changes":[1.9466174E2,1.0132657E2,5.0922096E1,3.944763E1,2.2600952E1,2.2524275E1,1.0225311E1,0E0,0E0,0E0,0E0,0E0,0E0,0E0,0E0],"parents":[2147483647,0,0,1,1,2,2,3,3,4,4,5,5,6,6],"right_children":[2,4,6,8,10,12,14,-1,-1,-1,-1,-1,-1,-1,-1],"split_conditions":[2E1,1.4E1,5.14E-1,1E1,7E0,-4.9E0,-6.1E0,-2.2269266E-3,2.6983238E-4,-5.3742556E-3,-3.1700272E-3,1.3124199E-3,-1.612775E-3,4.3618637E-3,2.249912E-3],"split_indices":[28,80,55,51,51,25,25,0,0,0,0,0,0,0,0],"split_type":[0,0,0,0,0,0,0,0,0,0,0,0,0,0,0],"sum_hessian":[6.772719E3,4.7504253E3,2.0222941E3,2.5369148E3,2.2135105E3,1.052325E3,9.699691E2,1.2009786E3,1.3359362E3,6.7108826E2,1.5424222E3,5.452789E2,5.0704605E2,3.787062E2,5.9126294E2],"tree_param":{"num_deleted":"0","num_feature":"106","num_nodes":"15","size_leaf_vector":"1"}},{"base_weights":[1.1713335E-1,2.2773448E-1,-1.4265597E-1,9.1254815E-2,3.8404262E-1,9.723185E-3,-3.078127E-1,2.2269262E-3,-2.6983226E-4,5.374255E-3,3.1700272E-3,-1.3124199E-3,1.612775E-3,-4.361864E-3,-2.249912E-3],"categories":[],"categories_nodes":[],"categories_segments":[],"categories_sizes":[],"default_left":[0,0,0,0,0,0,0,0,0,0,0,0,0,0,0],"id":45,"left_children":[1,3,5,7,9,11,13,-1,-1,-1,-1,-1,-1,-1,-1],"loss_changes":[1.9466173E2,1.0132657E2,5.0922108E1,3.9447617E1,2.2600922E1,2.2524275E1,1.0225311E1,0E0,0E0,0E0,0E0,0E0,0E0,0E0,0E0],"parents":[2147483647,0,0,1,1,2,2,3,3,4,4,5,5,6,6],"right_children":[2,4,6,8,10,12,14,-1,-1,-1,-1,-1,-1,-1,-1],"split_conditions":[2E1,1.4E1,5.14E-1,1E1,7E0,-4.9E0,-6.1E0,2.2269262E-3,-2.6983226E-4,5.374255E-3,3.1700272E-3,-1.3124199E-3,1.612775E-3,-4.361864E-3,-2.249912E-3],"split_indices":[28,80,55,51,51,25,25,0,0,0,0,0,0,0,0],"split_type":[0,0,0,0,0,0,0,0,0,0,0,0,0,0,0],"sum_hessian":[6.772719E3,4.7504253E3,2.0222941E3,2.5369148E3,2.2135105E3,1.052325E3,9.699692E2,1.2009786E3,1.335936E3,6.7108826E2,1.5424224E3,5.452789E2,5.0704605E2,3.7870624E2,5.9126294E2],"tree_param":{"num_deleted":"0","num_feature":"106","num_nodes":"15","size_leaf_vector":"1"}},{"base_weights":[-1.1600212E-1,-2.8795493E-1,4.831746E-2,-3.8550872E-1,-9.011599E-2,-1.9023365E-1,1.578199E-1,-3.1745078E-3,-5.532476E-3,-1.7212969E-3,1.7724458E-4,2.1853461E-4,-3.073965E-3,5.510219E-4,2.9305457E-3],"categories":[],"categories_nodes":[],"categories_segments":[],"categories_sizes":[],"default_left":[0,0,0,0,0,0,0,0,0,0,0,0,0,0,0],"id":46,"left_children":[1,3,5,7,9,11,13,-1,-1,-1,-1,-1,-1,-1,-1],"loss_changes":[1.9134235E2,6.382892E1,9.0501495E1,2.5121002E1,9.679785E0,2.7094223E1,3.296571E1,0E0,0E0,0E0,0E0,0E0,0E0,0E0,0E0],"parents":[2147483647,0,0,1,1,2,2,3,3,4,4,5,5,6,6],"right_children":[2,4,6,8,10,12,14,-1,-1,-1,-1,-1,-1,-1,-1],"split_conditions":[1.5E1,2.9E0,-1.9E0,2.3E1,1.16E1,-4.6E0,2.4E1,-3.1745078E-3,-5.532476E-3,-1.7212969E-3,1.7724458E-4,2.1853461E-4,-3.073965E-3,5.510219E-4,2.9305457E-3],"split_indices":[51,77,77,80,60,25,51,0,0,0,0,0,0,0,0],"split_type":[0,0,0,0,0,0,0,0,0,0,0,0,0,0,0],"sum_hessian":[6.7704395E3,3.308009E3,3.4624304E3,2.2149E3,1.0931093E3,1.0890963E3,2.373334E3,1.5776722E3,6.3722766E2,6.2056635E2,4.7254282E2,3.8784192E2,7.012544E2,1.3496289E3,1.0237052E3],"tree_param":{"num_deleted":"0","num_feature":"106","num_nodes":"15","size_leaf_vector":"1"}},{"base_weights":[1.160021E-1,2.879549E-1,-4.8317485E-2,3.855087E-1,9.011599E-2,1.9023365E-1,-1.5781993E-1,3.1745075E-3,5.532476E-3,1.7212967E-3,-1.7724448E-4,-2.1853474E-4,3.073965E-3,-5.510224E-4,-2.9305457E-3],"categories":[],"categories_nodes":[],"categories_segments":[],"categories_sizes":[],"default_left":[0,0,0,0,0,0,0,0,0,0,0,0,0,0,0],"id":47,"left_children":[1,3,5,7,9,11,13,-1,-1,-1,-1,-1,-1,-1,-1],"loss_changes":[1.913424E2,6.3828888E1,9.050152E1,2.5121002E1,9.679781E0,2.7094234E1,3.29657E1,0E0,0E0,0E0,0E0,0E0,0E0,0E0,0E0],"parents":[2147483647,0,0,1,1,2,2,3,3,4,4,5,5,6,6],"right_children":[2,4,6,8,10,12,14,-1,-1,-1,-1,-1,-1,-1,-1],"split_conditions":[1.5E1,2.9E0,-1.9E0,2.3E1,1.16E1,-4.6E0,2.4E1,3.1745075E-3,5.532476E-3,1.7212967E-3,-1.7724448E-4,-2.1853474E-4,3.073965E-3,-5.510224E-4,-2.9305457E-3],"split_indices":[51,77,77,80,60,25,51,0,0,0,0,0,0,0,0],"split_type":[0,0,0,0,0,0,0,0,0,0,0,0,0,0,0],"sum_hessian":[6.7704395E3,3.308009E3,3.4624304E3,2.2149E3,1.0931093E3,1.0890963E3,2.373334E3,1.5776722E3,6.372277E2,6.205664E2,4.7254282E2,3.878419E2,7.0125433E2,1.3496289E3,1.0237052E3],"tree_param":{"num_deleted":"0","num_feature":"106","num_nodes":"15","size_leaf_vector":"1"}},{"base_weights":[-1.14885904E-1,9.815253E-2,-2.4509503E-1,-1.2488561E-1,2.0096591E-1,-3.4712934E-1,-3.45287E-2,3.238456E-4,-2.4981636E-3,1.225685E-3,3.5558168E-3,-2.8009138E-3,-5.091238E-3,8.087714E-4,-1.541979E-3],"categories":[],"categories_nodes":[],"categories_segments":[],"categories_sizes":[],"default_left":[0,0,0,0,0,0,0,0,0,0,0,0,0,0,0],"id":48,"left_children":[1,3,5,7,9,11,13,-1,-1,-1,-1,-1,-1,-1,-1],"loss_changes":[1.8779227E2,5.892386E1,9.025685E1,1.5943137E1,2.12715E1,3.0590424E1,1.8967342E1,0E0,0E0,0E0,0E0,0E0,0E0,0E0,0E0],"parents":[2147483647,0,0,1,1,2,2,3,3,4,4,5,5,6,6],"right_children":[2,4,6,8,10,12,14,-1,-1,-1,-1,-1,-1,-1,-1],"split_conditions":[4.64E-1,-2E0,2.9E0,-4.7E0,2.7E1,2.3E1,3.2E0,3.238456E-4,-2.4981636E-3,1.225685E-3,3.5558168E-3,-2.8009138E-3,-5.091238E-3,8.087714E-4,-1.541979E-3],"split_indices":[3,77,77,25,51,80,25,0,0,0,0,0,0,0,0],"split_type":[0,0,0,0,0,0,0,0,0,0,0,0,0,0,0],"sum_hessian":[6.7679717E3,2.5674873E3,4.2004844E3,8.100314E2,1.7574558E3,2.8289897E3,1.3714946E3,3.5893E2,4.5110138E2,1.1673485E3,5.901073E2,2.0028726E3,8.261173E2,6.983491E2,6.7314545E2],"tree_param":{"num_deleted":"0","num_feature":"106","num_nodes":"15","size_leaf_vector":"1"}},{"base_weights":[1.14885904E-1,-9.8152556E-2,2.4509504E-1,1.2488558E-1,-2.0096593E-1,3.4712937E-1,3.4528695E-2,-3.2384603E-4,2.4981634E-3,-1.2256851E-3,-3.5558175E-3,2.800914E-3,5.091238E-3,-8.087713E-4,1.5419788E-3],"categories":[],"categories_nodes":[],"categories_segments":[],"categories_sizes":[],"default_left":[0,0,0,0,0,0,0,0,0,0,0,0,0,0,0],"id":49,"left_children":[1,3,5,7,9,11,13,-1,-1,-1,-1,-1,-1,-1,-1],"loss_changes":[1.8779233E2,5.8923855E1,9.025688E1,1.5943139E1,2.1271507E1,3.0590393E1,1.8967339E1,0E0,0E0,0E0,0E0,0E0,0E0,0E0,0E0],"parents":[2147483647,0,0,1,1,2,2,3,3,4,4,5,5,6,6],"right_children":[2,4,6,8,10,12,14,-1,-1,-1,-1,-1,-1,-1,-1],"split_conditions":[4.64E-1,-2E0,2.9E0,-4.7E0,2.7E1,2.3E1,3.2E0,-3.2384603E-4,2.4981634E-3,-1.2256851E-3,-3.5558175E-3,2.800914E-3,5.091238E-3,-8.087713E-4,1.5419788E-3],"split_indices":[3,77,77,25,51,80,25,0,0,0,0,0,0,0,0],"split_type":[0,0,0,0,0,0,0,0,0,0,0,0,0,0,0],"sum_hessian":[6.7679717E3,2.5674873E3,4.2004844E3,8.100314E2,1.7574558E3,2.8289897E3,1.3714946E3,3.5893E2,4.5110138E2,1.1673486E3,5.901073E2,2.0028726E3,8.261173E2,6.983492E2,6.7314545E2],"tree_param":{"num_deleted":"0","num_feature":"106","num_nodes":"15","size_leaf_vector":"1"}},{"base_weights":[-1.1378093E-1,-2.8291565E-1,4.7765717E-2,-1.4821833E-1,-4.2180476E-1,-1.6887514E-1,1.6410014E-1,-2.1577578E-3,1.6041799E-4,-3.427775E-3,-5.442552E-3,4.3308074E-4,-2.8387378E-3,6.267797E-4,3.0021656E-3],"categories":[],"categories_nodes":[],"categories_segments":[],"categories_sizes":[],"default_left":[0,0,0,0,0,0,0,0,0,0,0,0,0,0,0],"id":50,"left_children":[1,3,5,7,9,11,13,-1,-1,-1,-1,-1,-1,-1,-1],"loss_changes":[1.8489404E2,6.1781067E1,8.72725E1,1.8643448E1,1.55578E1,2.9535797E1,3.1081184E1,0E0,0E0,0E0,0E0,0E0,0E0,0E0,0E0],"parents":[2147483647,0,0,1,1,2,2,3,3,4,4,5,5,6,6],"right_children":[2,4,6,8,10,12,14,-1,-1,-1,-1,-1,-1,-1,-1],"split_conditions":[1.5E1,1.3E1,-1.4E0,6E0,2.3E1,-4.7E0,2.4E1,-2.1577578E-3,1.6041799E-4,-3.427775E-3,-5.442552E-3,4.3308074E-4,-2.8387378E-3,6.267797E-4,3.0021656E-3],"split_indices":[51,80,77,77,80,25,51,0,0,0,0,0,0,0,0],"split_type":[0,0,0,0,0,0,0,0,0,0,0,0,0,0,0],"sum_hessian":[6.7654434E3,3.3047322E3,3.4607114E3,1.6787324E3,1.6259998E3,1.2089406E3,2.2517708E3,1.1892855E3,4.8944687E2,9.905298E2,6.3547E2,4.2514038E2,7.838002E2,1.2911661E3,9.606047E2],"tree_param":{"num_deleted":"0","num_feature":"106","num_nodes":"15","size_leaf_vector":"1"}},{"base_weights":[1.1378091E-1,2.8291562E-1,-4.7765728E-2,1.482183E-1,4.2180473E-1,1.6887514E-1,-1.6410016E-1,2.1577573E-3,-1.6041815E-4,3.427775E-3,5.4425513E-3,-4.3308068E-4,2.8387378E-3,-6.2677986E-4,-3.0021658E-3],"categories":[],"categories_nodes":[],"categories_segments":[],"categories_sizes":[],"default_left":[0,0,0,0,0,0,0,0,0,0,0,0,0,0,0],"id":51,"left_children":[1,3,5,7,9,11,13,-1,-1,-1,-1,-1,-1,-1,-1],"loss_changes":[1.8489401E2,6.1781128E1,8.727251E1,1.8643444E1,1.555777E1,2.9535786E1,3.1081184E1,0E0,0E0,0E0,0E0,0E0,0E0,0E0,0E0],"parents":[2147483647,0,0,1,1,2,2,3,3,4,4,5,5,6,6],"right_children":[2,4,6,8,10,12,14,-1,-1,-1,-1,-1,-1,-1,-1],"split_conditions":[1.5E1,1.3E1,-1.4E0,6E0,2.3E1,-4.7E0,2.4E1,2.1577573E-3,-1.6041815E-4,3.427775E-3,5.4425513E-3,-4.3308068E-4,2.8387378E-3,-6.2677986E-4,-3.0021658E-3],"split_indices":[51,80,77,77,80,25,51,0,0,0,0,0,0,0,0],"split_type":[0,0,0,0,0,0,0,0,0,0,0,0,0,0,0],"sum_hessian":[6.7654434E3,3.3047322E3,3.4607114E3,1.6787324E3,1.6259998E3,1.2089406E3,2.2517708E3,1.1892855E3,4.8944687E2,9.905297E2,6.3547003E2,4.2514035E2,7.8380023E2,1.2911661E3,9.606047E2],"tree_param":{"num_deleted":"0","num_feature":"106","num_nodes":"15","size_leaf_vector":"1"}},{"base_weights":[-1.1268856E-1,-2.1960545E-1,1.3829845E-1,-8.750937E-2,-3.7126184E-1,-9.854108E-3,2.9896033E-1,-2.1539477E-3,2.745447E-4,-5.2202013E-3,-3.0546275E-3,1.2586995E-3,-1.5581017E-3,4.238296E-3,2.1852276E-3],"categories":[],"categories_nodes":[],"categories_segments":[],"categories_sizes":[],"default_left":[0,0,0,0,0,0,0,0,0,0,0,0,0,0,0],"id":52,"left_children":[1,3,5,7,9,11,13,-1,-1,-1,-1,-1,-1,-1,-1],"loss_changes":[1.8153613E2,9.4998184E1,4.8111984E1,3.730005E1,2.174353E1,2.086925E1,9.647072E0,0E0,0E0,0E0,0E0,0E0,0E0,0E0,0E0],"parents":[2147483647,0,0,1,1,2,2,3,3,4,4,5,5,6,6],"right_children":[2,4,6,8,10,12,14,-1,-1,-1,-1,-1,-1,-1,-1],"split_conditions":[2E1,1.4E1,5.14E-1,1E1,7E0,-4.9E0,-6.1E0,-2.1539477E-3,2.745447E-4,-5.2202013E-3,-3.0546275E-3,1.2586995E-3,-1.5581017E-3,4.238296E-3,2.1852276E-3],"split_indices":[28,80,55,51,51,25,25,0,0,0,0,0,0,0,0],"split_type":[0,0,0,0,0,0,0,0,0,0,0,0,0,0,0],"sum_hessian":[6.7628335E3,4.7426553E3,2.0201783E3,2.5356367E3,2.2070186E3,1.0514938E3,9.686846E2,1.1999464E3,1.3356902E3,6.6847656E2,1.538542E3,5.449159E2,5.0657785E2,3.7785022E2,5.9083435E2],"tree_param":{"num_deleted":"0","num_feature":"106","num_nodes":"15","size_leaf_vector":"1"}},{"base_weights":[1.1268856E-1,2.1960543E-1,-1.3829844E-1,8.750938E-2,3.712618E-1,9.854132E-3,-2.9896033E-1,2.1539475E-3,-2.7454435E-4,5.220201E-3,3.0546275E-3,-1.2586995E-3,1.5581022E-3,-4.238296E-3,-2.1852276E-3],"categories":[],"categories_nodes":[],"categories_segments":[],"categories_sizes":[],"default_left":[0,0,0,0,0,0,0,0,0,0,0,0,0,0,0],"id":53,"left_children":[1,3,5,7,9,11,13,-1,-1,-1,-1,-1,-1,-1,-1],"loss_changes":[1.815361E2,9.4998184E1,4.8111988E1,3.7300034E1,2.17435E1,2.0869255E1,9.647072E0,0E0,0E0,0E0,0E0,0E0,0E0,0E0,0E0],"parents":[2147483647,0,0,1,1,2,2,3,3,4,4,5,5,6,6],"right_children":[2,4,6,8,10,12,14,-1,-1,-1,-1,-1,-1,-1,-1],"split_conditions":[2E1,1.4E1,5.14E-1,1E1,7E0,-4.9E0,-6.1E0,2.1539475E-3,-2.7454435E-4,5.220201E-3,3.0546275E-3,-1.2586995E-3,1.5581022E-3,-4.238296E-3,-2.1852276E-3],"split_indices":[28,80,55,51,51,25,25,0,0,0,0,0,0,0,0],"split_type":[0,0,0,0,0,0,0,0,0,0,0,0,0,0,0],"sum_hessian":[6.7628335E3,4.7426553E3,2.0201783E3,2.5356367E3,2.2070186E3,1.0514938E3,9.686846E2,1.1999464E3,1.3356902E3,6.6847656E2,1.538542E3,5.449159E2,5.0657785E2,3.7785022E2,5.9083435E2],"tree_param":{"num_deleted":"0","num_feature":"106","num_nodes":"15","size_leaf_vector":"1"}},{"base_weights":[-1.1160475E-1,-2.7782062E-1,4.706366E-2,-3.725933E-1,-8.6103976E-2,-1.8366632E-1,1.5292048E-1,-3.0641337E-3,-5.3628883E-3,-1.6719906E-3,2.0498657E-4,2.0338742E-4,-2.9657912E-3,5.417838E-4,2.8311328E-3],"categories":[],"categories_nodes":[],"categories_segments":[],"categories_sizes":[],"default_left":[0,0,0,0,0,0,0,0,0,0,0,0,0,0,0],"id":54,"left_children":[1,3,5,7,9,11,13,-1,-1,-1,-1,-1,-1,-1,-1],"loss_changes":[1.783299E2,5.9968185E1,8.453716E1,2.377246E1,9.458484E0,2.5082577E1,3.0483028E1,0E0,0E0,0E0,0E0,0E0,0E0,0E0,0E0],"parents":[2147483647,0,0,1,1,2,2,3,3,4,4,5,5,6,6],"right_children":[2,4,6,8,10,12,14,-1,-1,-1,-1,-1,-1,-1,-1],"split_conditions":[1.5E1,2.9E0,-1.9E0,2.3E1,1.16E1,-4.6E0,2.4E1,-3.0641337E-3,-5.3628883E-3,-1.6719906E-3,2.0498657E-4,2.0338742E-4,-2.9657912E-3,5.417838E-4,2.8311328E-3],"split_indices":[51,77,77,80,60,25,51,0,0,0,0,0,0,0,0],"split_type":[0,0,0,0,0,0,0,0,0,0,0,0,0,0,0],"sum_hessian":[6.7602866E3,3.3012515E3,3.459035E3,2.208543E3,1.0927086E3,1.0876381E3,2.3713967E3,1.5747604E3,6.337826E2,6.2027936E2,4.7242926E2,3.8780032E2,6.9983777E2,1.3493932E3,1.02200366E3],"tree_param":{"num_deleted":"0","num_feature":"106","num_nodes":"15","size_leaf_vector":"1"}},{"base_weights":[1.1160474E-1,2.7782062E-1,-4.7063664E-2,3.7259328E-1,8.610396E-2,1.836663E-1,-1.5292048E-1,3.0641337E-3,5.362888E-3,1.6719907E-3,-2.0498704E-4,-2.033874E-4,2.9657912E-3,-5.41784E-4,-2.8311326E-3],"categories":[],"categories_nodes":[],"categories_segments":[],"categories_sizes":[],"default_left":[0,0,0,0,0,0,0,0,0,0,0,0,0,0,0],"id":55,"left_children":[1,3,5,7,9,11,13,-1,-1,-1,-1,-1,-1,-1,-1],"loss_changes":[1.783299E2,5.996817E1,8.4537155E1,2.377243E1,9.458488E0,2.5082573E1,3.048302E1,0E0,0E0,0E0,0E0,0E0,0E0,0E0,0E0],"parents":[2147483647,0,0,1,1,2,2,3,3,4,4,5,5,6,6],"right_children":[2,4,6,8,10,12,14,-1,-1,-1,-1,-1,-1,-1,-1],"split_conditions":[1.5E1,2.9E0,-1.9E0,2.3E1,1.16E1,-4.6E0,2.4E1,3.0641337E-3,5.362888E-3,1.6719907E-3,-2.0498704E-4,-2.033874E-4,2.9657912E-3,-5.41784E-4,-2.8311326E-3],"split_indices":[51,77,77,80,60,25,51,0,0,0,0,0,0,0,0],"split_type":[0,0,0,0,0,0,0,0,0,0,0,0,0,0,0],"sum_hessian":[6.7602866E3,3.3012515E3,3.459035E3,2.208543E3,1.0927086E3,1.0876381E3,2.3713967E3,1.5747604E3,6.3378265E2,6.2027936E2,4.7242926E2,3.8780032E2,6.9983777E2,1.3493932E3,1.02200366E3],"tree_param":{"num_deleted":"0","num_feature":"106","num_nodes":"15","size_leaf_vector":"1"}},{"base_weights":[-1.1053543E-1,-2.1560882E-1,1.3604602E-1,-1.2271859E-1,-4.2497468E-1,-1.5762253E-1,2.1464838E-1,-6.700521E-5,-2.5932798E-3,-3.0839618E-3,-4.8608882E-3,-2.5652717E-3,7.576946E-4,3.3699267E-3,1.2333111E-3],"categories":[],"categories_nodes":[],"categories_segments":[],"categories_sizes":[],"default_left":[0,0,0,0,0,0,0,0,0,0,0,0,0,0,0],"id":56,"left_children":[1,3,5,7,9,11,13,-1,-1,-1,-1,-1,-1,-1,-1],"loss_changes":[1.7513754E2,9.212189E1,4.6662655E1,5.2052437E1,1.0224579E1,9.878308E0,1.7766304E1,0E0,0E0,0E0,0E0,0E0,0E0,0E0,0E0],"parents":[2147483647,0,0,1,1,2,2,3,3,4,4,5,5,6,6],"right_children":[2,4,6,8,10,12,14,-1,-1,-1,-1,-1,-1,-1,-1],"split_conditions":[2E1,1.9E1,3.6E-1,2.8E0,5.31E-1,2.7E1,-5.9E0,-6.700521E-5,-2.5932798E-3,-3.0839618E-3,-4.8608882E-3,-2.5652717E-3,7.576946E-4,3.3699267E-3,1.2333111E-3],"split_indices":[28,80,55,25,3,28,25,0,0,0,0,0,0,0,0],"split_type":[0,0,0,0,0,0,0,0,0,0,0,0,0,0,0],"sum_hessian":[6.757548E3,4.738501E3,2.0190466E3,3.2833496E3,1.4551515E3,4.260951E2,1.5929515E3,1.7760529E3,1.5072968E3,5.025525E2,9.52599E2,2.992027E2,1.268924E2,6.796651E2,9.132864E2],"tree_param":{"num_deleted":"0","num_feature":"106","num_nodes":"15","size_leaf_vector":"1"}},{"base_weights":[1.1053542E-1,2.156088E-1,-1.36046E-1,1.2271858E-1,4.2497468E-1,1.5762258E-1,-2.1464837E-1,6.7005116E-5,2.5932798E-3,3.0839616E-3,4.8608882E-3,2.5652722E-3,-7.576945E-4,-3.3699262E-3,-1.2333111E-3],"categories":[],"categories_nodes":[],"categories_segments":[],"categories_sizes":[],"default_left":[0,0,0,0,0,0,0,0,0,0,0,0,0,0,0],"id":57,"left_children":[1,3,5,7,9,11,13,-1,-1,-1,-1,-1,-1,-1,-1],"loss_changes":[1.7513754E2,9.212186E1,4.6662655E1,5.205244E1,1.0224609E1,9.878309E0,1.7766296E1,0E0,0E0,0E0,0E0,0E0,0E0,0E0,0E0],"parents":[2147483647,0,0,1,1,2,2,3,3,4,4,5,5,6,6],"right_children":[2,4,6,8,10,12,14,-1,-1,-1,-1,-1,-1,-1,-1],"split_conditions":[2E1,1.9E1,3.6E-1,2.8E0,5.31E-1,2.7E1,-5.9E0,6.7005116E-5,2.5932798E-3,3.0839616E-3,4.8608882E-3,2.5652722E-3,-7.576945E-4,-3.3699262E-3,-1.2333111E-3],"split_indices":[28,80,55,25,3,28,25,0,0,0,0,0,0,0,0],"split_type":[0,0,0,0,0,0,0,0,0,0,0,0,0,0,0],"sum_hessian":[6.757548E3,4.738501E3,2.0190466E3,3.2833496E3,1.4551515E3,4.260951E2,1.5929515E3,1.7760529E3,1.5072968E3,5.0255246E2,9.5259894E2,2.992027E2,1.268924E2,6.796651E2,9.132864E2],"tree_param":{"num_deleted":"0","num_feature":"106","num_nodes":"15","size_leaf_vector":"1"}},{"base_weights":[-1.0947451E-1,-2.7278367E-1,4.6324037E-2,-3.664661E-1,-8.3520055E-2,-1.6361032E-1,1.590099E-1,-3.0130788E-3,-5.2796183E-3,-1.6156246E-3,2.6823703E-4,4.0940408E-4,-2.7464733E-3,6.134972E-4,2.9029523E-3],"categories":[],"categories_nodes":[],"categories_segments":[],"categories_sizes":[],"default_left":[0,0,0,0,0,0,0,0,0,0,0,0,0,0,0],"id":58,"left_children":[1,3,5,7,9,11,13,-1,-1,-1,-1,-1,-1,-1,-1],"loss_changes":[1.7190543E2,5.8455734E1,8.183808E1,2.3055695E1,9.420559E0,2.7457817E1,2.8841621E1,0E0,0E0,0E0,0E0,0E0,0E0,0E0,0E0],"parents":[2147483647,0,0,1,1,2,2,3,3,4,4,5,5,6,6],"right_children":[2,4,6,8,10,12,14,-1,-1,-1,-1,-1,-1,-1,-1],"split_conditions":[1.5E1,2.9E0,-1.4E0,2.3E1,6.2E0,-4.7E0,2.4E1,-3.0130788E-3,-5.2796183E-3,-1.6156246E-3,2.6823703E-4,4.0940408E-4,-2.7464733E-3,6.134972E-4,2.9029523E-3],"split_indices":[51,77,77,80,77,25,51,0,0,0,0,0,0,0,0],"split_type":[0,0,0,0,0,0,0,0,0,0,0,0,0,0,0],"sum_hessian":[6.754908E3,3.297595E3,3.4573132E3,2.2051465E3,1.0924484E3,1.2074241E3,2.2498892E3,1.5732556E3,6.318909E2,6.3960974E2,4.528386E2,4.2504456E2,7.823796E2,1.2910062E3,9.58883E2],"tree_param":{"num_deleted":"0","num_feature":"106","num_nodes":"15","size_leaf_vector":"1"}},{"base_weights":[1.09474525E-1,2.7278367E-1,-4.632401E-2,3.6646608E-1,8.352007E-2,1.6361034E-1,-1.5900989E-1,3.0130786E-3,5.279619E-3,1.6156249E-3,-2.6823676E-4,-4.0940358E-4,2.7464733E-3,-6.134969E-4,-2.902952E-3],"categories":[],"categories_nodes":[],"categories_segments":[],"categories_sizes":[],"default_left":[0,0,0,0,0,0,0,0,0,0,0,0,0,0,0],"id":59,"left_children":[1,3,5,7,9,11,13,-1,-1,-1,-1,-1,-1,-1,-1],"loss_changes":[1.719054E2,5.8455673E1,8.183807E1,2.3055756E1,9.420557E0,2.7457813E1,2.8841629E1,0E0,0E0,0E0,0E0,0E0,0E0,0E0,0E0],"parents":[2147483647,0,0,1,1,2,2,3,3,4,4,5,5,6,6],"right_children":[2,4,6,8,10,12,14,-1,-1,-1,-1,-1,-1,-1,-1],"split_conditions":[1.5E1,2.9E0,-1.4E0,2.3E1,6.2E0,-4.7E0,2.4E1,3.0130786E-3,5.279619E-3,1.6156249E-3,-2.6823676E-4,-4.0940358E-4,2.7464733E-3,-6.134969E-4,-2.902952E-3],"split_indices":[51,77,77,80,77,25,51,0,0,0,0,0,0,0,0],"split_type":[0,0,0,0,0,0,0,0,0,0,0,0,0,0,0],"sum_hessian":[6.754908E3,3.297595E3,3.4573132E3,2.2051467E3,1.0924484E3,1.2074241E3,2.2498892E3,1.5732557E3,6.318909E2,6.3960974E2,4.5283862E2,4.2504456E2,7.823795E2,1.2910062E3,9.58883E2],"tree_param":{"num_deleted":"0","num_feature":"106","num_nodes":"15","size_leaf_vector":"1"}},{"base_weights":[-1.0842745E-1,-2.1169338E-1,1.3383079E-1,-8.354837E-2,-3.5920137E-1,-1.0391935E-2,2.9033536E-1,-2.0766468E-3,2.7928373E-4,-5.071127E-3,-2.9476092E-3,1.2058401E-3,-1.5126287E-3,4.140409E-3,2.1364675E-3],"categories":[],"categories_nodes":[],"categories_segments":[],"categories_sizes":[],"default_left":[0,0,0,0,0,0,0,0,0,0,0,0,0,0,0],"id":60,"left_children":[1,3,5,7,9,11,13,-1,-1,-1,-1,-1,-1,-1,-1],"loss_changes":[1.6896957E2,8.94762E1,4.5572197E1,3.5083008E1,2.082901E1,1.9421585E1,9.09713E0,0E0,0E0,0E0,0E0,0E0,0E0,0E0,0E0],"parents":[2147483647,0,0,1,1,2,2,3,3,4,4,5,5,6,6],"right_children":[2,4,6,8,10,12,14,-1,-1,-1,-1,-1,-1,-1,-1],"split_conditions":[2E1,1.4E1,5.14E-1,1E1,7E0,-4.9E0,-6.2E0,-2.0766468E-3,2.7928373E-4,-5.071127E-3,-2.9476092E-3,1.2058401E-3,-1.5126287E-3,4.140409E-3,2.1364675E-3],"split_indices":[28,80,55,51,51,25,25,0,0,0,0,0,0,0,0],"split_type":[0,0,0,0,0,0,0,0,0,0,0,0,0,0,0],"sum_hessian":[6.7520522E3,4.734172E3,2.0178802E3,2.5341978E3,2.1999739E3,1.0506316E3,9.672487E2,1.1987107E3,1.3354872E3,6.6552167E2,1.5344524E3,5.445114E2,5.0612012E2,3.6847174E2,5.98777E2],"tree_param":{"num_deleted":"0","num_feature":"106","num_nodes":"15","size_leaf_vector":"1"}},{"base_weights":[1.0842743E-1,2.1169336E-1,-1.3383082E-1,8.354836E-2,3.5920137E-1,1.0391928E-2,-2.903354E-1,2.0766468E-3,-2.7928382E-4,5.071127E-3,2.9476085E-3,-1.2058404E-3,1.5126289E-3,-4.1404096E-3,-2.136468E-3],"categories":[],"categories_nodes":[],"categories_segments":[],"categories_sizes":[],"default_left":[0,0,0,0,0,0,0,0,0,0,0,0,0,0,0],"id":61,"left_children":[1,3,5,7,9,11,13,-1,-1,-1,-1,-1,-1,-1,-1],"loss_changes":[1.6896959E2,8.94762E1,4.5572216E1,3.5083008E1,2.082904E1,1.9421589E1,9.09713E0,0E0,0E0,0E0,0E0,0E0,0E0,0E0,0E0],"parents":[2147483647,0,0,1,1,2,2,3,3,4,4,5,5,6,6],"right_children":[2,4,6,8,10,12,14,-1,-1,-1,-1,-1,-1,-1,-1],"split_conditions":[2E1,1.4E1,5.14E-1,1E1,7E0,-4.9E0,-6.2E0,2.0766468E-3,-2.7928382E-4,5.071127E-3,2.9476085E-3,-1.2058404E-3,1.5126289E-3,-4.1404096E-3,-2.136468E-3],"split_indices":[28,80,55,51,51,25,25,0,0,0,0,0,0,0,0],"split_type":[0,0,0,0,0,0,0,0,0,0,0,0,0,0,0],"sum_hessian":[6.7520522E3,4.734172E3,2.0178802E3,2.5341978E3,2.1999739E3,1.0506316E3,9.6724866E2,1.1987107E3,1.3354872E3,6.655216E2,1.5344523E3,5.445114E2,5.0612012E2,3.6847174E2,5.98777E2],"tree_param":{"num_deleted":"0","num_feature":"106","num_nodes":"15","size_leaf_vector":"1"}},{"base_weights":[-1.07388444E-1,8.957609E-2,-2.321187E-1,-1.1977453E-1,1.8562692E-1,-3.3005413E-1,-3.1099964E-2,2.8273204E-4,-2.3892536E-3,1.1199884E-3,3.3625239E-3,-4.4412385E-3,-2.4351666E-3,7.9585274E-4,-1.436125E-3],"categories":[],"categories_nodes":[],"categories_segments":[],"categories_sizes":[],"default_left":[0,0,0,0,0,0,0,0,0,0,0,0,0,0,0],"id":62,"left_children":[1,3,5,7,9,11,13,-1,-1,-1,-1,-1,-1,-1,-1],"loss_changes":[1.6585764E2,5.2665646E1,8.136096E1,1.4541857E1,1.9869469E1,2.7325562E1,1.6887619E1,0E0,0E0,0E0,0E0,0E0,0E0,0E0,0E0],"parents":[2147483647,0,0,1,1,2,2,3,3,4,4,5,5,6,6],"right_children":[2,4,6,8,10,12,14,-1,-1,-1,-1,-1,-1,-1,-1],"split_conditions":[4.69E-1,-2E0,2.9E0,-4.6E0,2.7E1,-1.9E0,3.2E0,2.8273204E-4,-2.3892536E-3,1.1199884E-3,3.3625239E-3,-4.4412385E-3,-2.4351666E-3,7.9585274E-4,-1.436125E-3],"split_indices":[3,77,77,25,51,77,25,0,0,0,0,0,0,0,0],"split_type":[0,0,0,0,0,0,0,0,0,0,0,0,0,0,0],"sum_hessian":[6.749271E3,2.6169941E3,4.1322764E3,8.229848E2,1.7940094E3,2.778138E3,1.3541387E3,3.6733057E2,4.5565424E2,1.2061621E3,5.878473E2,1.1966445E3,1.5814933E3,6.8276E2,6.713787E2],"tree_param":{"num_deleted":"0","num_feature":"106","num_nodes":"15","size_leaf_vector":"1"}},{"base_weights":[1.0738846E-1,-8.957606E-2,2.321187E-1,1.1977454E-1,-1.8562688E-1,3.3005416E-1,3.109998E-2,-2.8273175E-4,2.3892536E-3,-1.119988E-3,-3.362523E-3,4.4412385E-3,2.4351664E-3,-7.958529E-4,1.4361255E-3],"categories":[],"categories_nodes":[],"categories_segments":[],"categories_sizes":[],"default_left":[0,0,0,0,0,0,0,0,0,0,0,0,0,0,0],"id":63,"left_children":[1,3,5,7,9,11,13,-1,-1,-1,-1,-1,-1,-1,-1],"loss_changes":[1.658576E2,5.2665634E1,8.136095E1,1.4541853E1,1.9869465E1,2.7325562E1,1.6887629E1,0E0,0E0,0E0,0E0,0E0,0E0,0E0,0E0],"parents":[2147483647,0,0,1,1,2,2,3,3,4,4,5,5,6,6],"right_children":[2,4,6,8,10,12,14,-1,-1,-1,-1,-1,-1,-1,-1],"split_conditions":[4.69E-1,-2E0,2.9E0,-4.6E0,2.7E1,-1.9E0,3.2E0,-2.8273175E-4,2.3892536E-3,-1.119988E-3,-3.362523E-3,4.4412385E-3,2.4351664E-3,-7.958529E-4,1.4361255E-3],"split_indices":[3,77,77,25,51,77,25,0,0,0,0,0,0,0,0],"split_type":[0,0,0,0,0,0,0,0,0,0,0,0,0,0,0],"sum_hessian":[6.749271E3,2.6169941E3,4.1322764E3,8.229848E2,1.7940094E3,2.778138E3,1.3541387E3,3.6733057E2,4.5565424E2,1.2061621E3,5.878473E2,1.1966445E3,1.5814933E3,6.8276E2,6.713787E2],"tree_param":{"num_deleted":"0","num_feature":"106","num_nodes":"15","size_leaf_vector":"1"}},{"base_weights":[-1.0636194E-1,-2.6573607E-1,4.5548607E-2,-3.5745367E-1,-8.083134E-2,-9.555649E-2,2.0552151E-1,-2.933064E-3,-5.1687644E-3,-1.6104325E-3,2.4571214E-4,1.0197944E-3,-2.0381317E-3,1.1285035E-3,3.169948E-3],"categories":[],"categories_nodes":[],"categories_segments":[],"categories_sizes":[],"default_left":[0,0,0,0,0,0,0,0,0,0,0,0,0,0,0],"id":64,"left_children":[1,3,5,7,9,11,13,-1,-1,-1,-1,-1,-1,-1,-1],"loss_changes":[1.6336949E2,5.5815994E1,7.801874E1,2.2355225E1,9.245655E0,3.9297047E1,1.6696884E1,0E0,0E0,0E0,0E0,0E0,0E0,0E0,0E0],"parents":[2147483647,0,0,1,1,2,2,3,3,4,4,5,5,6,6],"right_children":[2,4,6,8,10,12,14,-1,-1,-1,-1,-1,-1,-1,-1],"split_conditions":[1.5E1,2.9E0,5.24E-1,2.3E1,1.16E1,-4.7E0,2.2E1,-2.933064E-3,-5.1687644E-3,-1.6104325E-3,2.4571214E-4,1.0197944E-3,-2.0381317E-3,1.1285035E-3,3.169948E-3],"split_indices":[51,77,55,80,60,25,28,0,0,0,0,0,0,0,0],"split_type":[0,0,0,0,0,0,0,0,0,0,0,0,0,0,0],"sum_hessian":[6.746347E3,3.2919302E3,3.4544167E3,2.1998257E3,1.0921046E3,1.8356622E3,1.6187546E3,1.5706713E3,6.291544E2,6.198599E2,4.722447E2,6.4988153E2,1.1857806E3,8.8502155E2,7.3373303E2],"tree_param":{"num_deleted":"0","num_feature":"106","num_nodes":"15","size_leaf_vector":"1"}},{"base_weights":[1.0636194E-1,2.6573607E-1,-4.5548603E-2,3.5745367E-1,8.083134E-2,9.555649E-2,-2.0552151E-1,2.9330642E-3,5.168764E-3,1.6104325E-3,-2.4571203E-4,-1.0197946E-3,2.0381317E-3,-1.1285035E-3,-3.1699478E-3],"categories":[],"categories_nodes":[],"categories_segments":[],"categories_sizes":[],"default_left":[0,0,0,0,0,0,0,0,0,0,0,0,0,0,0],"id":65,"left_children":[1,3,5,7,9,11,13,-1,-1,-1,-1,-1,-1,-1,-1],"loss_changes":[1.633695E2,5.5815964E1,7.801874E1,2.2355225E1,9.245653E0,3.929705E1,1.6696869E1,0E0,0E0,0E0,0E0,0E0,0E0,0E0,0E0],"parents":[2147483647,0,0,1,1,2,2,3,3,4,4,5,5,6,6],"right_children":[2,4,6,8,10,12,14,-1,-1,-1,-1,-1,-1,-1,-1],"split_conditions":[1.5E1,2.9E0,5.24E-1,2.3E1,1.16E1,-4.7E0,2.2E1,2.9330642E-3,5.168764E-3,1.6104325E-3,-2.4571203E-4,-1.0197946E-3,2.0381317E-3,-1.1285035E-3,-3.1699478E-3],"split_indices":[51,77,55,80,60,25,28,0,0,0,0,0,0,0,0],"split_type":[0,0,0,0,0,0,0,0,0,0,0,0,0,0,0],"sum_hessian":[6.746347E3,3.2919302E3,3.454417E3,2.1998257E3,1.0921046E3,1.8356622E3,1.6187546E3,1.5706711E3,6.291544E2,6.198599E2,4.7224472E2,6.4988153E2,1.1857808E3,8.8502155E2,7.337331E2],"tree_param":{"num_deleted":"0","num_feature":"106","num_nodes":"15","size_leaf_vector":"1"}},{"base_weights":[-1.05345234E-1,-2.6324916E-1,4.5105003E-2,-3.5420617E-1,-8.003038E-2,-1.7518838E-1,1.4609633E-1,-2.905405E-3,-5.1262164E-3,-1.5724493E-3,2.9112046E-4,1.7563539E-4,-2.8218378E-3,5.2654947E-4,2.6959267E-3],"categories":[],"categories_nodes":[],"categories_segments":[],"categories_sizes":[],"default_left":[0,0,0,0,0,0,0,0,0,0,0,0,0,0,0],"id":66,"left_children":[1,3,5,7,9,11,13,-1,-1,-1,-1,-1,-1,-1,-1],"loss_changes":[1.6023734E2,5.4813797E1,7.6882286E1,2.2027618E1,9.215895E0,2.2409485E1,2.7325958E1,0E0,0E0,0E0,0E0,0E0,0E0,0E0,0E0],"parents":[2147483647,0,0,1,1,2,2,3,3,4,4,5,5,6,6],"right_children":[2,4,6,8,10,12,14,-1,-1,-1,-1,-1,-1,-1,-1],"split_conditions":[1.5E1,2.9E0,-1.9E0,2.3E1,6.2E0,-4.6E0,2.4E1,-2.905405E-3,-5.1262164E-3,-1.5724493E-3,2.9112046E-4,1.7563539E-4,-2.8218378E-3,5.2654947E-4,2.6959267E-3],"split_indices":[51,77,77,80,77,25,51,0,0,0,0,0,0,0,0],"split_type":[0,0,0,0,0,0,0,0,0,0,0,0,0,0,0],"sum_hessian":[6.7434375E3,3.28985E3,3.4535872E3,2.1978281E3,1.092022E3,1.0853556E3,2.3682317E3,1.5697816E3,6.280466E2,6.392989E2,4.5272302E2,3.8771826E2,6.976374E2,1.3489774E3,1.0192542E3],"tree_param":{"num_deleted":"0","num_feature":"106","num_nodes":"15","size_leaf_vector":"1"}},{"base_weights":[1.0534523E-1,2.6324916E-1,-4.5105014E-2,3.5420617E-1,8.003037E-2,1.7518836E-1,-1.4609633E-1,2.905405E-3,5.1262164E-3,1.5724493E-3,-2.9112058E-4,-1.7563542E-4,2.8218378E-3,-5.2654935E-4,-2.695927E-3],"categories":[],"categories_nodes":[],"categories_segments":[],"categories_sizes":[],"default_left":[0,0,0,0,0,0,0,0,0,0,0,0,0,0,0],"id":67,"left_children":[1,3,5,7,9,11,13,-1,-1,-1,-1,-1,-1,-1,-1],"loss_changes":[1.6023735E2,5.481375E1,7.6882286E1,2.2027618E1,9.215893E0,2.2409489E1,2.7325958E1,0E0,0E0,0E0,0E0,0E0,0E0,0E0,0E0],"parents":[2147483647,0,0,1,1,2,2,3,3,4,4,5,5,6,6],"right_children":[2,4,6,8,10,12,14,-1,-1,-1,-1,-1,-1,-1,-1],"split_conditions":[1.5E1,2.9E0,-1.9E0,2.3E1,6.2E0,-4.6E0,2.4E1,2.905405E-3,5.1262164E-3,1.5724493E-3,-2.9112058E-4,-1.7563542E-4,2.8218378E-3,-5.2654935E-4,-2.695927E-3],"split_indices":[51,77,77,80,77,25,51,0,0,0,0,0,0,0,0],"split_type":[0,0,0,0,0,0,0,0,0,0,0,0,0,0,0],"sum_hessian":[6.7434375E3,3.28985E3,3.4535872E3,2.1978284E3,1.0920219E3,1.0853556E3,2.3682317E3,1.5697817E3,6.280466E2,6.392989E2,4.52723E2,3.8771826E2,6.976373E2,1.3489774E3,1.0192542E3],"tree_param":{"num_deleted":"0","num_feature":"106","num_nodes":"15","size_leaf_vector":"1"}},{"base_weights":[-1.043412E-1,-2.0418015E-1,1.2970433E-1,-1.2117103E-1,-4.1949797E-1,-1.5227664E-1,2.0523039E-1,-1.5045697E-4,-2.5006696E-3,-4.658108E-3,-2.6932736E-3,-2.4783483E-3,7.291738E-4,3.222602E-3,1.1806244E-3],"categories":[],"categories_nodes":[],"categories_segments":[],"categories_sizes":[],"default_left":[0,0,0,0,0,0,0,0,0,0,0,0,0,0,0],"id":68,"left_children":[1,3,5,7,9,11,13,-1,-1,-1,-1,-1,-1,-1,-1],"loss_changes":[1.5755103E2,8.441739E1,4.2974987E1,4.6674267E1,9.017242E0,9.197282E0,1.6190826E1,0E0,0E0,0E0,0E0,0E0,0E0,0E0,0E0],"parents":[2147483647,0,0,1,1,2,2,3,3,4,4,5,5,6,6],"right_children":[2,4,6,8,10,12,14,-1,-1,-1,-1,-1,-1,-1,-1],"split_conditions":[2E1,2E1,3.6E-1,2.9E0,-2.5E0,2.7E1,-5.9E0,-1.5045697E-4,-2.5006696E-3,-4.658108E-3,-2.6932736E-3,-2.4783483E-3,7.291738E-4,3.222602E-3,1.1806244E-3],"split_indices":[28,80,55,25,77,28,25,0,0,0,0,0,0,0,0],"split_type":[0,0,0,0,0,0,0,0,0,0,0,0,0,0,0],"sum_hessian":[6.740365E3,4.7249346E3,2.0154308E3,3.411355E3,1.3135796E3,4.2556027E2,1.5898706E3,1.8715486E3,1.5398063E3,1.00235095E3,3.112286E2,2.9870715E2,1.2685313E2,6.7753265E2,9.123379E2],"tree_param":{"num_deleted":"0","num_feature":"106","num_nodes":"15","size_leaf_vector":"1"}},{"base_weights":[1.0434122E-1,2.0418017E-1,-1.2970436E-1,1.2117104E-1,4.19498E-1,1.522766E-1,-2.052304E-1,1.5045702E-4,2.5006698E-3,4.6581086E-3,2.693274E-3,2.4783483E-3,-7.291745E-4,-3.2226022E-3,-1.1806246E-3],"categories":[],"categories_nodes":[],"categories_segments":[],"categories_sizes":[],"default_left":[0,0,0,0,0,0,0,0,0,0,0,0,0,0,0],"id":69,"left_children":[1,3,5,7,9,11,13,-1,-1,-1,-1,-1,-1,-1,-1],"loss_changes":[1.5755104E2,8.441742E1,4.2974995E1,4.6674274E1,9.017242E0,9.197285E0,1.6190819E1,0E0,0E0,0E0,0E0,0E0,0E0,0E0,0E0],"parents":[2147483647,0,0,1,1,2,2,3,3,4,4,5,5,6,6],"right_children":[2,4,6,8,10,12,14,-1,-1,-1,-1,-1,-1,-1,-1],"split_conditions":[2E1,2E1,3.6E-1,2.9E0,-2.5E0,2.7E1,-5.9E0,1.5045702E-4,2.5006698E-3,4.6581086E-3,2.693274E-3,2.4783483E-3,-7.291745E-4,-3.2226022E-3,-1.1806246E-3],"split_indices":[28,80,55,25,77,28,25,0,0,0,0,0,0,0,0],"split_type":[0,0,0,0,0,0,0,0,0,0,0,0,0,0,0],"sum_hessian":[6.740365E3,4.7249346E3,2.0154308E3,3.411355E3,1.3135796E3,4.2556027E2,1.5898706E3,1.8715486E3,1.5398064E3,1.0023509E3,3.112286E2,2.9870715E2,1.2685312E2,6.7753265E2,9.1233795E2],"tree_param":{"num_deleted":"0","num_feature":"106","num_nodes":"15","size_leaf_vector":"1"}},{"base_weights":[-1.0334457E-1,-2.5860325E-1,4.4489663E-2,-6.966309E-2,-3.448461E-1,-9.3717776E-2,2.0115398E-1,-6.281216E-6,-2.0396411E-3,-2.8313315E-3,-5.048077E-3,9.859565E-4,-1.991636E-3,1.1086728E-3,3.099033E-3],"categories":[],"categories_nodes":[],"categories_segments":[],"categories_sizes":[],"default_left":[0,0,0,0,0,0,0,0,0,0,0,0,0,0,0],"id":70,"left_children":[1,3,5,7,9,11,13,-1,-1,-1,-1,-1,-1,-1,-1],"loss_changes":[1.546755E2,5.353395E1,7.477506E1,9.56201E0,2.2132355E1,3.7231647E1,1.5857681E1,0E0,0E0,0E0,0E0,0E0,0E0,0E0,0E0],"parents":[2147483647,0,0,1,1,2,2,3,3,4,4,5,5,6,6],"right_children":[2,4,6,8,10,12,14,-1,-1,-1,-1,-1,-1,-1,-1],"split_conditions":[1.5E1,9E0,5.24E-1,6.71E-1,2.3E1,-4.7E0,2.2E1,-6.281216E-6,-2.0396411E-3,-2.8313315E-3,-5.048077E-3,9.859565E-4,-1.991636E-3,1.1086728E-3,3.099033E-3],"split_indices":[51,103,55,3,80,25,28,0,0,0,0,0,0,0,0],"split_type":[0,0,0,0,0,0,0,0,0,0,0,0,0,0,0],"sum_hessian":[6.737424E3,3.2858276E3,3.451596E3,1.0303511E3,2.2554766E3,1.8340342E3,1.6175618E3,6.811983E2,3.4915277E2,1.6295632E3,6.259134E2,6.4951166E2,1.1845226E3,8.84907E2,7.3265485E2],"tree_param":{"num_deleted":"0","num_feature":"106","num_nodes":"15","size_leaf_vector":"1"}},{"base_weights":[1.0334455E-1,2.5860322E-1,-4.4489678E-2,6.966308E-2,3.448461E-1,9.3717754E-2,-2.0115398E-1,6.2810036E-6,2.0396411E-3,2.8313312E-3,5.0480766E-3,-9.859569E-4,1.991636E-3,-1.1086726E-3,-3.0990331E-3],"categories":[],"categories_nodes":[],"categories_segments":[],"categories_sizes":[],"default_left":[0,0,0,0,0,0,0,0,0,0,0,0,0,0,0],"id":71,"left_children":[1,3,5,7,9,11,13,-1,-1,-1,-1,-1,-1,-1,-1],"loss_changes":[1.5467549E2,5.353398E1,7.4775055E1,9.562012E0,2.2132355E1,3.7231655E1,1.5857689E1,0E0,0E0,0E0,0E0,0E0,0E0,0E0,0E0],"parents":[2147483647,0,0,1,1,2,2,3,3,4,4,5,5,6,6],"right_children":[2,4,6,8,10,12,14,-1,-1,-1,-1,-1,-1,-1,-1],"split_conditions":[1.5E1,9E0,5.24E-1,6.71E-1,2.3E1,-4.7E0,2.2E1,6.2810036E-6,2.0396411E-3,2.8313312E-3,5.0480766E-3,-9.859569E-4,1.991636E-3,-1.1086726E-3,-3.0990331E-3],"split_indices":[51,103,55,3,80,25,28,0,0,0,0,0,0,0,0],"split_type":[0,0,0,0,0,0,0,0,0,0,0,0,0,0,0],"sum_hessian":[6.737424E3,3.2858276E3,3.451596E3,1.0303511E3,2.2554766E3,1.8340342E3,1.6175618E3,6.811983E2,3.4915277E2,1.6295632E3,6.259134E2,6.4951166E2,1.1845225E3,8.849069E2,7.3265485E2],"tree_param":{"num_deleted":"0","num_feature":"106","num_nodes":"15","size_leaf_vector":"1"}},{"base_weights":[-1.02359295E-1,8.6235344E-2,-2.2194508E-1,-1.147662E-1,1.7846422E-1,-3.167406E-1,-2.8025618E-2,2.5561397E-4,-2.2794444E-3,1.0758252E-3,3.237966E-3,-4.2717955E-3,-2.332968E-3,7.895379E-4,-1.3685483E-3],"categories":[],"categories_nodes":[],"categories_segments":[],"categories_sizes":[],"default_left":[0,0,0,0,0,0,0,0,0,0,0,0,0,0,0],"id":72,"left_children":[1,3,5,7,9,11,13,-1,-1,-1,-1,-1,-1,-1,-1],"loss_changes":[1.5192322E2,4.8484688E1,7.57657E1,1.3074751E1,1.8429623E1,2.5413696E1,1.578076E1,0E0,0E0,0E0,0E0,0E0,0E0,0E0,0E0],"parents":[2147483647,0,0,1,1,2,2,3,3,4,4,5,5,6,6],"right_children":[2,4,6,8,10,12,14,-1,-1,-1,-1,-1,-1,-1,-1],"split_conditions":[4.69E-1,-2E0,2.9E0,-4.6E0,2.7E1,-1.9E0,3.2E0,2.5561397E-4,-2.2794444E-3,1.0758252E-3,3.237966E-3,-4.2717955E-3,-2.332968E-3,7.895379E-4,-1.3685483E-3],"split_indices":[3,77,77,25,51,77,25,0,0,0,0,0,0,0,0],"split_type":[0,0,0,0,0,0,0,0,0,0,0,0,0,0,0],"sum_hessian":[6.7343564E3,2.613296E3,4.1210605E3,8.218752E2,1.7914207E3,2.7675425E3,1.353518E3,3.6727356E2,4.546016E2,1.205307E3,5.8611365E2,1.1893298E3,1.5782126E3,6.826982E2,6.708197E2],"tree_param":{"num_deleted":"0","num_feature":"106","num_nodes":"15","size_leaf_vector":"1"}},{"base_weights":[1.02359295E-1,-8.623534E-2,2.2194508E-1,1.14766225E-1,-1.7846422E-1,3.1674057E-1,2.8025633E-2,-2.5561356E-4,2.2794444E-3,-1.0758254E-3,-3.2379653E-3,4.2717955E-3,2.3329677E-3,-7.8953756E-4,1.3685481E-3],"categories":[],"categories_nodes":[],"categories_segments":[],"categories_sizes":[],"default_left":[0,0,0,0,0,0,0,0,0,0,0,0,0,0,0],"id":73,"left_children":[1,3,5,7,9,11,13,-1,-1,-1,-1,-1,-1,-1,-1],"loss_changes":[1.5192322E2,4.8484695E1,7.5765686E1,1.3074751E1,1.8429596E1,2.5413666E1,1.5780753E1,0E0,0E0,0E0,0E0,0E0,0E0,0E0,0E0],"parents":[2147483647,0,0,1,1,2,2,3,3,4,4,5,5,6,6],"right_children":[2,4,6,8,10,12,14,-1,-1,-1,-1,-1,-1,-1,-1],"split_conditions":[4.69E-1,-2E0,2.9E0,-4.6E0,2.7E1,-1.9E0,3.2E0,-2.5561356E-4,2.2794444E-3,-1.0758254E-3,-3.2379653E-3,4.2717955E-3,2.3329677E-3,-7.8953756E-4,1.3685481E-3],"split_indices":[3,77,77,25,51,77,25,0,0,0,0,0,0,0,0],"split_type":[0,0,0,0,0,0,0,0,0,0,0,0,0,0,0],"sum_hessian":[6.7343564E3,2.613296E3,4.1210605E3,8.218752E2,1.7914207E3,2.7675425E3,1.353518E3,3.672736E2,4.546016E2,1.205307E3,5.861137E2,1.1893298E3,1.5782128E3,6.826982E2,6.708197E2],"tree_param":{"num_deleted":"0","num_feature":"106","num_nodes":"15","size_leaf_vector":"1"}},{"base_weights":[-1.0138462E-1,-2.5414017E-1,4.396541E-2,-1.3069797E-1,-3.8264516E-1,-9.2040904E-2,1.9812296E-1,-1.9146259E-3,3.395702E-4,-3.3024617E-3,-5.516842E-3,9.645437E-4,-1.9543678E-3,1.0035292E-3,2.9510825E-3],"categories":[],"categories_nodes":[],"categories_segments":[],"categories_sizes":[],"default_left":[0,0,0,0,0,0,0,0,0,0,0,0,0,0,0],"id":74,"left_children":[1,3,5,7,9,11,13,-1,-1,-1,-1,-1,-1,-1,-1],"loss_changes":[1.4948616E2,5.202205E1,7.236424E1,1.6773333E1,1.4058945E1,3.576075E1,1.5309605E1,0E0,0E0,0E0,0E0,0E0,0E0,0E0,0E0],"parents":[2147483647,0,0,1,1,2,2,3,3,4,4,5,5,6,6],"right_children":[2,4,6,8,10,12,14,-1,-1,-1,-1,-1,-1,-1,-1],"split_conditions":[1.5E1,1.3E1,5.24E-1,6.2E0,2.6E1,-4.7E0,2.2E1,-1.9146259E-3,3.395702E-4,-3.3024617E-3,-5.516842E-3,9.645437E-4,-1.9543678E-3,1.0035292E-3,2.9510825E-3],"split_indices":[51,80,55,77,80,25,29,0,0,0,0,0,0,0,0],"split_type":[0,0,0,0,0,0,0,0,0,0,0,0,0,0,0],"sum_hessian":[6.731192E3,3.2816233E3,3.4495686E3,1.6748121E3,1.6068112E3,1.8328925E3,1.6166761E3,1.223227E3,4.515851E2,1.2288455E3,3.7796567E2,6.492848E2,1.1836077E3,8.0609424E2,8.10582E2],"tree_param":{"num_deleted":"0","num_feature":"106","num_nodes":"15","size_leaf_vector":"1"}},{"base_weights":[1.013846E-1,2.5414014E-1,-4.3965425E-2,1.3069795E-1,3.8264516E-1,9.204091E-2,-1.98123E-1,1.9146259E-3,-3.3957034E-4,3.3024617E-3,5.516842E-3,-9.64544E-4,1.954368E-3,-1.0035294E-3,-2.9510828E-3],"categories":[],"categories_nodes":[],"categories_segments":[],"categories_sizes":[],"default_left":[0,0,0,0,0,0,0,0,0,0,0,0,0,0,0],"id":75,"left_children":[1,3,5,7,9,11,13,-1,-1,-1,-1,-1,-1,-1,-1],"loss_changes":[1.4948616E2,5.2022064E1,7.2364265E1,1.6773335E1,1.405896E1,3.5760765E1,1.5309605E1,0E0,0E0,0E0,0E0,0E0,0E0,0E0,0E0],"parents":[2147483647,0,0,1,1,2,2,3,3,4,4,5,5,6,6],"right_children":[2,4,6,8,10,12,14,-1,-1,-1,-1,-1,-1,-1,-1],"split_conditions":[1.5E1,1.3E1,5.24E-1,6.2E0,2.6E1,-4.7E0,2.2E1,1.9146259E-3,-3.3957034E-4,3.3024617E-3,5.516842E-3,-9.64544E-4,1.954368E-3,-1.0035294E-3,-2.9510828E-3],"split_indices":[51,80,55,77,80,25,29,0,0,0,0,0,0,0,0],"split_type":[0,0,0,0,0,0,0,0,0,0,0,0,0,0,0],"sum_hessian":[6.731192E3,3.2816233E3,3.4495686E3,1.6748121E3,1.6068112E3,1.8328925E3,1.6166761E3,1.223227E3,4.515851E2,1.2288455E3,3.7796567E2,6.492848E2,1.1836077E3,8.0609424E2,8.10582E2],"tree_param":{"num_deleted":"0","num_feature":"106","num_nodes":"15","size_leaf_vector":"1"}},{"base_weights":[-1.0041906E-1,-1.9692919E-1,1.2563664E-1,-1.1638171E-1,-4.0666646E-1,-1.4893499E-1,1.9921297E-1,-1.304637E-4,-2.4202627E-3,-4.5231865E-3,-2.590346E-3,-2.4218617E-3,7.0617785E-4,3.1298925E-3,1.1459804E-3],"categories":[],"categories_nodes":[],"categories_segments":[],"categories_sizes":[],"default_left":[0,0,0,0,0,0,0,0,0,0,0,0,0,0,0],"id":76,"left_children":[1,3,5,7,9,11,13,-1,-1,-1,-1,-1,-1,-1,-1],"loss_changes":[1.4683057E2,7.962639E1,4.071472E1,4.4256725E1,8.699936E0,8.742639E0,1.5259106E1,0E0,0E0,0E0,0E0,0E0,0E0,0E0,0E0],"parents":[2147483647,0,0,1,1,2,2,3,3,4,4,5,5,6,6],"right_children":[2,4,6,8,10,12,14,-1,-1,-1,-1,-1,-1,-1,-1],"split_conditions":[2E1,2E1,3.6E-1,2.9E0,-2.5E0,2.7E1,-5.9E0,-1.304637E-4,-2.4202627E-3,-4.5231865E-3,-2.590346E-3,-2.4218617E-3,7.0617785E-4,3.1298925E-3,1.1459804E-3],"split_indices":[28,80,55,25,77,28,25,0,0,0,0,0,0,0,0],"split_type":[0,0,0,0,0,0,0,0,0,0,0,0,0,0,0],"sum_hessian":[6.7280674E3,4.7151523E3,2.0129148E3,3.4079275E3,1.3072252E3,4.2518567E2,1.5877291E3,1.8705844E3,1.537343E3,9.9689233E2,3.103328E2,2.983596E2,1.2682609E2,6.7602386E2,9.1170526E2],"tree_param":{"num_deleted":"0","num_feature":"106","num_nodes":"15","size_leaf_vector":"1"}},{"base_weights":[1.0041907E-1,1.969292E-1,-1.2563662E-1,1.1638173E-1,4.0666646E-1,1.4893505E-1,-1.9921297E-1,1.3046374E-4,2.420263E-3,4.5231865E-3,2.590346E-3,2.4218624E-3,-7.061776E-4,-3.1298925E-3,-1.1459804E-3],"categories":[],"categories_nodes":[],"categories_segments":[],"categories_sizes":[],"default_left":[0,0,0,0,0,0,0,0,0,0,0,0,0,0,0],"id":77,"left_children":[1,3,5,7,9,11,13,-1,-1,-1,-1,-1,-1,-1,-1],"loss_changes":[1.4683057E2,7.96264E1,4.0714737E1,4.4256744E1,8.699921E0,8.7426405E0,1.5259098E1,0E0,0E0,0E0,0E0,