{"learner":{"attributes":{},"feature_names":[],"feature_types":[],"gradient_booster":{"model":{"gbtree_model_param":{"num_parallel_tree":"1","num_trees":"1500"},"iteration_indptr":[0,2,4,6,8,10,12,14,16,18,20,22,24,26,28,30,32,34,36,38,40,42,44,46,48,50,52,54,56,58,60,62,64,66,68,70,72,74,76,78,80,82,84,86,88,90,92,94,96,98,100,102,104,106,108,110,112,114,116,118,120,122,124,126,128,130,132,134,136,138,140,142,144,146,148,150,152,154,156,158,160,162,164,166,168,170,172,174,176,178,180,182,184,186,188,190,192,194,196,198,200,202,204,206,208,210,212,214,216,218,220,222,224,226,228,230,232,234,236,238,240,242,244,246,248,250,252,254,256,258,260,262,264,266,268,270,272,274,276,278,280,282,284,286,288,290,292,294,296,298,300,302,304,306,308,310,312,314,316,318,320,322,324,326,328,330,332,334,336,338,340,342,344,346,348,350,352,354,356,358,360,362,364,366,368,370,372,374,376,378,380,382,384,386,388,390,392,394,396,398,400,402,404,406,408,410,412,414,416,418,420,422,424,426,428,430,432,434,436,438,440,442,444,446,448,450,452,454,456,458,460,462,464,466,468,470,472,474,476,478,480,482,484,486,488,490,492,494,496,498,500,502,504,506,508,510,512,514,516,518,520,522,524,526,528,530,532,534,536,538,540,542,544,546,548,550,552,554,556,558,560,562,564,566,568,570,572,574,576,578,580,582,584,586,588,590,592,594,596,598,600,602,604,606,608,610,612,614,616,618,620,622,624,626,628,630,632,634,636,638,640,642,644,646,648,650,652,654,656,658,660,662,664,666,668,670,672,674,676,678,680,682,684,686,688,690,692,694,696,698,700,702,704,706,708,710,712,714,716,718,720,722,724,726,728,730,732,734,736,738,740,742,744,746,748,750,752,754,756,758,760,762,764,766,768,770,772,774,776,778,780,782,784,786,788,790,792,794,796,798,800,802,804,806,808,810,812,814,816,818,820,822,824,826,828,830,832,834,836,838,840,842,844,846,848,850,852,854,856,858,860,862,864,866,868,870,872,874,876,878,880,882,884,886,888,890,892,894,896,898,900,902,904,906,908,910,912,914,916,918,920,922,924,926,928,930,932,934,936,938,940,942,944,946,948,950,952,954,956,958,960,962,964,966,968,970,972,974,976,978,980,982,984,986,988,990,992,994,996,998,1000,1002,1004,1006,1008,1010,1012,1014,1016,1018,1020,1022,1024,1026,1028,1030,1032,1034,1036,1038,1040,1042,1044,1046,1048,1050,1052,1054,1056,1058,1060,1062,1064,1066,1068,1070,1072,1074,1076,1078,1080,1082,1084,1086,1088,1090,1092,1094,1096,1098,1100,1102,1104,1106,1108,1110,1112,1114,1116,1118,1120,1122,1124,1126,1128,1130,1132,1134,1136,1138,1140,1142,1144,1146,1148,1150,1152,1154,1156,1158,1160,1162,1164,1166,1168,1170,1172,1174,1176,1178,1180,1182,1184,1186,1188,1190,1192,1194,1196,1198,1200,1202,1204,1206,1208,1210,1212,1214,1216,1218,1220,1222,1224,1226,1228,1230,1232,1234,1236,1238,1240,1242,1244,1246,1248,1250,1252,1254,1256,1258,1260,1262,1264,1266,1268,1270,1272,1274,1276,1278,1280,1282,1284,1286,1288,1290,1292,1294,1296,1298,1300,1302,1304,1306,1308,1310,1312,1314,1316,1318,1320,1322,1324,1326,1328,1330,1332,1334,1336,1338,1340,1342,1344,1346,1348,1350,1352,1354,1356,1358,1360,1362,1364,1366,1368,1370,1372,1374,1376,1378,1380,1382,1384,1386,1388,1390,1392,1394,1396,1398,1400,1402,1404,1406,1408,1410,1412,1414,1416,1418,1420,1422,1424,1426,1428,1430,1432,1434,1436,1438,1440,1442,1444,1446,1448,1450,1452,1454,1456,1458,1460,1462,1464,1466,1468,1470,1472,1474,1476,1478,1480,1482,1484,1486,1488,1490,1492,1494,1496,1498,1500],"tree_info":[0,1,0,1,0,1,0,1,0,1,0,1,0,1,0,1,0,1,0,1,0,1,0,1,0,1,0,1,0,1,0,1,0,1,0,1,0,1,0,1,0,1,0,1,0,1,0,1,0,1,0,1,0,1,0,1,0,1,0,1,0,1,0,1,0,1,0,1,0,1,0,1,0,1,0,1,0,1,0,1,0,1,0,1,0,1,0,1,0,1,0,1,0,1,0,1,0,1,0,1,0,1,0,1,0,1,0,1,0,1,0,1,0,1,0,1,0,1,0,1,0,1,0,1,0,1,0,1,0,1,0,1,0,1,0,1,0,1,0,1,0,1,0,1,0,1,0,1,0,1,0,1,0,1,0,1,0,1,0,1,0,1,0,1,0,1,0,1,0,1,0,1,0,1,0,1,0,1,0,1,0,1,0,1,0,1,0,1,0,1,0,1,0,1,0,1,0,1,0,1,0,1,0,1,0,1,0,1,0,1,0,1,0,1,0,1,0,1,0,1,0,1,0,1,0,1,0,1,0,1,0,1,0,1,0,1,0,1,0,1,0,1,0,1,0,1,0,1,0,1,0,1,0,1,0,1,0,1,0,1,0,1,0,1,0,1,0,1,0,1,0,1,0,1,0,1,0,1,0,1,0,1,0,1,0,1,0,1,0,1,0,1,0,1,0,1,0,1,0,1,0,1,0,1,0,1,0,1,0,1,0,1,0,1,0,1,0,1,0,1,0,1,0,1,0,1,0,1,0,1,0,1,0,1,0,1,0,1,0,1,0,1,0,1,0,1,0,1,0,1,0,1,0,1,0,1,0,1,0,1,0,1,0,1,0,1,0,1,0,1,0,1,0,1,0,1,0,1,0,1,0,1,0,1,0,1,0,1,0,1,0,1,0,1,0,1,0,1,0,1,0,1,0,1,0,1,0,1,0,1,0,1,0,1,0,1,0,1,0,1,0,1,0,1,0,1,0,1,0,1,0,1,0,1,0,1,0,1,0,1,0,1,0,1,0,1,0,1,0,1,0,1,0,1,0,1,0,1,0,1,0,1,0,1,0,1,0,1,0,1,0,1,0,1,0,1,0,1,0,1,0,1,0,1,0,1,0,1,0,1,0,1,0,1,0,1,0,1,0,1,0,1,0,1,0,1,0,1,0,1,0,1,0,1,0,1,0,1,0,1,0,1,0,1,0,1,0,1,0,1,0,1,0,1,0,1,0,1,0,1,0,1,0,1,0,1,0,1,0,1,0,1,0,1,0,1,0,1,0,1,0,1,0,1,0,1,0,1,0,1,0,1,0,1,0,1,0,1,0,1,0,1,0,1,0,1,0,1,0,1,0,1,0,1,0,1,0,1,0,1,0,1,0,1,0,1,0,1,0,1,0,1,0,1,0,1,0,1,0,1,0,1,0,1,0,1,0,1,0,1,0,1,0,1,0,1,0,1,0,1,0,1,0,1,0,1,0,1,0,1,0,1,0,1,0,1,0,1,0,1,0,1,0,1,0,1,0,1,0,1,0,1,0,1,0,1,0,1,0,1,0,1,0,1,0,1,0,1,0,1,0,1,0,1,0,1,0,1,0,1,0,1,0,1,0,1,0,1,0,1,0,1,0,1,0,1,0,1,0,1,0,1,0,1,0,1,0,1,0,1,0,1,0,1,0,1,0,1,0,1,0,1,0,1,0,1,0,1,0,1,0,1,0,1,0,1,0,1,0,1,0,1,0,1,0,1,0,1,0,1,0,1,0,1,0,1,0,1,0,1,0,1,0,1,0,1,0,1,0,1,0,1,0,1,0,1,0,1,0,1,0,1,0,1,0,1,0,1,0,1,0,1,0,1,0,1,0,1,0,1,0,1,0,1,0,1,0,1,0,1,0,1,0,1,0,1,0,1,0,1,0,1,0,1,0,1,0,1,0,1,0,1,0,1,0,1,0,1,0,1,0,1,0,1,0,1,0,1,0,1,0,1,0,1,0,1,0,1,0,1,0,1,0,1,0,1,0,1,0,1,0,1,0,1,0,1,0,1,0,1,0,1,0,1,0,1,0,1,0,1,0,1,0,1,0,1,0,1,0,1,0,1,0,1,0,1,0,1,0,1,0,1,0,1,0,1,0,1,0,1,0,1,0,1,0,1,0,1,0,1,0,1,0,1,0,1,0,1,0,1,0,1,0,1,0,1,0,1,0,1,0,1,0,1,0,1,0,1,0,1,0,1,0,1,0,1,0,1,0,1,0,1,0,1,0,1,0,1,0,1,0,1,0,1,0,1,0,1,0,1,0,1,0,1,0,1,0,1,0,1,0,1,0,1,0,1,0,1,0,1,0,1,0,1,0,1,0,1,0,1,0,1,0,1,0,1,0,1,0,1,0,1,0,1,0,1,0,1,0,1,0,1,0,1,0,1,0,1,0,1,0,1,0,1,0,1,0,1,0,1,0,1,0,1,0,1,0,1,0,1,0,1,0,1,0,1,0,1,0,1,0,1,0,1,0,1,0,1,0,1,0,1,0,1,0,1,0,1,0,1,0,1,0,1,0,1,0,1,0,1,0,1,0,1,0,1,0,1,0,1,0,1,0,1,0,1,0,1,0,1,0,1,0,1,0,1,0,1,0,1,0,1,0,1,0,1,0,1,0,1,0,1,0,1,0,1,0,1,0,1,0,1,0,1,0,1,0,1,0,1,0,1,0,1,0,1,0,1,0,1,0,1,0,1,0,1,0,1,0,1,0,1,0,1,0,1,0,1,0,1,0,1,0,1,0,1,0,1,0,1,0,1,0,1,0,1,0,1,0,1,0,1,0,1,0,1,0,1,0,1,0,1,0,1,0,1,0,1,0,1,0,1,0,1,0,1,0,1,0,1,0,1,0,1,0,1,0,1,0,1,0,1,0,1,0,1,0,1,0,1,0,1,0,1,0,1,0,1,0,1,0,1,0,1,0,1,0,1,0,1,0,1,0,1,0,1,0,1,0,1,0,1,0,1,0,1,0,1,0,1,0,1,0,1,0,1,0,1,0,1,0,1,0,1,0,1,0,1,0,1,0,1,0,1,0,1,0,1,0,1,0,1,0,1,0,1,0,1,0,1,0,1,0,1,0,1,0,1,0,1,0,1,0,1,0,1,0,1,0,1,0,1,0,1,0,1,0,1,0,1,0,1,0,1,0,1,0,1,0,1,0,1,0,1,0,1,0,1,0,1,0,1,0,1,0,1,0,1,0,1,0,1,0,1,0,1,0,1,0,1,0,1,0,1,0,1,0,1,0,1,0,1,0,1,0,1,0,1,0,1,0,1,0,1,0,1,0,1,0,1,0,1,0,1,0,1,0,1,0,1,0,1,0,1,0,1,0,1,0,1,0,1,0,1,0,1,0,1,0,1],"trees":[{"base_weights":[-1.4663726E-1,-2.8242832E-1,1.6984826E-1,-1.731304E-1,-5.598513E-1,-5.534591E-2,3.1305045E-1,-3.2223251E-3,-3.8418706E-4,-4.3384614E-3,-6.307513E-3,9.916368E-4,-2.2649006E-3,4.783505E-3,2.0784314E-3],"categories":[],"categories_nodes":[],"categories_segments":[],"categories_sizes":[],"default_left":[0,0,0,0,0,0,0,0,0,0,0,0,0,0,0],"id":0,"left_children":[1,3,5,7,9,11,13,-1,-1,-1,-1,-1,-1,-1,-1],"loss_changes":[2.9239154E2,1.4424979E2,6.59006E1,6.861075E1,1.1742279E1,2.1044973E1,2.1621658E1,0E0,0E0,0E0,0E0,0E0,0E0,0E0,0E0],"parents":[2147483647,0,0,1,1,2,2,3,3,4,4,5,5,6,6],"right_children":[2,4,6,8,10,12,14,-1,-1,-1,-1,-1,-1,-1,-1],"split_conditions":[2E1,2E1,4.63E-1,1E1,5.36E-1,-4.7E0,-6.2E0,-3.2223251E-3,-3.8418706E-4,-4.3384614E-3,-6.307513E-3,9.916368E-4,-2.2649006E-3,4.783505E-3,2.0784314E-3],"split_indices":[28,80,55,51,3,25,25,0,0,0,0,0,0,0,0],"split_type":[0,0,0,0,0,0,0,0,0,0,0,0,0,0,0],"sum_hessian":[6.8015E3,4.7595E3,2.042E3,3.4155E3,1.344E3,7.94E2,1.248E3,1.6205E3,1.795E3,4.865E2,8.575E2,4.175E2,3.765E2,4.84E2,7.64E2],"tree_param":{"num_deleted":"0","num_feature":"106","num_nodes":"15","size_leaf_vector":"1"}},{"base_weights":[1.4663726E-1,2.8242832E-1,-1.6984826E-1,1.731304E-1,5.598513E-1,5.534591E-2,-3.1305045E-1,3.2223251E-3,3.8418706E-4,4.3384614E-3,6.307513E-3,-9.916368E-4,2.2649006E-3,-4.783505E-3,-2.0784314E-3],"categories":[],"categories_nodes":[],"categories_segments":[],"categories_sizes":[],"default_left":[0,0,0,0,0,0,0,0,0,0,0,0,0,0,0],"id":1,"left_children":[1,3,5,7,9,11,13,-1,-1,-1,-1,-1,-1,-1,-1],"loss_changes":[2.9239154E2,1.4424979E2,6.59006E1,6.861075E1,1.1742279E1,2.1044973E1,2.1621658E1,0E0,0E0,0E0,0E0,0E0,0E0,0E0,0E0],"parents":[2147483647,0,0,1,1,2,2,3,3,4,4,5,5,6,6],"right_children":[2,4,6,8,10,12,14,-1,-1,-1,-1,-1,-1,-1,-1],"split_conditions":[2E1,2E1,4.63E-1,1E1,5.36E-1,-4.7E0,-6.2E0,3.2223251E-3,3.8418706E-4,4.3384614E-3,6.307513E-3,-9.916368E-4,2.2649006E-3,-4.783505E-3,-2.0784314E-3],"split_indices":[28,80,55,51,3,25,25,0,0,0,0,0,0,0,0],"split_type":[0,0,0,0,0,0,0,0,0,0,0,0,0,0,0],"sum_hessian":[6.8015E3,4.7595E3,2.042E3,3.4155E3,1.344E3,7.94E2,1.248E3,1.6205E3,1.795E3,4.865E2,8.575E2,4.175E2,3.765E2,4.84E2,7.64E2],"tree_param":{"num_deleted":"0","num_feature":"106","num_nodes":"15","size_leaf_vector":"1"}},{"base_weights":[-1.4517383E-1,-2.796106E-1,1.6815391E-1,-1.7140102E-1,-5.542786E-1,-5.4794166E-2,3.09929E-1,-3.1901544E-3,-3.8034804E-4,-4.295246E-3,-6.2447605E-3,9.817455E-4,-2.2423225E-3,4.735877E-3,2.0576832E-3],"categories":[],"categories_nodes":[],"categories_segments":[],"categories_sizes":[],"default_left":[0,0,0,0,0,0,0,0,0,0,0,0,0,0,0],"id":2,"left_children":[1,3,5,7,9,11,13,-1,-1,-1,-1,-1,-1,-1,-1],"loss_changes":[2.8658392E2,1.413934E2,6.459259E1,6.72474E1,1.1510071E1,2.0627344E1,2.1193756E1,0E0,0E0,0E0,0E0,0E0,0E0,0E0,0E0],"parents":[2147483647,0,0,1,1,2,2,3,3,4,4,5,5,6,6],"right_children":[2,4,6,8,10,12,14,-1,-1,-1,-1,-1,-1,-1,-1],"split_conditions":[2E1,2E1,4.63E-1,1E1,5.36E-1,-4.7E0,-6.2E0,-3.1901544E-3,-3.8034804E-4,-4.295246E-3,-6.2447605E-3,9.817455E-4,-2.2423225E-3,4.735877E-3,2.0576832E-3],"split_indices":[28,80,55,51,3,25,25,0,0,0,0,0,0,0,0],"split_type":[0,0,0,0,0,0,0,0,0,0,0,0,0,0,0],"sum_hessian":[6.801423E3,4.7594395E3,2.0419834E3,3.415483E3,1.3439567E3,7.939977E2,1.2479856E3,1.6204832E3,1.7949996E3,4.8649088E2,8.574659E2,4.174996E2,3.7649808E2,4.8398892E2,7.639967E2],"tree_param":{"num_deleted":"0","num_feature":"106","num_nodes":"15","size_leaf_vector":"1"}},{"base_weights":[1.451738E-1,2.7961057E-1,-1.6815391E-1,1.7140098E-1,5.5427855E-1,5.4794226E-2,-3.0992904E-1,3.1901544E-3,3.8034713E-4,4.2952476E-3,6.2447595E-3,-9.817453E-4,2.2423235E-3,-4.7358777E-3,-2.0576832E-3],"categories":[],"categories_nodes":[],"categories_segments":[],"categories_sizes":[],"default_left":[0,0,0,0,0,0,0,0,0,0,0,0,0,0,0],"id":3,"left_children":[1,3,5,7,9,11,13,-1,-1,-1,-1,-1,-1,-1,-1],"loss_changes":[2.8658386E2,1.4139343E2,6.459262E1,6.724744E1,1.1510071E1,2.0627352E1,2.1193764E1,0E0,0E0,0E0,0E0,0E0,0E0,0E0,0E0],"parents":[2147483647,0,0,1,1,2,2,3,3,4,4,5,5,6,6],"right_children":[2,4,6,8,10,12,14,-1,-1,-1,-1,-1,-1,-1,-1],"split_conditions":[2E1,2E1,4.63E-1,1E1,5.36E-1,-4.7E0,-6.2E0,3.1901544E-3,3.8034713E-4,4.2952476E-3,6.2447595E-3,-9.817453E-4,2.2423235E-3,-4.7358777E-3,-2.0576832E-3],"split_indices":[28,80,55,51,3,25,25,0,0,0,0,0,0,0,0],"split_type":[0,0,0,0,0,0,0,0,0,0,0,0,0,0,0],"sum_hessian":[6.801423E3,4.75944E3,2.0419833E3,3.415483E3,1.3439568E3,7.939976E2,1.2479856E3,1.6204832E3,1.7949998E3,4.8649084E2,8.574659E2,4.1749957E2,3.7649808E2,4.839889E2,7.639967E2],"tree_param":{"num_deleted":"0","num_feature":"106","num_nodes":"15","size_leaf_vector":"1"}},{"base_weights":[-1.4372821E-1,-2.768279E-1,1.6647914E-1,-1.6969055E-1,-5.487962E-1,-5.424835E-2,3.0684566E-1,-3.1583705E-3,-3.7654574E-4,-4.25262E-3,-6.183116E-3,9.719538E-4,-2.2199932E-3,4.6889344E-3,2.0371594E-3],"categories":[],"categories_nodes":[],"categories_segments":[],"categories_sizes":[],"default_left":[0,0,0,0,0,0,0,0,0,0,0,0,0,0,0],"id":4,"left_children":[1,3,5,7,9,11,13,-1,-1,-1,-1,-1,-1,-1,-1],"loss_changes":[2.8089856E2,1.3861111E2,6.3312363E1,6.591362E1,1.1285858E1,2.0218184E1,2.0776749E1,0E0,0E0,0E0,0E0,0E0,0E0,0E0,0E0],"parents":[2147483647,0,0,1,1,2,2,3,3,4,4,5,5,6,6],"right_children":[2,4,6,8,10,12,14,-1,-1,-1,-1,-1,-1,-1,-1],"split_conditions":[2E1,2E1,4.63E-1,1E1,5.36E-1,-4.7E0,-6.2E0,-3.1583705E-3,-3.7654574E-4,-4.25262E-3,-6.183116E-3,9.719538E-4,-2.2199932E-3,4.6889344E-3,2.0371594E-3],"split_indices":[28,80,55,51,3,25,25,0,0,0,0,0,0,0,0],"split_type":[0,0,0,0,0,0,0,0,0,0,0,0,0,0,0],"sum_hessian":[6.801195E3,4.7592607E3,2.0419338E3,3.4154324E3,1.3438286E3,7.939907E2,1.2479431E3,1.6204333E3,1.794999E3,4.864637E2,8.5736487E2,4.1749838E2,3.7649234E2,4.8395615E2,7.6398694E2],"tree_param":{"num_deleted":"0","num_feature":"106","num_nodes":"15","size_leaf_vector":"1"}},{"base_weights":[1.4372823E-1,2.7682793E-1,-1.6647913E-1,1.6969061E-1,5.487961E-1,5.424835E-2,-3.0684566E-1,3.1583705E-3,3.7654667E-4,4.25262E-3,6.1831158E-3,-9.719538E-4,2.2199932E-3,-4.688934E-3,-2.0371594E-3],"categories":[],"categories_nodes":[],"categories_segments":[],"categories_sizes":[],"default_left":[0,0,0,0,0,0,0,0,0,0,0,0,0,0,0],"id":5,"left_children":[1,3,5,7,9,11,13,-1,-1,-1,-1,-1,-1,-1,-1],"loss_changes":[2.8089856E2,1.3861108E2,6.331237E1,6.591357E1,1.1285828E1,2.0218184E1,2.0776733E1,0E0,0E0,0E0,0E0,0E0,0E0,0E0,0E0],"parents":[2147483647,0,0,1,1,2,2,3,3,4,4,5,5,6,6],"right_children":[2,4,6,8,10,12,14,-1,-1,-1,-1,-1,-1,-1,-1],"split_conditions":[2E1,2E1,4.63E-1,1E1,5.36E-1,-4.7E0,-6.2E0,3.1583705E-3,3.7654667E-4,4.25262E-3,6.1831158E-3,-9.719538E-4,2.2199932E-3,-4.688934E-3,-2.0371594E-3],"split_indices":[28,80,55,51,3,25,25,0,0,0,0,0,0,0,0],"split_type":[0,0,0,0,0,0,0,0,0,0,0,0,0,0,0],"sum_hessian":[6.801195E3,4.7592607E3,2.0419338E3,3.4154324E3,1.3438286E3,7.939907E2,1.247943E3,1.6204333E3,1.7949989E3,4.864637E2,8.573649E2,4.1749838E2,3.7649234E2,4.8395612E2,7.6398694E2],"tree_param":{"num_deleted":"0","num_feature":"106","num_nodes":"15","size_leaf_vector":"1"}},{"base_weights":[-1.4230013E-1,-2.7407962E-1,1.6482359E-1,-1.6799884E-1,-5.434014E-1,-9.480221E-2,2.8198752E-1,-3.1269644E-3,-3.727832E-4,-4.2105676E-3,-6.1225463E-3,7.0181704E-4,-2.5949243E-3,4.301403E-3,1.8510122E-3],"categories":[],"categories_nodes":[],"categories_segments":[],"categories_sizes":[],"default_left":[0,0,0,0,0,0,0,0,0,0,0,0,0,0,0],"id":6,"left_children":[1,3,5,7,9,11,13,-1,-1,-1,-1,-1,-1,-1,-1],"loss_changes":[2.753326E2,1.3590033E2,6.2167812E1,6.4608406E1,1.1069092E1,1.7298565E1,2.012896E1,0E0,0E0,0E0,0E0,0E0,0E0,0E0,0E0],"parents":[2147483647,0,0,1,1,2,2,3,3,4,4,5,5,6,6],"right_children":[2,4,6,8,10,12,14,-1,-1,-1,-1,-1,-1,-1,-1],"split_conditions":[2E1,2E1,-2E0,1E1,5.36E-1,-4.9E0,-6.2E0,-3.1269644E-3,-3.727832E-4,-4.2105676E-3,-6.1225463E-3,7.0181704E-4,-2.5949243E-3,4.301403E-3,1.8510122E-3],"split_indices":[28,80,77,51,3,25,25,0,0,0,0,0,0,0,0],"split_type":[0,0,0,0,0,0,0,0,0,0,0,0,0,0,0],"sum_hessian":[6.8008203E3,4.7589673E3,2.0418525E3,3.4153494E3,1.3436183E3,6.349797E2,1.4068729E3,1.6203517E3,1.7949977E3,4.864192E2,8.5719904E2,3.1749368E2,3.1748602E2,5.5490515E2,8.519677E2],"tree_param":{"num_deleted":"0","num_feature":"106","num_nodes":"15","size_leaf_vector":"1"}},{"base_weights":[1.4230008E-1,2.7407962E-1,-1.6482367E-1,1.6799882E-1,5.4340136E-1,9.480215E-2,-2.819876E-1,3.1269642E-3,3.727832E-4,4.2105676E-3,6.122545E-3,-7.0181815E-4,2.5949243E-3,-4.301403E-3,-1.8510133E-3],"categories":[],"categories_nodes":[],"categories_segments":[],"categories_sizes":[],"default_left":[0,0,0,0,0,0,0,0,0,0,0,0,0,0,0],"id":7,"left_children":[1,3,5,7,9,11,13,-1,-1,-1,-1,-1,-1,-1,-1],"loss_changes":[2.753327E2,1.3590036E2,6.216782E1,6.460839E1,1.106897E1,1.7298578E1,2.0128944E1,0E0,0E0,0E0,0E0,0E0,0E0,0E0,0E0],"parents":[2147483647,0,0,1,1,2,2,3,3,4,4,5,5,6,6],"right_children":[2,4,6,8,10,12,14,-1,-1,-1,-1,-1,-1,-1,-1],"split_conditions":[2E1,2E1,-2E0,1E1,5.36E-1,-4.9E0,-6.2E0,3.1269642E-3,3.727832E-4,4.2105676E-3,6.122545E-3,-7.0181815E-4,2.5949243E-3,-4.301403E-3,-1.8510133E-3],"split_indices":[28,80,77,51,3,25,25,0,0,0,0,0,0,0,0],"split_type":[0,0,0,0,0,0,0,0,0,0,0,0,0,0,0],"sum_hessian":[6.80082E3,4.7589673E3,2.0418525E3,3.415349E3,1.3436183E3,6.349797E2,1.4068729E3,1.6203516E3,1.7949977E3,4.8641922E2,8.5719904E2,3.1749368E2,3.1748602E2,5.5490515E2,8.519677E2],"tree_param":{"num_deleted":"0","num_feature":"106","num_nodes":"15","size_leaf_vector":"1"}},{"base_weights":[-1.4088911E-1,-2.71365E-1,1.6318564E-1,-1.1499902E-1,-4.5067722E-1,-5.3720456E-2,3.0113474E-1,-2.6269406E-3,2.0736265E-4,-3.5267014E-3,-5.8316826E-3,9.4748294E-4,-2.1818033E-3,4.601699E-3,1.9994255E-3],"categories":[],"categories_nodes":[],"categories_segments":[],"categories_sizes":[],"default_left":[0,0,0,0,0,0,0,0,0,0,0,0,0,0,0],"id":8,"left_children":[1,3,5,7,9,11,13,-1,-1,-1,-1,-1,-1,-1,-1],"loss_changes":[2.698825E2,1.3339838E2,6.11394E1,5.1002113E1,2.8579132E1,1.9431416E1,2.0004883E1,0E0,0E0,0E0,0E0,0E0,0E0,0E0,0E0],"parents":[2147483647,0,0,1,1,2,2,3,3,4,4,5,5,6,6],"right_children":[2,4,6,8,10,12,14,-1,-1,-1,-1,-1,-1,-1,-1],"split_conditions":[2E1,1.4E1,4.63E-1,1E1,2.3E1,-4.7E0,-6.2E0,-2.6269406E-3,2.0736265E-4,-3.5267014E-3,-5.8316826E-3,9.4748294E-4,-2.1818033E-3,4.601699E-3,1.9994255E-3],"split_indices":[28,80,55,51,80,25,25,0,0,0,0,0,0,0,0],"split_type":[0,0,0,0,0,0,0,0,0,0,0,0,0,0,0],"sum_hessian":[6.8003145E3,4.758563E3,2.0417515E3,2.5428008E3,2.2157622E3,7.939633E2,1.2477881E3,1.2173038E3,1.325497E3,1.2757318E3,9.4003033E2,4.174908E2,3.764725E2,4.8383636E2,7.639517E2],"tree_param":{"num_deleted":"0","num_feature":"106","num_nodes":"15","size_leaf_vector":"1"}},{"base_weights":[1.4088912E-1,2.7136502E-1,-1.6318563E-1,1.14999056E-1,4.5067722E-1,5.3720407E-2,-3.0113468E-1,2.6269418E-3,-2.0736265E-4,3.5267014E-3,5.831682E-3,-9.474837E-4,2.1818033E-3,-4.601699E-3,-1.9994245E-3],"categories":[],"categories_nodes":[],"categories_segments":[],"categories_sizes":[],"default_left":[0,0,0,0,0,0,0,0,0,0,0,0,0,0,0],"id":9,"left_children":[1,3,5,7,9,11,13,-1,-1,-1,-1,-1,-1,-1,-1],"loss_changes":[2.698825E2,1.3339835E2,6.1139362E1,5.1002144E1,2.8579102E1,1.9431423E1,2.000489E1,0E0,0E0,0E0,0E0,0E0,0E0,0E0,0E0],"parents":[2147483647,0,0,1,1,2,2,3,3,4,4,5,5,6,6],"right_children":[2,4,6,8,10,12,14,-1,-1,-1,-1,-1,-1,-1,-1],"split_conditions":[2E1,1.4E1,4.63E-1,1E1,2.3E1,-4.7E0,-6.2E0,2.6269418E-3,-2.0736265E-4,3.5267014E-3,5.831682E-3,-9.474837E-4,2.1818033E-3,-4.601699E-3,-1.9994245E-3],"split_indices":[28,80,55,51,80,25,25,0,0,0,0,0,0,0,0],"split_type":[0,0,0,0,0,0,0,0,0,0,0,0,0,0,0],"sum_hessian":[6.8003145E3,4.758563E3,2.0417515E3,2.5428008E3,2.2157622E3,7.9396326E2,1.2477881E3,1.2173037E3,1.325497E3,1.2757318E3,9.400304E2,4.1749078E2,3.7647247E2,4.8383636E2,7.639518E2],"tree_param":{"num_deleted":"0","num_feature":"106","num_nodes":"15","size_leaf_vector":"1"}},{"base_weights":[-1.39494E-1,-2.6868126E-1,1.6156751E-1,-1.6457608E-1,-5.330919E-1,-9.349704E-2,2.7668437E-1,-4.0283354E-4,-3.1223479E-3,-4.118553E-3,-6.0134255E-3,6.832286E-4,-2.5503659E-3,4.2196084E-3,1.817008E-3],"categories":[],"categories_nodes":[],"categories_segments":[],"categories_sizes":[],"default_left":[0,0,0,0,0,0,0,0,0,0,0,0,0,0,0],"id":10,"left_children":[1,3,5,7,9,11,13,-1,-1,-1,-1,-1,-1,-1,-1],"loss_changes":[2.6454492E2,1.3091318E2,6.000153E1,6.268267E1,1.0873108E1,1.6641287E1,1.9347534E1,0E0,0E0,0E0,0E0,0E0,0E0,0E0,0E0],"parents":[2147483647,0,0,1,1,2,2,3,3,4,4,5,5,6,6],"right_children":[2,4,6,8,10,12,14,-1,-1,-1,-1,-1,-1,-1,-1],"split_conditions":[2E1,2E1,-2E0,2.9E0,5.36E-1,-4.9E0,-6.2E0,-4.0283354E-4,-3.1223479E-3,-4.118553E-3,-6.0134255E-3,6.832286E-4,-2.5503659E-3,4.2196084E-3,1.817008E-3],"split_indices":[28,80,77,25,3,25,25,0,0,0,0,0,0,0,0],"split_type":[0,0,0,0,0,0,0,0,0,0,0,0,0,0,0],"sum_hessian":[6.7996934E3,4.7580806E3,2.0416127E3,3.4150938E3,1.3429869E3,6.349472E2,1.4066654E3,1.8549501E3,1.5601438E3,4.8625882E2,8.567281E2,3.1748666E2,3.1746057E2,5.5474524E2,8.519202E2],"tree_param":{"num_deleted":"0","num_feature":"106","num_nodes":"15","size_leaf_vector":"1"}},{"base_weights":[1.3949403E-1,2.6868126E-1,-1.6156748E-1,1.6457608E-1,5.330919E-1,9.349709E-2,-2.7668434E-1,4.0283412E-4,3.1223476E-3,4.118553E-3,6.0134255E-3,-6.8322755E-4,2.5503659E-3,-4.2196084E-3,-1.8170078E-3],"categories":[],"categories_nodes":[],"categories_segments":[],"categories_sizes":[],"default_left":[0,0,0,0,0,0,0,0,0,0,0,0,0,0,0],"id":11,"left_children":[1,3,5,7,9,11,13,-1,-1,-1,-1,-1,-1,-1,-1],"loss_changes":[2.6454486E2,1.3091315E2,6.0001537E1,6.2682625E1,1.0873108E1,1.6641275E1,1.9347542E1,0E0,0E0,0E0,0E0,0E0,0E0,0E0,0E0],"parents":[2147483647,0,0,1,1,2,2,3,3,4,4,5,5,6,6],"right_children":[2,4,6,8,10,12,14,-1,-1,-1,-1,-1,-1,-1,-1],"split_conditions":[2E1,2E1,-2E0,2.9E0,5.36E-1,-4.9E0,-6.2E0,4.0283412E-4,3.1223476E-3,4.118553E-3,6.0134255E-3,-6.8322755E-4,2.5503659E-3,-4.2196084E-3,-1.8170078E-3],"split_indices":[28,80,77,25,3,25,25,0,0,0,0,0,0,0,0],"split_type":[0,0,0,0,0,0,0,0,0,0,0,0,0,0,0],"sum_hessian":[6.7996934E3,4.7580806E3,2.0416125E3,3.4150938E3,1.3429869E3,6.349472E2,1.4066654E3,1.8549501E3,1.5601437E3,4.8625882E2,8.567281E2,3.1748666E2,3.1746057E2,5.547452E2,8.519202E2],"tree_param":{"num_deleted":"0","num_feature":"106","num_nodes":"15","size_leaf_vector":"1"}},{"base_weights":[-1.3811603E-1,-2.6603127E-1,1.5996626E-1,-1.1220824E-1,-4.4248286E-1,-5.3195305E-2,2.9555312E-1,-2.5725483E-3,2.1070037E-4,-3.4642904E-3,-5.7238387E-3,9.235908E-4,-2.144341E-3,4.516782E-3,1.962444E-3],"categories":[],"categories_nodes":[],"categories_segments":[],"categories_sizes":[],"default_left":[0,0,0,0,0,0,0,0,0,0,0,0,0,0,0],"id":12,"left_children":[1,3,5,7,9,11,13,-1,-1,-1,-1,-1,-1,-1,-1],"loss_changes":[2.593191E2,1.291065E2,5.9046597E1,4.917701E1,2.7450409E1,1.8675703E1,1.9269447E1,0E0,0E0,0E0,0E0,0E0,0E0,0E0,0E0],"parents":[2147483647,0,0,1,1,2,2,3,3,4,4,5,5,6,6],"right_children":[2,4,6,8,10,12,14,-1,-1,-1,-1,-1,-1,-1,-1],"split_conditions":[2E1,1.4E1,4.63E-1,1E1,2.3E1,-4.7E0,-6.2E0,-2.5725483E-3,2.1070037E-4,-3.4642904E-3,-5.7238387E-3,9.235908E-4,-2.144341E-3,4.516782E-3,1.962444E-3],"split_indices":[28,80,55,51,80,25,25,0,0,0,0,0,0,0,0],"split_type":[0,0,0,0,0,0,0,0,0,0,0,0,0,0,0],"sum_hessian":[6.7989355E3,4.757479E3,2.0414562E3,2.5425916E3,2.2148875E3,7.9391626E2,1.2475399E3,1.2170966E3,1.325495E3,1.2754431E3,9.394444E2,4.174766E2,3.7643967E2,4.8364474E2,7.638952E2],"tree_param":{"num_deleted":"0","num_feature":"106","num_nodes":"15","size_leaf_vector":"1"}},{"base_weights":[1.3811608E-1,2.660313E-1,-1.5996623E-1,1.12208314E-1,4.4248286E-1,5.319531E-2,-2.955531E-1,2.5725486E-3,-2.1069925E-4,3.4642904E-3,5.7238387E-3,-9.2359027E-4,2.1443402E-3,-4.516782E-3,-1.962444E-3],"categories":[],"categories_nodes":[],"categories_segments":[],"categories_sizes":[],"default_left":[0,0,0,0,0,0,0,0,0,0,0,0,0,0,0],"id":13,"left_children":[1,3,5,7,9,11,13,-1,-1,-1,-1,-1,-1,-1,-1],"loss_changes":[2.593191E2,1.2910641E2,5.9046585E1,4.9176983E1,2.7450378E1,1.867569E1,1.9269447E1,0E0,0E0,0E0,0E0,0E0,0E0,0E0,0E0],"parents":[2147483647,0,0,1,1,2,2,3,3,4,4,5,5,6,6],"right_children":[2,4,6,8,10,12,14,-1,-1,-1,-1,-1,-1,-1,-1],"split_conditions":[2E1,1.4E1,4.63E-1,1E1,2.3E1,-4.7E0,-6.2E0,2.5725486E-3,-2.1069925E-4,3.4642904E-3,5.7238387E-3,-9.2359027E-4,2.1443402E-3,-4.516782E-3,-1.962444E-3],"split_indices":[28,80,55,51,80,25,25,0,0,0,0,0,0,0,0],"split_type":[0,0,0,0,0,0,0,0,0,0,0,0,0,0,0],"sum_hessian":[6.7989355E3,4.757479E3,2.0414562E3,2.5425916E3,2.2148875E3,7.9391626E2,1.2475399E3,1.2170967E3,1.325495E3,1.2754431E3,9.3944446E2,4.174766E2,3.7643967E2,4.836447E2,7.6389514E2],"tree_param":{"num_deleted":"0","num_feature":"106","num_nodes":"15","size_leaf_vector":"1"}},{"base_weights":[-1.3675357E-1,-2.6341143E-1,1.5838423E-1,-1.1109241E-1,-4.381737E-1,-1.6865455E-1,2.453103E-1,-2.5470997E-3,2.0859504E-4,-3.430143E-3,-5.669009E-3,3.3644453E-4,-2.8950202E-3,3.9170524E-3,1.4894663E-3],"categories":[],"categories_nodes":[],"categories_segments":[],"categories_sizes":[],"default_left":[0,0,0,0,0,0,0,0,0,0,0,0,0,0,0],"id":14,"left_children":[1,3,5,7,9,11,13,-1,-1,-1,-1,-1,-1,-1,-1],"loss_changes":[2.5420096E2,1.2660211E2,5.8099243E1,4.8205654E1,2.6942383E1,1.0508288E1,2.2708176E1,0E0,0E0,0E0,0E0,0E0,0E0,0E0,0E0],"parents":[2147483647,0,0,1,1,2,2,3,3,4,4,5,5,6,6],"right_children":[2,4,6,8,10,12,14,-1,-1,-1,-1,-1,-1,-1,-1],"split_conditions":[2E1,1.4E1,3.6E-1,1E1,2.3E1,-6.2E0,-6.2E0,-2.5470997E-3,2.0859504E-4,-3.430143E-3,-5.669009E-3,3.3644453E-4,-2.8950202E-3,3.9170524E-3,1.4894663E-3],"split_indices":[28,80,55,51,80,25,25,0,0,0,0,0,0,0,0],"split_type":[0,0,0,0,0,0,0,0,0,0,0,0,0,0,0],"sum_hessian":[6.798061E3,4.7567974E3,2.0412634E3,2.5424707E3,2.2143267E3,4.2843564E2,1.6128278E3,1.2169747E3,1.325496E3,1.2752699E3,9.390569E2,1.6049243E2,2.679432E2,6.389997E2,9.7382806E2],"tree_param":{"num_deleted":"0","num_feature":"106","num_nodes":"15","size_leaf_vector":"1"}},{"base_weights":[1.3675359E-1,2.6341143E-1,-1.5838423E-1,1.11092456E-1,4.3817362E-1,1.6865449E-1,-2.4531029E-1,2.5470997E-3,-2.085942E-4,3.430142E-3,5.6690085E-3,-3.3644453E-4,2.8950192E-3,-3.9170515E-3,-1.4894664E-3],"categories":[],"categories_nodes":[],"categories_segments":[],"categories_sizes":[],"default_left":[0,0,0,0,0,0,0,0,0,0,0,0,0,0,0],"id":15,"left_children":[1,3,5,7,9,11,13,-1,-1,-1,-1,-1,-1,-1,-1],"loss_changes":[2.5420093E2,1.2660199E2,5.8099224E1,4.8205612E1,2.6942444E1,1.05082855E1,2.2708145E1,0E0,0E0,0E0,0E0,0E0,0E0,0E0,0E0],"parents":[2147483647,0,0,1,1,2,2,3,3,4,4,5,5,6,6],"right_children":[2,4,6,8,10,12,14,-1,-1,-1,-1,-1,-1,-1,-1],"split_conditions":[2E1,1.4E1,3.6E-1,1E1,2.3E1,-6.2E0,-6.2E0,2.5470997E-3,-2.085942E-4,3.430142E-3,5.6690085E-3,-3.3644453E-4,2.8950192E-3,-3.9170515E-3,-1.4894664E-3],"split_indices":[28,80,55,51,80,25,25,0,0,0,0,0,0,0,0],"split_type":[0,0,0,0,0,0,0,0,0,0,0,0,0,0,0],"sum_hessian":[6.798061E3,4.756798E3,2.0412634E3,2.5424707E3,2.214327E3,4.284356E2,1.6128278E3,1.2169747E3,1.325496E3,1.2752699E3,9.3905695E2,1.6049243E2,2.6794318E2,6.389997E2,9.7382806E2],"tree_param":{"num_deleted":"0","num_feature":"106","num_nodes":"15","size_leaf_vector":"1"}},{"base_weights":[-1.3540688E-1,-3.3094066E-1,5.2292496E-2,-1.7979269E-1,-4.88853E-1,-2.150678E-1,1.7109957E-1,-2.5371911E-3,-1.0924951E-5,-3.95654E-3,-6.296697E-3,-1.1422394E-5,-3.7353106E-3,5.55644E-4,3.2144682E-3],"categories":[],"categories_nodes":[],"categories_segments":[],"categories_sizes":[],"default_left":[0,0,0,0,0,0,0,0,0,0,0,0,0,0,0],"id":16,"left_children":[1,3,5,7,9,11,13,-1,-1,-1,-1,-1,-1,-1,-1],"loss_changes":[2.4951785E2,7.938571E1,1.1023967E2,2.2495739E1,2.111441E1,3.6198177E1,4.17157E1,0E0,0E0,0E0,0E0,0E0,0E0,0E0,0E0],"parents":[2147483647,0,0,1,1,2,2,3,3,4,4,5,5,6,6],"right_children":[2,4,6,8,10,12,14,-1,-1,-1,-1,-1,-1,-1,-1],"split_conditions":[1.5E1,1.3E1,-2E0,6E0,2.3E1,-3.7E0,2.4E1,-2.5371911E-3,-1.0924951E-5,-3.95654E-3,-6.296697E-3,-1.1422394E-5,-3.7353106E-3,5.55644E-4,3.2144682E-3],"split_indices":[51,80,77,77,80,25,51,0,0,0,0,0,0,0,0],"split_type":[0,0,0,0,0,0,0,0,0,0,0,0,0,0,0],"sum_hessian":[6.797089E3,3.3286946E3,3.4683943E3,1.7018673E3,1.6268271E3,1.0668263E3,2.401568E3,1.2035509E3,4.9831647E2,9.8122015E2,6.4560706E2,4.543971E2,6.1242926E2,1.3587776E3,1.0427904E3],"tree_param":{"num_deleted":"0","num_feature":"106","num_nodes":"15","size_leaf_vector":"1"}},{"base_weights":[1.3540691E-1,3.3094072E-1,-5.2292474E-2,1.7979272E-1,4.8885307E-1,2.1506782E-1,-1.7109954E-1,2.5371914E-3,1.092502E-5,3.9565405E-3,6.2966975E-3,1.14225895E-5,3.7353109E-3,-5.5564346E-4,-3.2144685E-3],"categories":[],"categories_nodes":[],"categories_segments":[],"categories_sizes":[],"default_left":[0,0,0,0,0,0,0,0,0,0,0,0,0,0,0],"id":17,"left_children":[1,3,5,7,9,11,13,-1,-1,-1,-1,-1,-1,-1,-1],"loss_changes":[2.4951787E2,7.938568E1,1.1023966E2,2.2495735E1,2.1114471E1,3.619818E1,4.171572E1,0E0,0E0,0E0,0E0,0E0,0E0,0E0,0E0],"parents":[2147483647,0,0,1,1,2,2,3,3,4,4,5,5,6,6],"right_children":[2,4,6,8,10,12,14,-1,-1,-1,-1,-1,-1,-1,-1],"split_conditions":[1.5E1,1.3E1,-2E0,6E0,2.3E1,-3.7E0,2.4E1,2.5371914E-3,1.092502E-5,3.9565405E-3,6.2966975E-3,1.14225895E-5,3.7353109E-3,-5.5564346E-4,-3.2144685E-3],"split_indices":[51,80,77,77,80,25,51,0,0,0,0,0,0,0,0],"split_type":[0,0,0,0,0,0,0,0,0,0,0,0,0,0,0],"sum_hessian":[6.797089E3,3.3286943E3,3.4683943E3,1.7018672E3,1.6268271E3,1.0668263E3,2.4015679E3,1.2035508E3,4.983164E2,9.812201E2,6.4560706E2,4.543971E2,6.1242926E2,1.3587776E3,1.0427904E3],"tree_param":{"num_deleted":"0","num_feature":"106","num_nodes":"15","size_leaf_vector":"1"}},{"base_weights":[-1.34075E-1,-2.5846207E-1,1.5572943E-1,-1.0888426E-1,-4.301659E-1,-6.2009874E-3,3.275324E-1,-2.5029301E-3,2.1011502E-4,-3.3679693E-3,-5.5655264E-3,1.4233303E-3,-1.7281094E-3,4.6662292E-3,2.4099355E-3],"categories":[],"categories_nodes":[],"categories_segments":[],"categories_sizes":[],"default_left":[0,0,0,0,0,0,0,0,0,0,0,0,0,0,0],"id":18,"left_children":[1,3,5,7,9,11,13,-1,-1,-1,-1,-1,-1,-1,-1],"loss_changes":[2.4506064E2,1.22107056E2,5.680722E1,4.672003E1,2.5938904E1,2.6061659E1,1.1812973E1,0E0,0E0,0E0,0E0,0E0,0E0,0E0,0E0],"parents":[2147483647,0,0,1,1,2,2,3,3,4,4,5,5,6,6],"right_children":[2,4,6,8,10,12,14,-1,-1,-1,-1,-1,-1,-1,-1],"split_conditions":[2E1,1.4E1,5.14E-1,1E1,2.3E1,-4.7E0,-6.2E0,-2.5029301E-3,2.1011502E-4,-3.3679693E-3,-5.5655264E-3,1.4233303E-3,-1.7281094E-3,4.6662292E-3,2.4099355E-3],"split_indices":[28,80,55,51,80,25,25,0,0,0,0,0,0,0,0],"split_type":[0,0,0,0,0,0,0,0,0,0,0,0,0,0,0],"sum_hessian":[6.7960737E3,4.7552E3,2.0408734E3,2.5422139E3,2.2129863E3,1.0511196E3,9.897537E2,1.2167228E3,1.325491E3,1.2748491E3,9.381372E2,5.5578174E2,4.953379E2,3.7792984E2,6.118239E2],"tree_param":{"num_deleted":"0","num_feature":"106","num_nodes":"15","size_leaf_vector":"1"}},{"base_weights":[1.3407497E-1,2.5846207E-1,-1.5572944E-1,1.0888425E-1,4.3016586E-1,6.200989E-3,-3.2753244E-1,2.5029304E-3,-2.1011542E-4,3.3679693E-3,5.565526E-3,-1.4233302E-3,1.7281091E-3,-4.66623E-3,-2.4099355E-3],"categories":[],"categories_nodes":[],"categories_segments":[],"categories_sizes":[],"default_left":[0,0,0,0,0,0,0,0,0,0,0,0,0,0,0],"id":19,"left_children":[1,3,5,7,9,11,13,-1,-1,-1,-1,-1,-1,-1,-1],"loss_changes":[2.4506064E2,1.22107056E2,5.680723E1,4.6720055E1,2.5938934E1,2.6061655E1,1.1812996E1,0E0,0E0,0E0,0E0,0E0,0E0,0E0,0E0],"parents":[2147483647,0,0,1,1,2,2,3,3,4,4,5,5,6,6],"right_children":[2,4,6,8,10,12,14,-1,-1,-1,-1,-1,-1,-1,-1],"split_conditions":[2E1,1.4E1,5.14E-1,1E1,2.3E1,-4.7E0,-6.2E0,2.5029304E-3,-2.1011542E-4,3.3679693E-3,5.565526E-3,-1.4233302E-3,1.7281091E-3,-4.66623E-3,-2.4099355E-3],"split_indices":[28,80,55,51,80,25,25,0,0,0,0,0,0,0,0],"split_type":[0,0,0,0,0,0,0,0,0,0,0,0,0,0,0],"sum_hessian":[6.7960737E3,4.7552E3,2.0408734E3,2.5422139E3,2.2129863E3,1.0511196E3,9.897537E2,1.2167228E3,1.325491E3,1.2748491E3,9.381372E2,5.5578174E2,4.953379E2,3.779298E2,6.118239E2],"tree_param":{"num_deleted":"0","num_feature":"106","num_nodes":"15","size_leaf_vector":"1"}},{"base_weights":[-1.3275865E-1,-3.2495803E-1,5.1697932E-2,-1.764249E-1,-4.802308E-1,-2.1108037E-1,1.6845205E-1,-2.496201E-3,4.8733837E-6,-3.8869025E-3,-6.186524E-3,-1.4170819E-5,-3.6645334E-3,5.5184274E-4,3.1588986E-3],"categories":[],"categories_nodes":[],"categories_segments":[],"categories_sizes":[],"default_left":[0,0,0,0,0,0,0,0,0,0,0,0,0,0,0],"id":20,"left_children":[1,3,5,7,9,11,13,-1,-1,-1,-1,-1,-1,-1,-1],"loss_changes":[2.4094699E2,7.667459E1,1.0645525E2,2.2047417E1,2.0370636E1,3.4774082E1,4.0098488E1,0E0,0E0,0E0,0E0,0E0,0E0,0E0,0E0],"parents":[2147483647,0,0,1,1,2,2,3,3,4,4,5,5,6,6],"right_children":[2,4,6,8,10,12,14,-1,-1,-1,-1,-1,-1,-1,-1],"split_conditions":[1.5E1,1.3E1,-2E0,6E0,2.3E1,-3.7E0,2.4E1,-2.496201E-3,4.8733837E-6,-3.8869025E-3,-6.186524E-3,-1.4170819E-5,-3.6645334E-3,5.5184274E-4,3.1588986E-3],"split_indices":[51,80,77,77,80,25,51,0,0,0,0,0,0,0,0],"split_type":[0,0,0,0,0,0,0,0,0,0,0,0,0,0,0],"sum_hessian":[6.7948706E3,3.327222E3,3.4676484E3,1.7016084E3,1.6256135E3,1.0664911E3,2.4011575E3,1.2033335E3,4.9827496E2,9.808011E2,6.448125E2,4.543677E2,6.1212335E2,1.3587128E3,1.0424446E3],"tree_param":{"num_deleted":"0","num_feature":"106","num_nodes":"15","size_leaf_vector":"1"}},{"base_weights":[1.3275866E-1,3.2495806E-1,-5.1697936E-2,1.7642494E-1,4.8023087E-1,2.1108033E-1,-1.6845204E-1,2.496201E-3,-4.873016E-6,3.886903E-3,6.1865244E-3,1.4170524E-5,3.664533E-3,-5.518426E-4,-3.1588986E-3],"categories":[],"categories_nodes":[],"categories_segments":[],"categories_sizes":[],"default_left":[0,0,0,0,0,0,0,0,0,0,0,0,0,0,0],"id":21,"left_children":[1,3,5,7,9,11,13,-1,-1,-1,-1,-1,-1,-1,-1],"loss_changes":[2.4094705E2,7.667459E1,1.0645522E2,2.2047413E1,2.0370636E1,3.4774075E1,4.0098495E1,0E0,0E0,0E0,0E0,0E0,0E0,0E0,0E0],"parents":[2147483647,0,0,1,1,2,2,3,3,4,4,5,5,6,6],"right_children":[2,4,6,8,10,12,14,-1,-1,-1,-1,-1,-1,-1,-1],"split_conditions":[1.5E1,1.3E1,-2E0,6E0,2.3E1,-3.7E0,2.4E1,2.496201E-3,-4.873016E-6,3.886903E-3,6.1865244E-3,1.4170524E-5,3.664533E-3,-5.518426E-4,-3.1588986E-3],"split_indices":[51,80,77,77,80,25,51,0,0,0,0,0,0,0,0],"split_type":[0,0,0,0,0,0,0,0,0,0,0,0,0,0,0],"sum_hessian":[6.7948706E3,3.3272222E3,3.4676484E3,1.7016085E3,1.6256135E3,1.0664911E3,2.4011575E3,1.2033336E3,4.98275E2,9.808011E2,6.448125E2,4.543677E2,6.1212335E2,1.3587128E3,1.0424446E3],"tree_param":{"num_deleted":"0","num_feature":"106","num_nodes":"15","size_leaf_vector":"1"}},{"base_weights":[-1.3145718E-1,-2.5362527E-1,1.531277E-1,-1.5487292E-1,-5.049726E-1,-6.194156E-3,3.2220066E-1,-3.2889633E-3,-5.6762266E-4,-3.8674287E-3,-5.716165E-3,1.3960858E-3,-1.6974175E-3,4.591879E-3,2.370135E-3],"categories":[],"categories_nodes":[],"categories_segments":[],"categories_sizes":[],"default_left":[0,0,0,0,0,0,0,0,0,0,0,0,0,0,0],"id":22,"left_children":[1,3,5,7,9,11,13,-1,-1,-1,-1,-1,-1,-1,-1],"loss_changes":[2.362691E2,1.1792752E2,5.4990906E1,5.8281708E1,1.0341797E1,2.510896E1,1.1448769E1,0E0,0E0,0E0,0E0,0E0,0E0,0E0,0E0],"parents":[2147483647,0,0,1,1,2,2,3,3,4,4,5,5,6,6],"right_children":[2,4,6,8,10,12,14,-1,-1,-1,-1,-1,-1,-1,-1],"split_conditions":[2E1,2E1,5.14E-1,7E0,5.36E-1,-4.7E0,-6.2E0,-3.2889633E-3,-5.6762266E-4,-3.8674287E-3,-5.716165E-3,1.3960858E-3,-1.6974175E-3,4.591879E-3,2.370135E-3],"split_indices":[28,80,55,27,3,25,25,0,0,0,0,0,0,0,0],"split_type":[0,0,0,0,0,0,0,0,0,0,0,0,0,0,0],"sum_hessian":[6.793632E3,4.7532437E3,2.0403885E3,3.41366E3,1.3395836E3,1.0509832E3,9.8940546E2,1.2298556E3,2.1838042E3,4.8535083E2,8.5423285E2,5.55712E2,4.952711E2,3.7767914E2,6.117263E2],"tree_param":{"num_deleted":"0","num_feature":"106","num_nodes":"15","size_leaf_vector":"1"}},{"base_weights":[1.3145718E-1,2.5362527E-1,-1.531277E-1,1.5487294E-1,5.049725E-1,6.1941845E-3,-3.222007E-1,3.2889636E-3,5.676227E-4,3.8674285E-3,5.716165E-3,-1.3960857E-3,1.6974179E-3,-4.591879E-3,-2.3701354E-3],"categories":[],"categories_nodes":[],"categories_segments":[],"categories_sizes":[],"default_left":[0,0,0,0,0,0,0,0,0,0,0,0,0,0,0],"id":23,"left_children":[1,3,5,7,9,11,13,-1,-1,-1,-1,-1,-1,-1,-1],"loss_changes":[2.3626913E2,1.1792749E2,5.499093E1,5.82817E1,1.0341797E1,2.5108963E1,1.1448753E1,0E0,0E0,0E0,0E0,0E0,0E0,0E0,0E0],"parents":[2147483647,0,0,1,1,2,2,3,3,4,4,5,5,6,6],"right_children":[2,4,6,8,10,12,14,-1,-1,-1,-1,-1,-1,-1,-1],"split_conditions":[2E1,2E1,5.14E-1,7E0,5.36E-1,-4.7E0,-6.2E0,3.2889636E-3,5.676227E-4,3.8674285E-3,5.716165E-3,-1.3960857E-3,1.6974179E-3,-4.591879E-3,-2.3701354E-3],"split_indices":[28,80,55,27,3,25,25,0,0,0,0,0,0,0,0],"split_type":[0,0,0,0,0,0,0,0,0,0,0,0,0,0,0],"sum_hessian":[6.793632E3,4.753243E3,2.0403885E3,3.4136597E3,1.3395836E3,1.0509832E3,9.894054E2,1.2298556E3,2.1838042E3,4.8535083E2,8.542328E2,5.5571204E2,4.952711E2,3.776791E2,6.117263E2],"tree_param":{"num_deleted":"0","num_feature":"106","num_nodes":"15","size_leaf_vector":"1"}},{"base_weights":[-1.3017039E-1,-3.1902006E-1,5.101758E-2,-1.7278145E-1,-4.7200558E-1,-2.0757562E-1,1.6589586E-1,-2.452725E-3,2.4029996E-5,-3.821433E-3,-6.080168E-3,4.02579E-4,-3.3428352E-3,5.486742E-4,3.1046863E-3],"categories":[],"categories_nodes":[],"categories_segments":[],"categories_sizes":[],"default_left":[0,0,0,0,0,0,0,0,0,0,0,0,0,0,0],"id":24,"left_children":[1,3,5,7,9,11,13,-1,-1,-1,-1,-1,-1,-1,-1],"loss_changes":[2.3246286E2,7.4338776E1,1.0305191E2,2.1618584E1,1.9630524E1,3.3523964E1,3.8534073E1,0E0,0E0,0E0,0E0,0E0,0E0,0E0,0E0],"parents":[2147483647,0,0,1,1,2,2,3,3,4,4,5,5,6,6],"right_children":[2,4,6,8,10,12,14,-1,-1,-1,-1,-1,-1,-1,-1],"split_conditions":[1.5E1,1.3E1,-2E0,6E0,2.3E1,-4.9E0,2.4E1,-2.452725E-3,2.4029996E-5,-3.821433E-3,-6.080168E-3,4.02579E-4,-3.3428352E-3,5.486742E-4,3.1046863E-3],"split_indices":[51,80,77,77,80,25,51,0,0,0,0,0,0,0,0],"split_type":[0,0,0,0,0,0,0,0,0,0,0,0,0,0,0],"sum_hessian":[6.79225E3,3.325435E3,3.4668147E3,1.7012972E3,1.6241378E3,1.0661296E3,2.400685E3,1.203069E3,4.9822824E2,9.802795E2,6.4385834E2,3.6090402E2,7.0522565E2,1.3586522E3,1.0420328E3],"tree_param":{"num_deleted":"0","num_feature":"106","num_nodes":"15","size_leaf_vector":"1"}},{"base_weights":[1.3017039E-1,3.1902006E-1,-5.1017575E-2,1.7278142E-1,4.720056E-1,2.075756E-1,-1.6589585E-1,2.4527246E-3,-2.4029987E-5,3.821433E-3,6.0801688E-3,-4.0257926E-4,3.3428352E-3,-5.48674E-4,-3.1046863E-3],"categories":[],"categories_nodes":[],"categories_segments":[],"categories_sizes":[],"default_left":[0,0,0,0,0,0,0,0,0,0,0,0,0,0,0],"id":25,"left_children":[1,3,5,7,9,11,13,-1,-1,-1,-1,-1,-1,-1,-1],"loss_changes":[2.3246283E2,7.4338806E1,1.03051895E2,2.1618572E1,1.9630524E1,3.3523964E1,3.853408E1,0E0,0E0,0E0,0E0,0E0,0E0,0E0,0E0],"parents":[2147483647,0,0,1,1,2,2,3,3,4,4,5,5,6,6],"right_children":[2,4,6,8,10,12,14,-1,-1,-1,-1,-1,-1,-1,-1],"split_conditions":[1.5E1,1.3E1,-2E0,6E0,2.3E1,-4.9E0,2.4E1,2.4527246E-3,-2.4029987E-5,3.821433E-3,6.0801688E-3,-4.0257926E-4,3.3428352E-3,-5.48674E-4,-3.1046863E-3],"split_indices":[51,80,77,77,80,25,51,0,0,0,0,0,0,0,0],"split_type":[0,0,0,0,0,0,0,0,0,0,0,0,0,0,0],"sum_hessian":[6.7922495E3,3.325435E3,3.4668147E3,1.7012972E3,1.6241378E3,1.0661296E3,2.400685E3,1.203069E3,4.982282E2,9.802795E2,6.4385834E2,3.6090402E2,7.0522565E2,1.3586522E3,1.0420328E3],"tree_param":{"num_deleted":"0","num_feature":"106","num_nodes":"15","size_leaf_vector":"1"}},{"base_weights":[-1.2889826E-1,-3.159322E-1,5.051372E-2,-1.6051771E-1,-4.5725024E-1,-2.0554005E-1,1.6425401E-1,-2.3436993E-3,1.3183034E-5,-3.7160479E-3,-6.024784E-3,-1.50071755E-5,-3.568562E-3,5.4319215E-4,3.0743352E-3],"categories":[],"categories_nodes":[],"categories_segments":[],"categories_sizes":[],"default_left":[0,0,0,0,0,0,0,0,0,0,0,0,0,0,0],"id":26,"left_children":[1,3,5,7,9,11,13,-1,-1,-1,-1,-1,-1,-1,-1],"loss_changes":[2.2792252E2,7.2962006E1,1.0101694E2,1.8947197E1,2.143274E1,3.2940548E1,3.778325E1,0E0,0E0,0E0,0E0,0E0,0E0,0E0,0E0],"parents":[2147483647,0,0,1,1,2,2,3,3,4,4,5,5,6,6],"right_children":[2,4,6,8,10,12,14,-1,-1,-1,-1,-1,-1,-1,-1],"split_conditions":[1.5E1,1.2E1,-2E0,6E0,2.3E1,-3.7E0,2.4E1,-2.3436993E-3,1.3183034E-5,-3.7160479E-3,-6.024784E-3,-1.50071755E-5,-3.568562E-3,5.4319215E-4,3.0743352E-3],"split_indices":[51,80,77,77,80,25,51,0,0,0,0,0,0,0,0],"split_type":[0,0,0,0,0,0,0,0,0,0,0,0,0,0,0],"sum_hessian":[6.7908003E3,3.324404E3,3.4663962E3,1.5842551E3,1.7401489E3,1.0659369E3,2.4004592E3,1.0875256E3,4.9672955E2,1.0968575E3,6.4329144E2,4.5432333E2,6.116136E2,1.3586514E3,1.041808E3],"tree_param":{"num_deleted":"0","num_feature":"106","num_nodes":"15","size_leaf_vector":"1"}},{"base_weights":[1.2889826E-1,3.159322E-1,-5.051372E-2,1.6051772E-1,4.5725024E-1,2.0554002E-1,-1.6425401E-1,2.3436998E-3,-1.3183205E-5,3.7160479E-3,6.024783E-3,1.5006895E-5,3.5685615E-3,-5.4319197E-4,-3.0743352E-3],"categories":[],"categories_nodes":[],"categories_segments":[],"categories_sizes":[],"default_left":[0,0,0,0,0,0,0,0,0,0,0,0,0,0,0],"id":27,"left_children":[1,3,5,7,9,11,13,-1,-1,-1,-1,-1,-1,-1,-1],"loss_changes":[2.2792252E2,7.2962006E1,1.01016914E2,1.8947212E1,2.143274E1,3.2940544E1,3.7783264E1,0E0,0E0,0E0,0E0,0E0,0E0,0E0,0E0],"parents":[2147483647,0,0,1,1,2,2,3,3,4,4,5,5,6,6],"right_children":[2,4,6,8,10,12,14,-1,-1,-1,-1,-1,-1,-1,-1],"split_conditions":[1.5E1,1.2E1,-2E0,6E0,2.3E1,-3.7E0,2.4E1,2.3436998E-3,-1.3183205E-5,3.7160479E-3,6.024783E-3,1.5006895E-5,3.5685615E-3,-5.4319197E-4,-3.0743352E-3],"split_indices":[51,80,77,77,80,25,51,0,0,0,0,0,0,0,0],"split_type":[0,0,0,0,0,0,0,0,0,0,0,0,0,0,0],"sum_hessian":[6.7908003E3,3.324404E3,3.4663962E3,1.5842552E3,1.7401489E3,1.0659369E3,2.4004592E3,1.0875256E3,4.9672955E2,1.0968575E3,6.4329144E2,4.543233E2,6.116136E2,1.3586514E3,1.041808E3],"tree_param":{"num_deleted":"0","num_feature":"106","num_nodes":"15","size_leaf_vector":"1"}},{"base_weights":[-1.2764063E-1,-2.4667737E-1,1.4956565E-1,-1.0304758E-1,-4.1183814E-1,-6.197857E-3,3.1491655E-1,-2.3990327E-3,2.2586921E-4,-3.2282185E-3,-5.325916E-3,1.3547362E-3,-1.6512154E-3,4.490647E-3,2.315633E-3],"categories":[],"categories_nodes":[],"categories_segments":[],"categories_sizes":[],"default_left":[0,0,0,0,0,0,0,0,0,0,0,0,0,0,0],"id":28,"left_children":[1,3,5,7,9,11,13,-1,-1,-1,-1,-1,-1,-1,-1],"loss_changes":[2.2409961E2,1.1265469E2,5.2556427E1,4.371776E1,2.3577118E1,2.3701206E1,1.0963745E1,0E0,0E0,0E0,0E0,0E0,0E0,0E0,0E0],"parents":[2147483647,0,0,1,1,2,2,3,3,4,4,5,5,6,6],"right_children":[2,4,6,8,10,12,14,-1,-1,-1,-1,-1,-1,-1,-1],"split_conditions":[2E1,1.4E1,5.14E-1,1E1,2.3E1,-4.7E0,-6.2E0,-2.3990327E-3,2.2586921E-4,-3.2282185E-3,-5.325916E-3,1.3547362E-3,-1.6512154E-3,4.490647E-3,2.315633E-3],"split_indices":[28,80,55,51,80,25,25,0,0,0,0,0,0,0,0],"split_type":[0,0,0,0,0,0,0,0,0,0,0,0,0,0,0],"sum_hessian":[6.789246E3,4.7497427E3,2.0395038E3,2.541332E3,2.2084104E3,1.0506938E3,9.8880994E2,1.2159109E3,1.3254211E3,1.273381E3,9.350295E2,5.555764E2,4.9511743E2,3.7726093E2,6.11549E2],"tree_param":{"num_deleted":"0","num_feature":"106","num_nodes":"15","size_leaf_vector":"1"}},{"base_weights":[1.2764063E-1,2.4667735E-1,-1.4956565E-1,1.0304759E-1,4.118381E-1,6.197846E-3,-3.1491652E-1,2.399033E-3,-2.2586921E-4,3.2282178E-3,5.325916E-3,-1.3547364E-3,1.6512153E-3,-4.490646E-3,-2.3156337E-3],"categories":[],"categories_nodes":[],"categories_segments":[],"categories_sizes":[],"default_left":[0,0,0,0,0,0,0,0,0,0,0,0,0,0,0],"id":29,"left_children":[1,3,5,7,9,11,13,-1,-1,-1,-1,-1,-1,-1,-1],"loss_changes":[2.240996E2,1.1265469E2,5.255641E1,4.3717766E1,2.3577087E1,2.3701204E1,1.09637375E1,0E0,0E0,0E0,0E0,0E0,0E0,0E0,0E0],"parents":[2147483647,0,0,1,1,2,2,3,3,4,4,5,5,6,6],"right_children":[2,4,6,8,10,12,14,-1,-1,-1,-1,-1,-1,-1,-1],"split_conditions":[2E1,1.4E1,5.14E-1,1E1,2.3E1,-4.7E0,-6.2E0,2.399033E-3,-2.2586921E-4,3.2282178E-3,5.325916E-3,-1.3547364E-3,1.6512153E-3,-4.490646E-3,-2.3156337E-3],"split_indices":[28,80,55,51,80,25,25,0,0,0,0,0,0,0,0],"split_type":[0,0,0,0,0,0,0,0,0,0,0,0,0,0,0],"sum_hessian":[6.789246E3,4.7497427E3,2.0395038E3,2.541332E3,2.2084104E3,1.0506938E3,9.8880994E2,1.2159109E3,1.3254211E3,1.273381E3,9.350295E2,5.5557635E2,4.9511743E2,3.7726093E2,6.11549E2],"tree_param":{"num_deleted":"0","num_feature":"106","num_nodes":"15","size_leaf_vector":"1"}},{"base_weights":[-1.2639672E-1,-3.1028482E-1,4.993625E-2,-1.5742984E-1,-4.4939488E-1,-2.0175514E-1,1.6171576E-1,-2.305629E-3,2.801035E-5,-3.6522374E-3,-5.922969E-3,-1.7558406E-5,-3.5017005E-3,5.393108E-4,3.021543E-3],"categories":[],"categories_nodes":[],"categories_segments":[],"categories_sizes":[],"default_left":[0,0,0,0,0,0,0,0,0,0,0,0,0,0,0],"id":30,"left_children":[1,3,5,7,9,11,13,-1,-1,-1,-1,-1,-1,-1,-1],"loss_changes":[2.2013794E2,7.05932E1,9.755409E1,1.8573105E1,2.0704346E1,3.16549E1,3.6325966E1,0E0,0E0,0E0,0E0,0E0,0E0,0E0,0E0],"parents":[2147483647,0,0,1,1,2,2,3,3,4,4,5,5,6,6],"right_children":[2,4,6,8,10,12,14,-1,-1,-1,-1,-1,-1,-1,-1],"split_conditions":[1.5E1,1.2E1,-2E0,6E0,2.3E1,-3.7E0,2.4E1,-2.305629E-3,2.801035E-5,-3.6522374E-3,-5.922969E-3,-1.7558406E-5,-3.5017005E-3,5.393108E-4,3.021543E-3],"split_indices":[51,80,77,77,80,25,51,0,0,0,0,0,0,0,0],"split_type":[0,0,0,0,0,0,0,0,0,0,0,0,0,0,0],"sum_hessian":[6.7875527E3,3.3222246E3,3.465328E3,1.5839274E3,1.7382972E3,1.0654572E3,2.3998706E3,1.0872448E3,4.9668256E2,1.0961855E3,6.4211176E2,4.5428662E2,6.111706E2,1.3585703E3,1.0413004E3],"tree_param":{"num_deleted":"0","num_feature":"106","num_nodes":"15","size_leaf_vector":"1"}},{"base_weights":[1.2639673E-1,3.1028482E-1,-4.993624E-2,1.5742986E-1,4.493949E-1,2.0175514E-1,-1.6171575E-1,2.3056294E-3,-2.801025E-5,3.6522376E-3,5.922969E-3,1.7558223E-5,3.5017005E-3,-5.393105E-4,-3.021543E-3],"categories":[],"categories_nodes":[],"categories_segments":[],"categories_sizes":[],"default_left":[0,0,0,0,0,0,0,0,0,0,0,0,0,0,0],"id":31,"left_children":[1,3,5,7,9,11,13,-1,-1,-1,-1,-1,-1,-1,-1],"loss_changes":[2.2013799E2,7.059317E1,9.7554085E1,1.8573105E1,2.0704315E1,3.1654911E1,3.632598E1,0E0,0E0,0E0,0E0,0E0,0E0,0E0,0E0],"parents":[2147483647,0,0,1,1,2,2,3,3,4,4,5,5,6,6],"right_children":[2,4,6,8,10,12,14,-1,-1,-1,-1,-1,-1,-1,-1],"split_conditions":[1.5E1,1.2E1,-2E0,6E0,2.3E1,-3.7E0,2.4E1,2.3056294E-3,-2.801025E-5,3.6522376E-3,5.922969E-3,1.7558223E-5,3.5017005E-3,-5.393105E-4,-3.021543E-3],"split_indices":[51,80,77,77,80,25,51,0,0,0,0,0,0,0,0],"split_type":[0,0,0,0,0,0,0,0,0,0,0,0,0,0,0],"sum_hessian":[6.7875527E3,3.3222246E3,3.465328E3,1.5839274E3,1.7382974E3,1.0654572E3,2.3998706E3,1.0872449E3,4.9668256E2,1.0961855E3,6.4211176E2,4.5428662E2,6.111706E2,1.3585703E3,1.0413004E3],"tree_param":{"num_deleted":"0","num_feature":"106","num_nodes":"15","size_leaf_vector":"1"}},{"base_weights":[-1.2516713E-1,-2.4210449E-1,1.4708425E-1,-1.0098233E-1,-4.0452373E-1,-1.5972431E-1,2.2868523E-1,-2.357504E-3,2.2697293E-4,-3.1710416E-3,-5.232424E-3,2.800002E-4,-2.7195592E-3,3.6562097E-3,1.3870113E-3],"categories":[],"categories_nodes":[],"categories_segments":[],"categories_sizes":[],"default_left":[0,0,0,0,0,0,0,0,0,0,0,0,0,0,0],"id":32,"left_children":[1,3,5,7,9,11,13,-1,-1,-1,-1,-1,-1,-1,-1],"loss_changes":[2.1610281E2,1.087876E2,5.1105103E1,4.2373783E1,2.2740112E1,9.048865E0,1.9808502E1,0E0,0E0,0E0,0E0,0E0,0E0,0E0,0E0],"parents":[2147483647,0,0,1,1,2,2,3,3,4,4,5,5,6,6],"right_children":[2,4,6,8,10,12,14,-1,-1,-1,-1,-1,-1,-1,-1],"split_conditions":[2E1,1.4E1,3.6E-1,1E1,2.3E1,-6.2E0,-6.2E0,-2.357504E-3,2.2697293E-4,-3.1710416E-3,-5.232424E-3,2.800002E-4,-2.7195592E-3,3.6562097E-3,1.3870113E-3],"split_indices":[28,80,55,51,80,25,25,0,0,0,0,0,0,0,0],"split_type":[0,0,0,0,0,0,0,0,0,0,0,0,0,0,0],"sum_hessian":[6.7858066E3,4.7469907E3,2.0388158E3,2.5408923E3,2.2060984E3,4.2813373E2,1.6106821E3,1.2155052E3,1.3253872E3,1.2726453E3,9.3345306E2,1.6047148E2,2.6766223E2,6.3749445E2,9.731877E2],"tree_param":{"num_deleted":"0","num_feature":"106","num_nodes":"15","size_leaf_vector":"1"}},{"base_weights":[1.251671E-1,2.4210447E-1,-1.470843E-1,1.0098229E-1,4.0452373E-1,1.5972422E-1,-2.2868524E-1,2.357504E-3,-2.2697353E-4,3.171041E-3,5.232424E-3,-2.8000106E-4,2.7195583E-3,-3.6562101E-3,-1.3870113E-3],"categories":[],"categories_nodes":[],"categories_segments":[],"categories_sizes":[],"default_left":[0,0,0,0,0,0,0,0,0,0,0,0,0,0,0],"id":33,"left_children":[1,3,5,7,9,11,13,-1,-1,-1,-1,-1,-1,-1,-1],"loss_changes":[2.1610281E2,1.0878763E2,5.1105076E1,4.23738E1,2.2740112E1,9.048865E0,1.9808517E1,0E0,0E0,0E0,0E0,0E0,0E0,0E0,0E0],"parents":[2147483647,0,0,1,1,2,2,3,3,4,4,5,5,6,6],"right_children":[2,4,6,8,10,12,14,-1,-1,-1,-1,-1,-1,-1,-1],"split_conditions":[2E1,1.4E1,3.6E-1,1E1,2.3E1,-6.2E0,-6.2E0,2.357504E-3,-2.2697353E-4,3.171041E-3,5.232424E-3,-2.8000106E-4,2.7195583E-3,-3.6562101E-3,-1.3870113E-3],"split_indices":[28,80,55,51,80,25,25,0,0,0,0,0,0,0,0],"split_type":[0,0,0,0,0,0,0,0,0,0,0,0,0,0,0],"sum_hessian":[6.7858066E3,4.7469907E3,2.0388158E3,2.5408923E3,2.2060984E3,4.281337E2,1.6106821E3,1.2155052E3,1.3253872E3,1.2726453E3,9.3345306E2,1.6047147E2,2.6766223E2,6.374944E2,9.731877E2],"tree_param":{"num_deleted":"0","num_feature":"106","num_nodes":"15","size_leaf_vector":"1"}},{"base_weights":[-1.2395082E-1,-3.047693E-1,4.9370237E-2,-1.543972E-1,-4.4175187E-1,-1.9794789E-1,1.5918097E-1,-2.2682287E-3,4.2513235E-5,-3.5901638E-3,-5.8240746E-3,3.8597945E-4,-3.1906664E-3,5.351978E-4,2.9691735E-3],"categories":[],"categories_nodes":[],"categories_segments":[],"categories_sizes":[],"default_left":[0,0,0,0,0,0,0,0,0,0,0,0,0,0,0],"id":34,"left_children":[1,3,5,7,9,11,13,-1,-1,-1,-1,-1,-1,-1,-1],"loss_changes":[2.1265314E2,6.833475E1,9.4138954E1,1.8208008E1,2.0007385E1,3.0551064E1,3.491574E1,0E0,0E0,0E0,0E0,0E0,0E0,0E0,0E0],"parents":[2147483647,0,0,1,1,2,2,3,3,4,4,5,5,6,6],"right_children":[2,4,6,8,10,12,14,-1,-1,-1,-1,-1,-1,-1,-1],"split_conditions":[1.5E1,1.2E1,-2E0,6E0,2.3E1,-4.9E0,2.4E1,-2.2682287E-3,4.2513235E-5,-3.5901638E-3,-5.8240746E-3,3.8597945E-4,-3.1906664E-3,5.351978E-4,2.9691735E-3],"split_indices":[51,80,77,77,80,25,51,0,0,0,0,0,0,0,0],"split_type":[0,0,0,0,0,0,0,0,0,0,0,0,0,0,0],"sum_hessian":[6.783955E3,3.3197954E3,3.4641597E3,1.5835674E3,1.736228E3,1.0649203E3,2.3992395E3,1.0869342E3,4.9663324E2,1.0954327E3,6.4079535E2,3.6085297E2,7.040673E2,1.3584928E3,1.0407467E3],"tree_param":{"num_deleted":"0","num_feature":"106","num_nodes":"15","size_leaf_vector":"1"}},{"base_weights":[1.23950824E-1,3.047693E-1,-4.937022E-2,1.543972E-1,4.4175187E-1,1.9794792E-1,-1.5918095E-1,2.2682287E-3,-4.2512987E-5,3.5901635E-3,5.824075E-3,-3.8597913E-4,3.1906664E-3,-5.351974E-4,-2.9691737E-3],"categories":[],"categories_nodes":[],"categories_segments":[],"categories_sizes":[],"default_left":[0,0,0,0,0,0,0,0,0,0,0,0,0,0,0],"id":35,"left_children":[1,3,5,7,9,11,13,-1,-1,-1,-1,-1,-1,-1,-1],"loss_changes":[2.1265315E2,6.833469E1,9.413896E1,1.8208E1,2.0007416E1,3.0551075E1,3.4915756E1,0E0,0E0,0E0,0E0,0E0,0E0,0E0,0E0],"parents":[2147483647,0,0,1,1,2,2,3,3,4,4,5,5,6,6],"right_children":[2,4,6,8,10,12,14,-1,-1,-1,-1,-1,-1,-1,-1],"split_conditions":[1.5E1,1.2E1,-2E0,6E0,2.3E1,-4.9E0,2.4E1,2.2682287E-3,-4.2512987E-5,3.5901635E-3,5.824075E-3,-3.8597913E-4,3.1906664E-3,-5.351974E-4,-2.9691737E-3],"split_indices":[51,80,77,77,80,25,51,0,0,0,0,0,0,0,0],"split_type":[0,0,0,0,0,0,0,0,0,0,0,0,0,0,0],"sum_hessian":[6.783955E3,3.3197954E3,3.46416E3,1.5835674E3,1.7362281E3,1.0649203E3,2.3992395E3,1.0869342E3,4.966332E2,1.0954327E3,6.407954E2,3.6085297E2,7.040673E2,1.3584928E3,1.0407467E3],"tree_param":{"num_deleted":"0","num_feature":"106","num_nodes":"15","size_leaf_vector":"1"}},{"base_weights":[-1.2274827E-1,-3.0185074E-1,4.8884623E-2,-1.528717E-1,-4.3764275E-1,-1.9601819E-1,1.5761071E-1,-2.2459335E-3,4.2088726E-5,-3.5557477E-3,-5.7727066E-3,-1.3186652E-5,-3.4065305E-3,5.2985066E-4,2.9403623E-3],"categories":[],"categories_nodes":[],"categories_segments":[],"categories_sizes":[],"default_left":[0,0,0,0,0,0,0,0,0,0,0,0,0,0,0],"id":36,"left_children":[1,3,5,7,9,11,13,-1,-1,-1,-1,-1,-1,-1,-1],"loss_changes":[2.0852417E2,6.708557E1,9.228398E1,1.785083E1,1.9687927E1,3.0009071E1,3.424018E1,0E0,0E0,0E0,0E0,0E0,0E0,0E0,0E0],"parents":[2147483647,0,0,1,1,2,2,3,3,4,4,5,5,6,6],"right_children":[2,4,6,8,10,12,14,-1,-1,-1,-1,-1,-1,-1,-1],"split_conditions":[1.5E1,1.2E1,-2E0,6E0,2.3E1,-3.7E0,2.4E1,-2.2459335E-3,4.2088726E-5,-3.5557477E-3,-5.7727066E-3,-1.3186652E-5,-3.4065305E-3,5.2985066E-4,2.9403623E-3],"split_indices":[51,80,77,77,80,25,51,0,0,0,0,0,0,0,0],"split_type":[0,0,0,0,0,0,0,0,0,0,0,0,0,0,0],"sum_hessian":[6.7820264E3,3.3184238E3,3.4636023E3,1.5833918E3,1.735032E3,1.0646659E3,2.3989365E3,1.0867577E3,4.9663416E2,1.0949869E3,6.400451E2,4.5422388E2,6.104421E2,1.35849E3,1.0404465E3],"tree_param":{"num_deleted":"0","num_feature":"106","num_nodes":"15","size_leaf_vector":"1"}},{"base_weights":[1.2274825E-1,3.0185068E-1,-4.8884623E-2,1.5287167E-1,4.3764272E-1,1.960182E-1,-1.5761071E-1,2.2459333E-3,-4.2089003E-5,3.5557474E-3,5.772706E-3,1.3187021E-5,3.4065305E-3,-5.29851E-4,-2.940362E-3],"categories":[],"categories_nodes":[],"categories_segments":[],"categories_sizes":[],"default_left":[0,0,0,0,0,0,0,0,0,0,0,0,0,0,0],"id":37,"left_children":[1,3,5,7,9,11,13,-1,-1,-1,-1,-1,-1,-1,-1],"loss_changes":[2.0852406E2,6.708563E1,9.2284E1,1.785083E1,1.9687836E1,3.0009064E1,3.4240158E1,0E0,0E0,0E0,0E0,0E0,0E0,0E0,0E0],"parents":[2147483647,0,0,1,1,2,2,3,3,4,4,5,5,6,6],"right_children":[2,4,6,8,10,12,14,-1,-1,-1,-1,-1,-1,-1,-1],"split_conditions":[1.5E1,1.2E1,-2E0,6E0,2.3E1,-3.7E0,2.4E1,2.2459333E-3,-4.2089003E-5,3.5557474E-3,5.772706E-3,1.3187021E-5,3.4065305E-3,-5.29851E-4,-2.940362E-3],"split_indices":[51,80,77,77,80,25,51,0,0,0,0,0,0,0,0],"split_type":[0,0,0,0,0,0,0,0,0,0,0,0,0,0,0],"sum_hessian":[6.7820264E3,3.3184238E3,3.4636023E3,1.5833918E3,1.735032E3,1.0646659E3,2.3989365E3,1.0867577E3,4.9663416E2,1.0949869E3,6.400451E2,4.5422388E2,6.104421E2,1.35849E3,1.0404465E3],"tree_param":{"num_deleted":"0","num_feature":"106","num_nodes":"15","size_leaf_vector":"1"}},{"base_weights":[-1.2155916E-1,-2.3553377E-1,1.4368296E-1,-9.7951785E-2,-3.9411265E-1,-6.9955154E-3,3.0373192E-1,-2.6527937E-3,-1.271154E-5,-5.4779113E-3,-3.288589E-3,1.3196804E-3,-1.5536749E-3,4.3318276E-3,2.2342843E-3],"categories":[],"categories_nodes":[],"categories_segments":[],"categories_sizes":[],"default_left":[0,0,0,0,0,0,0,0,0,0,0,0,0,0,0],"id":38,"left_children":[1,3,5,7,9,11,13,-1,-1,-1,-1,-1,-1,-1,-1],"loss_changes":[2.0502957E2,1.03449554E2,4.916657E1,4.1108574E1,2.1913696E1,2.1691416E1,1.018026E1,0E0,0E0,0E0,0E0,0E0,0E0,0E0,0E0],"parents":[2147483647,0,0,1,1,2,2,3,3,4,4,5,5,6,6],"right_children":[2,4,6,8,10,12,14,-1,-1,-1,-1,-1,-1,-1,-1],"split_conditions":[2E1,1.4E1,5.14E-1,7E0,7E0,-4.9E0,-6.2E0,-2.6527937E-3,-1.271154E-5,-5.4779113E-3,-3.288589E-3,1.3196804E-3,-1.5536749E-3,4.3318276E-3,2.2342843E-3],"split_indices":[28,80,55,27,51,25,25,0,0,0,0,0,0,0,0],"split_type":[0,0,0,0,0,0,0,0,0,0,0,0,0,0,0],"sum_hessian":[6.780006E3,4.742335E3,2.0376709E3,2.5401418E3,2.202193E3,1.0500526E3,9.8761835E2,9.295693E2,1.6105726E3,6.541696E2,1.5480234E3,5.422747E2,5.0777792E2,3.764227E2,6.111956E2],"tree_param":{"num_deleted":"0","num_feature":"106","num_nodes":"15","size_leaf_vector":"1"}},{"base_weights":[1.2155915E-1,2.3553376E-1,-1.4368294E-1,9.795179E-2,3.941126E-1,6.9955033E-3,-3.0373186E-1,2.6527932E-3,1.2711889E-5,5.4779104E-3,3.2885885E-3,-1.3196806E-3,1.553675E-3,-4.3318267E-3,-2.2342843E-3],"categories":[],"categories_nodes":[],"categories_segments":[],"categories_sizes":[],"default_left":[0,0,0,0,0,0,0,0,0,0,0,0,0,0,0],"id":39,"left_children":[1,3,5,7,9,11,13,-1,-1,-1,-1,-1,-1,-1,-1],"loss_changes":[2.0502951E2,1.03449524E2,4.9166557E1,4.1108555E1,2.1913666E1,2.1691425E1,1.0180244E1,0E0,0E0,0E0,0E0,0E0,0E0,0E0,0E0],"parents":[2147483647,0,0,1,1,2,2,3,3,4,4,5,5,6,6],"right_children":[2,4,6,8,10,12,14,-1,-1,-1,-1,-1,-1,-1,-1],"split_conditions":[2E1,1.4E1,5.14E-1,7E0,7E0,-4.9E0,-6.2E0,2.6527932E-3,1.2711889E-5,5.4779104E-3,3.2885885E-3,-1.3196806E-3,1.553675E-3,-4.3318267E-3,-2.2342843E-3],"split_indices":[28,80,55,27,51,25,25,0,0,0,0,0,0,0,0],"split_type":[0,0,0,0,0,0,0,0,0,0,0,0,0,0,0],"sum_hessian":[6.780006E3,4.742335E3,2.0376709E3,2.540142E3,2.202193E3,1.0500526E3,9.8761835E2,9.295693E2,1.6105728E3,6.541696E2,1.5480234E3,5.422747E2,5.077779E2,3.764227E2,6.111956E2],"tree_param":{"num_deleted":"0","num_feature":"106","num_nodes":"15","size_leaf_vector":"1"}},{"base_weights":[-1.2038054E-1,-2.9644248E-1,4.8258957E-2,-1.5006137E-1,-4.300199E-1,-1.9283852E-1,1.5527579E-1,-2.2110518E-3,5.4985423E-5,-3.4869113E-3,-5.6856624E-3,-1.6267084E-5,-3.3498353E-3,5.27518E-4,2.8903359E-3],"categories":[],"categories_nodes":[],"categories_segments":[],"categories_sizes":[],"default_left":[0,0,0,0,0,0,0,0,0,0,0,0,0,0,0],"id":40,"left_children":[1,3,5,7,9,11,13,-1,-1,-1,-1,-1,-1,-1,-1],"loss_changes":[2.012892E2,6.478656E1,8.938926E1,1.75071E1,1.9335938E1,2.894978E1,3.2885883E1,0E0,0E0,0E0,0E0,0E0,0E0,0E0,0E0],"parents":[2147483647,0,0,1,1,2,2,3,3,4,4,5,5,6,6],"right_children":[2,4,6,8,10,12,14,-1,-1,-1,-1,-1,-1,-1,-1],"split_conditions":[1.5E1,1.2E1,-2E0,6E0,2.3E1,-3.7E0,2.4E1,-2.2110518E-3,5.4985423E-5,-3.4869113E-3,-5.6856624E-3,-1.6267084E-5,-3.3498353E-3,5.27518E-4,2.8903359E-3],"split_indices":[51,80,77,77,80,25,51,0,0,0,0,0,0,0,0],"split_type":[0,0,0,0,0,0,0,0,0,0,0,0,0,0,0],"sum_hessian":[6.7779873E3,3.315648E3,3.4623396E3,1.5830176E3,1.7326304E3,1.0641412E3,2.3981982E3,1.0864275E3,4.9659003E2,1.0939705E3,6.386599E2,4.5418637E2,6.0995483E2,1.358396E3,1.0398022E3],"tree_param":{"num_deleted":"0","num_feature":"106","num_nodes":"15","size_leaf_vector":"1"}},{"base_weights":[1.2038052E-1,2.9644245E-1,-4.8258964E-2,1.5006132E-1,4.3001986E-1,1.9283855E-1,-1.552758E-1,2.2110513E-3,-5.498582E-5,3.486911E-3,5.685662E-3,1.6267215E-5,3.3498355E-3,-5.275182E-4,-2.8903359E-3],"categories":[],"categories_nodes":[],"categories_segments":[],"categories_sizes":[],"default_left":[0,0,0,0,0,0,0,0,0,0,0,0,0,0,0],"id":41,"left_children":[1,3,5,7,9,11,13,-1,-1,-1,-1,-1,-1,-1,-1],"loss_changes":[2.0128918E2,6.478659E1,8.9389275E1,1.75071E1,1.9335938E1,2.8949783E1,3.2885876E1,0E0,0E0,0E0,0E0,0E0,0E0,0E0,0E0],"parents":[2147483647,0,0,1,1,2,2,3,3,4,4,5,5,6,6],"right_children":[2,4,6,8,10,12,14,-1,-1,-1,-1,-1,-1,-1,-1],"split_conditions":[1.5E1,1.2E1,-2E0,6E0,2.3E1,-3.7E0,2.4E1,2.2110513E-3,-5.498582E-5,3.486911E-3,5.685662E-3,1.6267215E-5,3.3498355E-3,-5.275182E-4,-2.8903359E-3],"split_indices":[51,80,77,77,80,25,51,0,0,0,0,0,0,0,0],"split_type":[0,0,0,0,0,0,0,0,0,0,0,0,0,0,0],"sum_hessian":[6.7779873E3,3.315648E3,3.4623396E3,1.5830176E3,1.7326304E3,1.0641411E3,2.3981982E3,1.0864275E3,4.9659003E2,1.0939705E3,6.3865985E2,4.5418637E2,6.099548E2,1.3583961E3,1.0398022E3],"tree_param":{"num_deleted":"0","num_feature":"106","num_nodes":"15","size_leaf_vector":"1"}},{"base_weights":[-1.19217284E-1,-2.3119934E-1,1.4131357E-1,-1.4009793E-1,-4.6446237E-1,-6.9800983E-3,2.9888788E-1,-3.051952E-3,-4.7154183E-4,-4.0513626E-3,-5.9564523E-3,1.2947578E-3,-1.5268245E-3,4.2651515E-3,2.1978002E-3],"categories":[],"categories_nodes":[],"categories_segments":[],"categories_sizes":[],"default_left":[0,0,0,0,0,0,0,0,0,0,0,0,0,0,0],"id":42,"left_children":[1,3,5,7,9,11,13,-1,-1,-1,-1,-1,-1,-1,-1],"loss_changes":[1.9774449E2,1.0066258E2,4.7620224E1,5.231343E1,1.0116089E1,2.0911705E1,9.881561E0,0E0,0E0,0E0,0E0,0E0,0E0,0E0,0E0],"parents":[2147483647,0,0,1,1,2,2,3,3,4,4,5,5,6,6],"right_children":[2,4,6,8,10,12,14,-1,-1,-1,-1,-1,-1,-1,-1],"split_conditions":[2E1,2E1,5.14E-1,7E0,3.7E1,-4.9E0,-6.2E0,-3.051952E-3,-4.7154183E-4,-4.0513626E-3,-5.9564523E-3,1.2947578E-3,-1.5268245E-3,4.2651515E-3,2.1978002E-3],"split_indices":[28,80,55,27,54,25,25,0,0,0,0,0,0,0,0],"split_type":[0,0,0,0,0,0,0,0,0,0,0,0,0,0,0],"sum_hessian":[6.7758057E3,4.738992E3,2.0368135E3,3.409144E3,1.3298483E3,1.0497996E3,9.87014E2,1.2271165E3,2.1820276E3,9.1853754E2,4.113108E2,5.421585E2,5.0764105E2,3.760035E2,6.1101044E2],"tree_param":{"num_deleted":"0","num_feature":"106","num_nodes":"15","size_leaf_vector":"1"}},{"base_weights":[1.1921728E-1,2.3119932E-1,-1.4131357E-1,1.4009792E-1,4.6446234E-1,6.9801114E-3,-2.9888788E-1,3.0519518E-3,4.715417E-4,4.0513626E-3,5.9564523E-3,-1.2947577E-3,1.5268247E-3,-4.2651515E-3,-2.1978002E-3],"categories":[],"categories_nodes":[],"categories_segments":[],"categories_sizes":[],"default_left":[0,0,0,0,0,0,0,0,0,0,0,0,0,0,0],"id":43,"left_children":[1,3,5,7,9,11,13,-1,-1,-1,-1,-1,-1,-1,-1],"loss_changes":[1.9774448E2,1.0066254E2,4.7620228E1,5.2313446E1,1.0116119E1,2.0911705E1,9.881569E0,0E0,0E0,0E0,0E0,0E0,0E0,0E0,0E0],"parents":[2147483647,0,0,1,1,2,2,3,3,4,4,5,5,6,6],"right_children":[2,4,6,8,10,12,14,-1,-1,-1,-1,-1,-1,-1,-1],"split_conditions":[2E1,2E1,5.14E-1,7E0,3.7E1,-4.9E0,-6.2E0,3.0519518E-3,4.715417E-4,4.0513626E-3,5.9564523E-3,-1.2947577E-3,1.5268247E-3,-4.2651515E-3,-2.1978002E-3],"split_indices":[28,80,55,27,54,25,25,0,0,0,0,0,0,0,0],"split_type":[0,0,0,0,0,0,0,0,0,0,0,0,0,0,0],"sum_hessian":[6.7758057E3,4.738992E3,2.0368135E3,3.409144E3,1.3298484E3,1.0497996E3,9.87014E2,1.2271165E3,2.1820276E3,9.185376E2,4.113108E2,5.421585E2,5.0764105E2,3.760035E2,6.1101044E2],"tree_param":{"num_deleted":"0","num_feature":"106","num_nodes":"15","size_leaf_vector":"1"}},{"base_weights":[-1.18064806E-1,-2.912123E-1,4.7702648E-2,-1.4686385E-1,-4.230879E-1,-1.8944299E-1,1.5293695E-1,-2.172429E-3,7.19844E-5,-3.4308385E-3,-5.5959597E-3,3.6429075E-4,-3.0530323E-3,5.2438583E-4,2.8413034E-3],"categories":[],"categories_nodes":[],"categories_segments":[],"categories_sizes":[],"default_left":[0,0,0,0,0,0,0,0,0,0,0,0,0,0,0],"id":44,"left_children":[1,3,5,7,9,11,13,-1,-1,-1,-1,-1,-1,-1,-1],"loss_changes":[1.9446037E2,6.3017365E1,8.642433E1,1.7171741E1,1.871399E1,2.7868881E1,3.160757E1,0E0,0E0,0E0,0E0,0E0,0E0,0E0,0E0],"parents":[2147483647,0,0,1,1,2,2,3,3,4,4,5,5,6,6],"right_children":[2,4,6,8,10,12,14,-1,-1,-1,-1,-1,-1,-1,-1],"split_conditions":[1.5E1,1.2E1,-2E0,6E0,2.3E1,-4.9E0,2.4E1,-2.172429E-3,7.19844E-5,-3.4308385E-3,-5.5959597E-3,3.6429075E-4,-3.0530323E-3,5.2438583E-4,2.8413034E-3],"split_indices":[51,80,77,77,80,25,51,0,0,0,0,0,0,0,0],"split_type":[0,0,0,0,0,0,0,0,0,0,0,0,0,0,0],"sum_hessian":[6.7736147E3,3.3126877E3,3.4609268E3,1.5825612E3,1.7301266E3,1.0635087E3,2.3974182E3,1.0860288E3,4.965323E2,1.0930376E3,6.3708905E2,3.6080234E2,7.027063E2,1.3583091E3,1.0391091E3],"tree_param":{"num_deleted":"0","num_feature":"106","num_nodes":"15","size_leaf_vector":"1"}},{"base_weights":[1.18064776E-1,2.9121226E-1,-4.770267E-2,1.4686383E-1,4.2308787E-1,1.8944295E-1,-1.5293698E-1,2.1724289E-3,-7.198408E-5,3.4308382E-3,5.5959597E-3,-3.6429137E-4,3.053032E-3,-5.243856E-4,-2.8413038E-3],"categories":[],"categories_nodes":[],"categories_segments":[],"categories_sizes":[],"default_left":[0,0,0,0,0,0,0,0,0,0,0,0,0,0,0],"id":45,"left_children":[1,3,5,7,9,11,13,-1,-1,-1,-1,-1,-1,-1,-1],"loss_changes":[1.9446037E2,6.3017303E1,8.642431E1,1.7171734E1,1.871399E1,2.7868889E1,3.1607597E1,0E0,0E0,0E0,0E0,0E0,0E0,0E0,0E0],"parents":[2147483647,0,0,1,1,2,2,3,3,4,4,5,5,6,6],"right_children":[2,4,6,8,10,12,14,-1,-1,-1,-1,-1,-1,-1,-1],"split_conditions":[1.5E1,1.2E1,-2E0,6E0,2.3E1,-4.9E0,2.4E1,2.1724289E-3,-7.198408E-5,3.4308382E-3,5.5959597E-3,-3.6429137E-4,3.053032E-3,-5.243856E-4,-2.8413038E-3],"split_indices":[51,80,77,77,80,25,51,0,0,0,0,0,0,0,0],"split_type":[0,0,0,0,0,0,0,0,0,0,0,0,0,0,0],"sum_hessian":[6.7736147E3,3.3126877E3,3.4609268E3,1.5825612E3,1.7301267E3,1.0635087E3,2.3974182E3,1.0860288E3,4.9653232E2,1.0930376E3,6.370891E2,3.6080234E2,7.027063E2,1.3583091E3,1.0391091E3],"tree_param":{"num_deleted":"0","num_feature":"106","num_nodes":"15","size_leaf_vector":"1"}},{"base_weights":[-1.169265E-1,-2.269665E-1,1.3900907E-1,-1.3740551E-1,-4.5664892E-1,-1.5271126E-1,2.1664794E-1,-3.0026133E-3,-4.576693E-4,-3.9786054E-3,-5.867276E-3,2.382414E-4,-2.5837487E-3,3.4683573E-3,1.3125982E-3],"categories":[],"categories_nodes":[],"categories_segments":[],"categories_sizes":[],"default_left":[0,0,0,0,0,0,0,0,0,0,0,0,0,0,0],"id":46,"left_children":[1,3,5,7,9,11,13,-1,-1,-1,-1,-1,-1,-1,-1],"loss_changes":[1.9076028E2,9.73678E1,4.6166054E1,5.086286E1,9.924377E0,8.003533E0,1.7842506E1,0E0,0E0,0E0,0E0,0E0,0E0,0E0,0E0],"parents":[2147483647,0,0,1,1,2,2,3,3,4,4,5,5,6,6],"right_children":[2,4,6,8,10,12,14,-1,-1,-1,-1,-1,-1,-1,-1],"split_conditions":[2E1,2E1,3.6E-1,7E0,3.7E1,-6.2E0,-6.2E0,-3.0026133E-3,-4.576693E-4,-3.9786054E-3,-5.867276E-3,2.382414E-4,-2.5837487E-3,3.4683573E-3,1.3125982E-3],"split_indices":[28,80,55,27,54,25,25,0,0,0,0,0,0,0,0],"split_type":[0,0,0,0,0,0,0,0,0,0,0,0,0,0,0],"sum_hessian":[6.7712803E3,4.7353994E3,2.0358809E3,3.4080737E3,1.3273256E3,4.2773645E2,1.6081444E3,1.2263624E3,2.1817112E3,9.1696625E2,4.1035938E2,1.6044711E2,2.6728934E2,6.3576196E2,9.7238245E2],"tree_param":{"num_deleted":"0","num_feature":"106","num_nodes":"15","size_leaf_vector":"1"}},{"base_weights":[1.1692652E-1,2.2696652E-1,-1.3900906E-1,1.3740553E-1,4.5664895E-1,1.5271124E-1,-2.1664791E-1,3.0026138E-3,4.5766946E-4,3.9786054E-3,5.867276E-3,-2.3824142E-4,2.5837484E-3,-3.468357E-3,-1.312598E-3],"categories":[],"categories_nodes":[],"categories_segments":[],"categories_sizes":[],"default_left":[0,0,0,0,0,0,0,0,0,0,0,0,0,0,0],"id":47,"left_children":[1,3,5,7,9,11,13,-1,-1,-1,-1,-1,-1,-1,-1],"loss_changes":[1.907603E2,9.736774E1,4.6166042E1,5.0862877E1,9.924408E0,8.003532E0,1.7842522E1,0E0,0E0,0E0,0E0,0E0,0E0,0E0,0E0],"parents":[2147483647,0,0,1,1,2,2,3,3,4,4,5,5,6,6],"right_children":[2,4,6,8,10,12,14,-1,-1,-1,-1,-1,-1,-1,-1],"split_conditions":[2E1,2E1,3.6E-1,7E0,3.7E1,-6.2E0,-6.2E0,3.0026138E-3,4.5766946E-4,3.9786054E-3,5.867276E-3,-2.3824142E-4,2.5837484E-3,-3.468357E-3,-1.312598E-3],"split_indices":[28,80,55,27,54,25,25,0,0,0,0,0,0,0,0],"split_type":[0,0,0,0,0,0,0,0,0,0,0,0,0,0,0],"sum_hessian":[6.7712803E3,4.7353994E3,2.0358809E3,3.4080737E3,1.3273256E3,4.2773642E2,1.6081444E3,1.2263624E3,2.1817112E3,9.169662E2,4.1035938E2,1.6044711E2,2.6728934E2,6.3576196E2,9.7238245E2],"tree_param":{"num_deleted":"0","num_feature":"106","num_nodes":"15","size_leaf_vector":"1"}},{"base_weights":[-1.15798816E-1,-2.860983E-1,4.7156505E-2,-1.437257E-1,-4.1633007E-1,-1.8601826E-1,1.5059687E-1,-2.1345054E-3,8.859501E-5,-3.3762315E-3,-5.5085546E-3,-1.7174123E-5,-3.2326272E-3,5.210484E-4,2.7925286E-3],"categories":[],"categories_nodes":[],"categories_segments":[],"categories_sizes":[],"default_left":[0,0,0,0,0,0,0,0,0,0,0,0,0,0,0],"id":48,"left_children":[1,3,5,7,9,11,13,-1,-1,-1,-1,-1,-1,-1,-1],"loss_changes":[1.8788837E2,6.1322174E1,8.3492775E1,1.6844173E1,1.8115051E1,2.6908154E1,3.0367054E1,0E0,0E0,0E0,0E0,0E0,0E0,0E0,0E0],"parents":[2147483647,0,0,1,1,2,2,3,3,4,4,5,5,6,6],"right_children":[2,4,6,8,10,12,14,-1,-1,-1,-1,-1,-1,-1,-1],"split_conditions":[1.5E1,1.2E1,-2E0,6E0,2.3E1,-3.7E0,2.4E1,-2.1345054E-3,8.859501E-5,-3.3762315E-3,-5.5085546E-3,-1.7174123E-5,-3.2326272E-3,5.210484E-4,2.7925286E-3],"split_indices":[51,80,77,77,80,25,51,0,0,0,0,0,0,0,0],"split_type":[0,0,0,0,0,0,0,0,0,0,0,0,0,0,0],"sum_hessian":[6.768972E3,3.3095303E3,3.459442E3,1.5820728E3,1.7274575E3,1.0628262E3,2.3966157E3,1.085601E3,4.9647177E2,1.092044E3,6.354137E2,4.540759E2,6.0875024E2,1.3582319E3,1.0383837E3],"tree_param":{"num_deleted":"0","num_feature":"106","num_nodes":"15","size_leaf_vector":"1"}},{"base_weights":[1.1579881E-1,2.8609827E-1,-4.71565E-2,1.4372566E-1,4.1633007E-1,1.8601824E-1,-1.5059687E-1,2.1345052E-3,-8.85951E-5,3.3762315E-3,5.5085546E-3,1.7173832E-5,3.2326272E-3,-5.210484E-4,-2.7925281E-3],"categories":[],"categories_nodes":[],"categories_segments":[],"categories_sizes":[],"default_left":[0,0,0,0,0,0,0,0,0,0,0,0,0,0,0],"id":49,"left_children":[1,3,5,7,9,11,13,-1,-1,-1,-1,-1,-1,-1,-1],"loss_changes":[1.8788835E2,6.1322174E1,8.349276E1,1.684417E1,1.8115051E1,2.6908157E1,3.0367054E1,0E0,0E0,0E0,0E0,0E0,0E0,0E0,0E0],"parents":[2147483647,0,0,1,1,2,2,3,3,4,4,5,5,6,6],"right_children":[2,4,6,8,10,12,14,-1,-1,-1,-1,-1,-1,-1,-1],"split_conditions":[1.5E1,1.2E1,-2E0,6E0,2.3E1,-3.7E0,2.4E1,2.1345052E-3,-8.85951E-5,3.3762315E-3,5.5085546E-3,1.7173832E-5,3.2326272E-3,-5.210484E-4,-2.7925281E-3],"split_indices":[51,80,77,77,80,25,51,0,0,0,0,0,0,0,0],"split_type":[0,0,0,0,0,0,0,0,0,0,0,0,0,0,0],"sum_hessian":[6.768972E3,3.3095305E3,3.459442E3,1.5820728E3,1.7274576E3,1.0628262E3,2.3966157E3,1.0856011E3,4.9647177E2,1.092044E3,6.354137E2,4.540759E2,6.087503E2,1.3582319E3,1.0383837E3],"tree_param":{"num_deleted":"0","num_feature":"106","num_nodes":"15","size_leaf_vector":"1"}},{"base_weights":[-1.1468487E-1,-2.8339252E-1,4.669456E-2,-1.5188953E-1,-4.219854E-1,-1.8421699E-1,1.4911686E-1,-2.1896272E-3,9.9118406E-5,-3.4068762E-3,-5.461777E-3,-1.7002652E-5,-3.2020416E-3,5.158437E-4,2.7656644E-3],"categories":[],"categories_nodes":[],"categories_segments":[],"categories_sizes":[],"default_left":[0,0,0,0,0,0,0,0,0,0,0,0,0,0,0],"id":50,"left_children":[1,3,5,7,9,11,13,-1,-1,-1,-1,-1,-1,-1,-1],"loss_changes":[1.8426483E2,6.023947E1,8.185181E1,1.8444683E1,1.6073364E1,2.6395615E1,2.9784363E1,0E0,0E0,0E0,0E0,0E0,0E0,0E0,0E0],"parents":[2147483647,0,0,1,1,2,2,3,3,4,4,5,5,6,6],"right_children":[2,4,6,8,10,12,14,-1,-1,-1,-1,-1,-1,-1,-1],"split_conditions":[1.5E1,1.3E1,-2E0,6E0,2.3E1,-3.7E0,2.4E1,-2.1896272E-3,9.9118406E-5,-3.4068762E-3,-5.461777E-3,-1.7002652E-5,-3.2020416E-3,5.158437E-4,2.7656644E-3],"split_indices":[51,80,77,77,80,25,51,0,0,0,0,0,0,0,0],"split_type":[0,0,0,0,0,0,0,0,0,0,0,0,0,0,0],"sum_hessian":[6.7664995E3,3.307769E3,3.4587305E3,1.6983737E3,1.6093955E3,1.0625065E3,2.396224E3,1.2004044E3,4.9796915E2,9.74935E2,6.3446045E2,4.540759E2,6.0843054E2,1.3582273E3,1.0379968E3],"tree_param":{"num_deleted":"0","num_feature":"106","num_nodes":"15","size_leaf_vector":"1"}},{"base_weights":[1.146849E-1,2.8339258E-1,-4.6694532E-2,1.5188958E-1,4.2198542E-1,1.8421699E-1,-1.4911681E-1,2.1896276E-3,-9.911861E-5,3.406877E-3,5.461778E-3,1.7002882E-5,3.2020416E-3,-5.1584304E-4,-2.7656644E-3],"categories":[],"categories_nodes":[],"categories_segments":[],"categories_sizes":[],"default_left":[0,0,0,0,0,0,0,0,0,0,0,0,0,0,0],"id":51,"left_children":[1,3,5,7,9,11,13,-1,-1,-1,-1,-1,-1,-1,-1],"loss_changes":[1.842648E2,6.023947E1,8.185178E1,1.8444695E1,1.6073364E1,2.6395615E1,2.9784374E1,0E0,0E0,0E0,0E0,0E0,0E0,0E0,0E0],"parents":[2147483647,0,0,1,1,2,2,3,3,4,4,5,5,6,6],"right_children":[2,4,6,8,10,12,14,-1,-1,-1,-1,-1,-1,-1,-1],"split_conditions":[1.5E1,1.3E1,-2E0,6E0,2.3E1,-3.7E0,2.4E1,2.1896276E-3,-9.911861E-5,3.406877E-3,5.461778E-3,1.7002882E-5,3.2020416E-3,-5.1584304E-4,-2.7656644E-3],"split_indices":[51,80,77,77,80,25,51,0,0,0,0,0,0,0,0],"split_type":[0,0,0,0,0,0,0,0,0,0,0,0,0,0,0],"sum_hessian":[6.7664995E3,3.307769E3,3.4587305E3,1.6983737E3,1.6093954E3,1.0625065E3,2.396224E3,1.2004044E3,4.9796915E2,9.74935E2,6.3446045E2,4.540759E2,6.084305E2,1.3582273E3,1.0379968E3],"tree_param":{"num_deleted":"0","num_feature":"106","num_nodes":"15","size_leaf_vector":"1"}},{"base_weights":[-1.13583006E-1,9.57543E-2,-2.4151535E-1,-4.5056593E-2,2.4577823E-1,-3.4023643E-1,-4.0136132E-2,1.0839131E-3,-1.7364187E-3,1.1544059E-3,3.1961182E-3,-2.7442314E-3,-4.9795764E-3,8.0453965E-4,-1.6272542E-3],"categories":[],"categories_nodes":[],"categories_segments":[],"categories_sizes":[],"default_left":[0,0,0,0,0,0,0,0,0,0,0,0,0,0,0],"id":52,"left_children":[1,3,5,7,9,11,13,-1,-1,-1,-1,-1,-1,-1,-1],"loss_changes":[1.8119534E2,5.423434E1,8.346739E1,2.616043E1,1.1923805E1,2.9111237E1,2.0450563E1,0E0,0E0,0E0,0E0,0E0,0E0,0E0,0E0],"parents":[2147483647,0,0,1,1,2,2,3,3,4,4,5,5,6,6],"right_children":[2,4,6,8,10,12,14,-1,-1,-1,-1,-1,-1,-1,-1],"split_conditions":[4.64E-1,5.14E-1,2.9E0,-4.7E0,2.2E1,2.3E1,3.2E0,1.0839131E-3,-1.7364187E-3,1.1544059E-3,3.1961182E-3,-2.7442314E-3,-4.9795764E-3,8.0453965E-4,-1.6272542E-3],"split_indices":[3,55,77,25,28,80,25,0,0,0,0,0,0,0,0],"split_type":[0,0,0,0,0,0,0,0,0,0,0,0,0,0,0],"sum_hessian":[6.7639497E3,2.5657812E3,4.1981685E3,1.3238907E3,1.2418905E3,2.8166753E3,1.3814933E3,6.036632E2,7.202276E2,4.5002673E2,7.918638E2,1.98932E3,8.273552E2,6.965986E2,6.848948E2],"tree_param":{"num_deleted":"0","num_feature":"106","num_nodes":"15","size_leaf_vector":"1"}},{"base_weights":[1.1358302E-1,-9.575429E-2,2.4151537E-1,4.505662E-2,-2.4577822E-1,3.4023643E-1,4.013614E-2,-1.083913E-3,1.7364192E-3,-1.1544058E-3,-3.1961182E-3,2.7442314E-3,4.979577E-3,-8.045395E-4,1.627254E-3],"categories":[],"categories_nodes":[],"categories_segments":[],"categories_sizes":[],"default_left":[0,0,0,0,0,0,0,0,0,0,0,0,0,0,0],"id":53,"left_children":[1,3,5,7,9,11,13,-1,-1,-1,-1,-1,-1,-1,-1],"loss_changes":[1.8119534E2,5.4234344E1,8.346738E1,2.6160437E1,1.1923813E1,2.9111267E1,2.0450562E1,0E0,0E0,0E0,0E0,0E0,0E0,0E0,0E0],"parents":[2147483647,0,0,1,1,2,2,3,3,4,4,5,5,6,6],"right_children":[2,4,6,8,10,12,14,-1,-1,-1,-1,-1,-1,-1,-1],"split_conditions":[4.64E-1,5.14E-1,2.9E0,-4.7E0,2.2E1,2.3E1,3.2E0,-1.083913E-3,1.7364192E-3,-1.1544058E-3,-3.1961182E-3,2.7442314E-3,4.979577E-3,-8.045395E-4,1.627254E-3],"split_indices":[3,55,77,25,28,80,25,0,0,0,0,0,0,0,0],"split_type":[0,0,0,0,0,0,0,0,0,0,0,0,0,0,0],"sum_hessian":[6.7639497E3,2.5657812E3,4.1981685E3,1.3238907E3,1.2418905E3,2.8166753E3,1.3814933E3,6.036632E2,7.202276E2,4.5002673E2,7.918637E2,1.98932E3,8.273553E2,6.965986E2,6.848948E2],"tree_param":{"num_deleted":"0","num_feature":"106","num_nodes":"15","size_leaf_vector":"1"}},{"base_weights":[-1.1248962E-1,-2.784297E-1,4.6147473E-2,-1.3956921E-1,-4.057238E-1,-1.8106264E-1,1.4689864E-1,-2.0767292E-3,9.382656E-5,-3.2887005E-3,-5.3747003E-3,3.4606468E-4,-2.9193482E-3,5.125537E-4,2.7196105E-3],"categories":[],"categories_nodes":[],"categories_segments":[],"categories_sizes":[],"default_left":[0,0,0,0,0,0,0,0,0,0,0,0,0,0,0],"id":54,"left_children":[1,3,5,7,9,11,13,-1,-1,-1,-1,-1,-1,-1,-1],"loss_changes":[1.7802979E2,5.8368256E1,7.918994E1,1.6053637E1,1.7278503E1,2.5423786E1,2.8649807E1,0E0,0E0,0E0,0E0,0E0,0E0,0E0,0E0],"parents":[2147483647,0,0,1,1,2,2,3,3,4,4,5,5,6,6],"right_children":[2,4,6,8,10,12,14,-1,-1,-1,-1,-1,-1,-1,-1],"split_conditions":[1.5E1,1.2E1,-2E0,6E0,2.3E1,-4.9E0,2.4E1,-2.0767292E-3,9.382656E-5,-3.2887005E-3,-5.3747003E-3,3.4606468E-4,-2.9193482E-3,5.125537E-4,2.7196105E-3],"split_indices":[51,80,77,77,80,25,51,0,0,0,0,0,0,0,0],"split_type":[0,0,0,0,0,0,0,0,0,0,0,0,0,0,0],"sum_hessian":[6.76147E3,3.3042996E3,3.4571704E3,1.5813547E3,1.722945E3,1.0618134E3,2.395357E3,1.0849156E3,4.9643903E2,1.0903746E3,6.325703E2,3.6075632E2,7.01057E2,1.358123E3,1.037234E3],"tree_param":{"num_deleted":"0","num_feature":"106","num_nodes":"15","size_leaf_vector":"1"}},{"base_weights":[1.1248961E-1,2.7842966E-1,-4.6147477E-2,1.395692E-1,4.057238E-1,1.8106261E-1,-1.4689864E-1,2.076729E-3,-9.382636E-5,3.2887005E-3,5.3747003E-3,-3.4606515E-4,2.9193482E-3,-5.125538E-4,-2.7196105E-3],"categories":[],"categories_nodes":[],"categories_segments":[],"categories_sizes":[],"default_left":[0,0,0,0,0,0,0,0,0,0,0,0,0,0,0],"id":55,"left_children":[1,3,5,7,9,11,13,-1,-1,-1,-1,-1,-1,-1,-1],"loss_changes":[1.7802975E2,5.8368286E1,7.9189926E1,1.6053629E1,1.7278534E1,2.5423786E1,2.8649792E1,0E0,0E0,0E0,0E0,0E0,0E0,0E0,0E0],"parents":[2147483647,0,0,1,1,2,2,3,3,4,4,5,5,6,6],"right_children":[2,4,6,8,10,12,14,-1,-1,-1,-1,-1,-1,-1,-1],"split_conditions":[1.5E1,1.2E1,-2E0,6E0,2.3E1,-4.9E0,2.4E1,2.076729E-3,-9.382636E-5,3.2887005E-3,5.3747003E-3,-3.4606515E-4,2.9193482E-3,-5.125538E-4,-2.7196105E-3],"split_indices":[51,80,77,77,80,25,51,0,0,0,0,0,0,0,0],"split_type":[0,0,0,0,0,0,0,0,0,0,0,0,0,0,0],"sum_hessian":[6.76147E3,3.3042996E3,3.4571704E3,1.5813547E3,1.722945E3,1.0618134E3,2.3953572E3,1.0849156E3,4.9643903E2,1.0903746E3,6.3257025E2,3.6075632E2,7.01057E2,1.358123E3,1.0372341E3],"tree_param":{"num_deleted":"0","num_feature":"106","num_nodes":"15","size_leaf_vector":"1"}},{"base_weights":[-1.1141093E-1,-2.1691282E-1,1.337522E-1,-8.842237E-2,-3.6580643E-1,-7.460691E-3,2.8397655E-1,-2.4710966E-3,3.1118867E-5,-5.143222E-3,-3.0293306E-3,1.2048332E-3,-1.4411155E-3,4.064682E-3,2.082666E-3],"categories":[],"categories_nodes":[],"categories_segments":[],"categories_sizes":[],"default_left":[0,0,0,0,0,0,0,0,0,0,0,0,0,0,0],"id":56,"left_children":[1,3,5,7,9,11,13,-1,-1,-1,-1,-1,-1,-1,-1],"loss_changes":[1.7487216E2,9.039044E1,4.3158775E1,3.6871094E1,2.0284912E1,1.8368546E1,9.057175E0,0E0,0E0,0E0,0E0,0E0,0E0,0E0,0E0],"parents":[2147483647,0,0,1,1,2,2,3,3,4,4,5,5,6,6],"right_children":[2,4,6,8,10,12,14,-1,-1,-1,-1,-1,-1,-1,-1],"split_conditions":[2E1,1.4E1,5.14E-1,7E0,7E0,-4.9E0,-6.2E0,-2.4710966E-3,3.1118867E-5,-5.143222E-3,-3.0293306E-3,1.2048332E-3,-1.4411155E-3,4.064682E-3,2.082666E-3],"split_indices":[28,80,55,27,51,25,25,0,0,0,0,0,0,0,0],"split_type":[0,0,0,0,0,0,0,0,0,0,0,0,0,0,0],"sum_hessian":[6.7587896E3,4.725405E3,2.0333846E3,2.537348E3,2.188057E3,1.0486191E3,9.8476544E2,9.2757275E2,1.6097753E3,6.486571E2,1.5393998E3,5.4162384E2,5.0699533E2,3.7449652E2,6.102689E2],"tree_param":{"num_deleted":"0","num_feature":"106","num_nodes":"15","size_leaf_vector":"1"}},{"base_weights":[1.1141094E-1,2.1691284E-1,-1.3375218E-1,8.8422395E-2,3.6580643E-1,7.4606766E-3,-2.8397653E-1,2.4710968E-3,-3.1118772E-5,5.1432215E-3,3.0293306E-3,-1.2048336E-3,1.4411157E-3,-4.0646815E-3,-2.0826655E-3],"categories":[],"categories_nodes":[],"categories_segments":[],"categories_sizes":[],"default_left":[0,0,0,0,0,0,0,0,0,0,0,0,0,0,0],"id":57,"left_children":[1,3,5,7,9,11,13,-1,-1,-1,-1,-1,-1,-1,-1],"loss_changes":[1.7487216E2,9.039041E1,4.3158756E1,3.68711E1,2.0284912E1,1.8368555E1,9.057175E0,0E0,0E0,0E0,0E0,0E0,0E0,0E0,0E0],"parents":[2147483647,0,0,1,1,2,2,3,3,4,4,5,5,6,6],"right_children":[2,4,6,8,10,12,14,-1,-1,-1,-1,-1,-1,-1,-1],"split_conditions":[2E1,1.4E1,5.14E-1,7E0,7E0,-4.9E0,-6.2E0,2.4710968E-3,-3.1118772E-5,5.1432215E-3,3.0293306E-3,-1.2048336E-3,1.4411157E-3,-4.0646815E-3,-2.0826655E-3],"split_indices":[28,80,55,27,51,25,25,0,0,0,0,0,0,0,0],"split_type":[0,0,0,0,0,0,0,0,0,0,0,0,0,0,0],"sum_hessian":[6.7587896E3,4.725405E3,2.0333846E3,2.537348E3,2.188057E3,1.0486191E3,9.8476544E2,9.2757275E2,1.6097751E3,6.486571E2,1.5393998E3,5.416238E2,5.0699536E2,3.744965E2,6.102689E2],"tree_param":{"num_deleted":"0","num_feature":"106","num_nodes":"15","size_leaf_vector":"1"}},{"base_weights":[-1.10340565E-1,-2.7350822E-1,4.5547754E-2,-1.3701068E-1,-3.988273E-1,-1.7815392E-1,1.4471939E-1,-2.0448104E-3,1.0509152E-4,-3.2258802E-3,-5.2973614E-3,-2.711171E-4,-3.3222171E-3,5.09921E-4,2.673652E-3],"categories":[],"categories_nodes":[],"categories_segments":[],"categories_sizes":[],"default_left":[0,0,0,0,0,0,0,0,0,0,0,0,0,0,0],"id":58,"left_children":[1,3,5,7,9,11,13,-1,-1,-1,-1,-1,-1,-1,-1],"loss_changes":[1.7188766E2,5.6422516E1,7.670843E1,1.574679E1,1.7003235E1,2.4707619E1,2.7522083E1,0E0,0E0,0E0,0E0,0E0,0E0,0E0,0E0],"parents":[2147483647,0,0,1,1,2,2,3,3,4,4,5,5,6,6],"right_children":[2,4,6,8,10,12,14,-1,-1,-1,-1,-1,-1,-1,-1],"split_conditions":[1.5E1,1.2E1,-2E0,6E0,2.3E1,3.95E-1,2.4E1,-2.0448104E-3,1.0509152E-4,-3.2258802E-3,-5.2973614E-3,-2.711171E-4,-3.3222171E-3,5.09921E-4,2.673652E-3],"split_indices":[51,80,77,77,80,3,51,0,0,0,0,0,0,0,0],"split_type":[0,0,0,0,0,0,0,0,0,0,0,0,0,0,0],"sum_hessian":[6.7561807E3,3.3006497E3,3.4555308E3,1.5808649E3,1.7197848E3,1.0611334E3,2.3943975E3,1.0844772E3,4.9638773E2,1.0890204E3,6.3076434E2,5.3642175E2,5.247116E2,1.3580083E3,1.036389E3],"tree_param":{"num_deleted":"0","num_feature":"106","num_nodes":"15","size_leaf_vector":"1"}},{"base_weights":[1.1034058E-1,2.7350825E-1,-4.5547742E-2,1.3701071E-1,3.988273E-1,1.7815392E-1,-1.4471936E-1,2.044811E-3,-1.0509161E-4,3.2258802E-3,5.2973614E-3,2.7111697E-4,3.3222167E-3,-5.099208E-4,-2.6736518E-3],"categories":[],"categories_nodes":[],"categories_segments":[],"categories_sizes":[],"default_left":[0,0,0,0,0,0,0,0,0,0,0,0,0,0,0],"id":59,"left_children":[1,3,5,7,9,11,13,-1,-1,-1,-1,-1,-1,-1,-1],"loss_changes":[1.7188765E2,5.642253E1,7.670842E1,1.5746801E1,1.7003235E1,2.4707615E1,2.7522083E1,0E0,0E0,0E0,0E0,0E0,0E0,0E0,0E0],"parents":[2147483647,0,0,1,1,2,2,3,3,4,4,5,5,6,6],"right_children":[2,4,6,8,10,12,14,-1,-1,-1,-1,-1,-1,-1,-1],"split_conditions":[1.5E1,1.2E1,-2E0,6E0,2.3E1,3.95E-1,2.4E1,2.044811E-3,-1.0509161E-4,3.2258802E-3,5.2973614E-3,2.7111697E-4,3.3222167E-3,-5.099208E-4,-2.6736518E-3],"split_indices":[51,80,77,77,80,3,51,0,0,0,0,0,0,0,0],"split_type":[0,0,0,0,0,0,0,0,0,0,0,0,0,0,0],"sum_hessian":[6.75618E3,3.3006497E3,3.4555308E3,1.5808649E3,1.7197848E3,1.0611333E3,2.3943975E3,1.0844772E3,4.9638773E2,1.0890204E3,6.3076434E2,5.3642175E2,5.247116E2,1.3580083E3,1.036389E3],"tree_param":{"num_deleted":"0","num_feature":"106","num_nodes":"15","size_leaf_vector":"1"}},{"base_weights":[-1.0928432E-1,9.27859E-2,-2.3289336E-1,-1.6883951E-1,1.6905856E-1,-3.2903245E-1,-3.722164E-2,-4.41564E-5,-2.9838416E-3,5.4582034E-4,2.5503968E-3,-2.652065E-3,-4.8256107E-3,8.062841E-4,-1.5710166E-3],"categories":[],"categories_nodes":[],"categories_segments":[],"categories_sizes":[],"default_left":[0,0,0,0,0,0,0,0,0,0,0,0,0,0,0],"id":60,"left_children":[1,3,5,7,9,11,13,-1,-1,-1,-1,-1,-1,-1,-1],"loss_changes":[1.6873108E2,5.119873E1,7.8829605E1,1.2338564E1,1.953358E1,2.7409363E1,1.9536198E1,0E0,0E0,0E0,0E0,0E0,0E0,0E0,0E0],"parents":[2147483647,0,0,1,1,2,2,3,3,4,4,5,5,6,6],"right_children":[2,4,6,8,10,12,14,-1,-1,-1,-1,-1,-1,-1,-1],"split_conditions":[4.64E-1,3.68E-1,2.9E0,-4.7E0,2.4E1,2.3E1,3.2E0,-4.41564E-5,-2.9838416E-3,5.4582034E-4,2.5503968E-3,-2.652065E-3,-4.8256107E-3,8.062841E-4,-1.5710166E-3],"split_indices":[3,55,77,25,51,80,25,0,0,0,0,0,0,0,0],"split_type":[0,0,0,0,0,0,0,0,0,0,0,0,0,0,0],"sum_hessian":[6.7534023E3,2.5632961E3,4.190106E3,5.783308E2,1.9849653E3,2.8091895E3,1.3809165E3,2.5531174E2,3.2301904E2,8.521007E2,1.1328646E3,1.9862004E3,8.229892E2,6.9651917E2,6.843974E2],"tree_param":{"num_deleted":"0","num_feature":"106","num_nodes":"15","size_leaf_vector":"1"}},{"base_weights":[1.0928433E-1,-9.278589E-2,2.3289336E-1,1.6883954E-1,-1.6905856E-1,3.2903248E-1,3.722163E-2,4.4156874E-5,2.9838416E-3,-5.4582045E-4,-2.5503966E-3,2.6520651E-3,4.825611E-3,-8.062841E-4,1.5710163E-3],"categories":[],"categories_nodes":[],"categories_segments":[],"categories_sizes":[],"default_left":[0,0,0,0,0,0,0,0,0,0,0,0,0,0,0],"id":61,"left_children":[1,3,5,7,9,11,13,-1,-1,-1,-1,-1,-1,-1,-1],"loss_changes":[1.6873108E2,5.119874E1,7.8829636E1,1.2338562E1,1.9533577E1,2.7409363E1,1.9536194E1,0E0,0E0,0E0,0E0,0E0,0E0,0E0,0E0],"parents":[2147483647,0,0,1,1,2,2,3,3,4,4,5,5,6,6],"right_children":[2,4,6,8,10,12,14,-1,-1,-1,-1,-1,-1,-1,-1],"split_conditions":[4.64E-1,3.68E-1,2.9E0,-4.7E0,2.4E1,2.3E1,3.2E0,4.4156874E-5,2.9838416E-3,-5.4582045E-4,-2.5503966E-3,2.6520651E-3,4.825611E-3,-8.062841E-4,1.5710163E-3],"split_indices":[3,55,77,25,51,80,25,0,0,0,0,0,0,0,0],"split_type":[0,0,0,0,0,0,0,0,0,0,0,0,0,0,0],"sum_hessian":[6.7534023E3,2.5632961E3,4.190106E3,5.783308E2,1.9849655E3,2.8091895E3,1.3809165E3,2.5531175E2,3.2301904E2,8.5210077E2,1.1328646E3,1.9862003E3,8.229892E2,6.9651917E2,6.843974E2],"tree_param":{"num_deleted":"0","num_feature":"106","num_nodes":"15","size_leaf_vector":"1"}},{"base_weights":[-1.082367E-1,-2.6874778E-1,4.5012105E-2,-1.4354476E-1,-4.013201E-1,1.6565739E-1,-1.3328975E-1,-2.0820987E-3,1.2270136E-4,-3.2314402E-3,-5.2142125E-3,7.532553E-4,2.8660404E-3,-2.7236645E-3,1.3271492E-4],"categories":[],"categories_nodes":[],"categories_segments":[],"categories_sizes":[],"default_left":[0,0,0,0,0,0,0,0,0,0,0,0,0,0,0],"id":62,"left_children":[1,3,5,7,9,11,13,-1,-1,-1,-1,-1,-1,-1,-1],"loss_changes":[1.6609108E2,5.4681625E1,7.434009E1,1.7107437E1,1.4865509E1,2.24958E1,2.8434471E1,0E0,0E0,0E0,0E0,0E0,0E0,0E0,0E0],"parents":[2147483647,0,0,1,1,2,2,3,3,4,4,5,5,6,6],"right_children":[2,4,6,8,10,12,14,-1,-1,-1,-1,-1,-1,-1,-1],"split_conditions":[1.5E1,1.3E1,1.8E1,6E0,2.3E1,2.4E1,2.2E1,-2.0820987E-3,1.2270136E-4,-3.2314402E-3,-5.2142125E-3,7.532553E-4,2.8660404E-3,-2.7236645E-3,1.3271492E-4],"split_indices":[51,80,81,77,80,51,27,0,0,0,0,0,0,0,0],"split_type":[0,0,0,0,0,0,0,0,0,0,0,0,0,0,0],"sum_hessian":[6.750691E3,3.2968516E3,3.453839E3,1.6966223E3,1.6002294E3,2.060025E3,1.3938142E3,1.1987782E3,4.9784415E2,9.71532E2,6.286974E2,1.1801929E3,8.7983203E2,7.147276E2,6.7908655E2],"tree_param":{"num_deleted":"0","num_feature":"106","num_nodes":"15","size_leaf_vector":"1"}},{"base_weights":[1.0823669E-1,2.6874778E-1,-4.5012113E-2,1.4354476E-1,4.0132007E-1,-1.656574E-1,1.3328975E-1,2.082099E-3,-1.2270173E-4,3.2314402E-3,5.2142125E-3,-7.5325527E-4,-2.8660407E-3,2.7236645E-3,-1.3271491E-4],"categories":[],"categories_nodes":[],"categories_segments":[],"categories_sizes":[],"default_left":[0,0,0,0,0,0,0,0,0,0,0,0,0,0,0],"id":63,"left_children":[1,3,5,7,9,11,13,-1,-1,-1,-1,-1,-1,-1,-1],"loss_changes":[1.6609108E2,5.468161E1,7.434009E1,1.7107445E1,1.4865509E1,2.2495808E1,2.8434471E1,0E0,0E0,0E0,0E0,0E0,0E0,0E0,0E0],"parents":[2147483647,0,0,1,1,2,2,3,3,4,4,5,5,6,6],"right_children":[2,4,6,8,10,12,14,-1,-1,-1,-1,-1,-1,-1,-1],"split_conditions":[1.5E1,1.3E1,1.8E1,6E0,2.3E1,2.4E1,2.2E1,2.082099E-3,-1.2270173E-4,3.2314402E-3,5.2142125E-3,-7.5325527E-4,-2.8660407E-3,2.7236645E-3,-1.3271491E-4],"split_indices":[51,80,81,77,80,51,27,0,0,0,0,0,0,0,0],"split_type":[0,0,0,0,0,0,0,0,0,0,0,0,0,0,0],"sum_hessian":[6.750691E3,3.2968516E3,3.453839E3,1.6966223E3,1.6002294E3,2.060025E3,1.3938142E3,1.1987782E3,4.9784412E2,9.71532E2,6.286974E2,1.1801929E3,8.7983203E2,7.147276E2,6.7908655E2],"tree_param":{"num_deleted":"0","num_feature":"106","num_nodes":"15","size_leaf_vector":"1"}},{"base_weights":[-1.0720154E-1,-2.662324E-1,4.4572297E-2,-1.8748945E-1,-4.739878E-1,-1.5397935E-1,1.513059E-1,-2.4863996E-3,-1.6229022E-4,-4.0316735E-3,-5.832136E-3,-3.077176E-3,-1.4439593E-4,5.9177075E-4,2.7331435E-3],"categories":[],"categories_nodes":[],"categories_segments":[],"categories_sizes":[],"default_left":[0,0,0,0,0,0,0,0,0,0,0,0,0,0,0],"id":64,"left_children":[1,3,5,7,9,11,13,-1,-1,-1,-1,-1,-1,-1,-1],"loss_changes":[1.629068E2,5.3827606E1,7.322235E1,2.5042381E1,6.7667694E0,2.5912525E1,2.5240814E1,0E0,0E0,0E0,0E0,0E0,0E0,0E0,0E0],"parents":[2147483647,0,0,1,1,2,2,3,3,4,4,5,5,6,6],"right_children":[2,4,6,8,10,12,14,-1,-1,-1,-1,-1,-1,-1,-1],"split_conditions":[1.5E1,2E1,-1.4E0,5.1E0,2.7E1,2.1E1,2.4E1,-2.4863996E-3,-1.6229022E-4,-4.0316735E-3,-5.832136E-3,-3.077176E-3,-1.4439593E-4,5.9177075E-4,2.7331435E-3],"split_indices":[51,80,77,77,103,28,51,0,0,0,0,0,0,0,0],"split_type":[0,0,0,0,0,0,0,0,0,0,0,0,0,0,0],"sum_hessian":[6.7478423E3,3.294775E3,3.4530674E3,2.3905986E3,9.041763E2,1.2071041E3,2.2459634E3,1.7612662E3,6.293324E2,5.513682E2,3.5280804E2,5.7375885E2,6.333453E2,1.2805231E3,9.654403E2],"tree_param":{"num_deleted":"0","num_feature":"106","num_nodes":"15","size_leaf_vector":"1"}},{"base_weights":[1.0720155E-1,2.662324E-1,-4.4572305E-2,1.8748946E-1,4.7398782E-1,1.5397935E-1,-1.5130591E-1,2.4863998E-3,1.6229038E-4,4.0316735E-3,5.832136E-3,3.077176E-3,1.4439598E-4,-5.9177063E-4,-2.7331442E-3],"categories":[],"categories_nodes":[],"categories_segments":[],"categories_sizes":[],"default_left":[0,0,0,0,0,0,0,0,0,0,0,0,0,0,0],"id":65,"left_children":[1,3,5,7,9,11,13,-1,-1,-1,-1,-1,-1,-1,-1],"loss_changes":[1.6290683E2,5.3827606E1,7.322236E1,2.5042366E1,6.7667847E0,2.5912521E1,2.5240833E1,0E0,0E0,0E0,0E0,0E0,0E0,0E0,0E0],"parents":[2147483647,0,0,1,1,2,2,3,3,4,4,5,5,6,6],"right_children":[2,4,6,8,10,12,14,-1,-1,-1,-1,-1,-1,-1,-1],"split_conditions":[1.5E1,2E1,-1.4E0,5.1E0,2.7E1,2.1E1,2.4E1,2.4863998E-3,1.6229038E-4,4.0316735E-3,5.832136E-3,3.077176E-3,1.4439598E-4,-5.9177063E-4,-2.7331442E-3],"split_indices":[51,80,77,77,103,28,51,0,0,0,0,0,0,0,0],"split_type":[0,0,0,0,0,0,0,0,0,0,0,0,0,0,0],"sum_hessian":[6.7478423E3,3.294775E3,3.4530674E3,2.3905986E3,9.041763E2,1.2071041E3,2.2459634E3,1.7612664E3,6.293324E2,5.513682E2,3.5280804E2,5.7375885E2,6.333453E2,1.2805231E3,9.6544025E2],"tree_param":{"num_deleted":"0","num_feature":"106","num_nodes":"15","size_leaf_vector":"1"}},{"base_weights":[-1.06177665E-1,-2.0723277E-1,1.2839338E-1,-1.24415085E-1,-4.215123E-1,-8.30688E-3,2.7398705E-1,-2.7944436E-3,-3.7369377E-4,-3.6338551E-3,-5.504446E-3,1.1560831E-3,-1.4066033E-3,3.9309147E-3,2.0053412E-3],"categories":[],"categories_nodes":[],"categories_segments":[],"categories_sizes":[],"default_left":[0,0,0,0,0,0,0,0,0,0,0,0,0,0,0],"id":66,"left_children":[1,3,5,7,9,11,13,-1,-1,-1,-1,-1,-1,-1,-1],"loss_changes":[1.5993642E2,8.362337E1,4.044019E1,4.590095E1,9.647369E0,1.7218292E1,8.529015E0,0E0,0E0,0E0,0E0,0E0,0E0,0E0,0E0],"parents":[2147483647,0,0,1,1,2,2,3,3,4,4,5,5,6,6],"right_children":[2,4,6,8,10,12,14,-1,-1,-1,-1,-1,-1,-1,-1],"split_conditions":[2E1,2E1,5.14E-1,7E0,3.7E1,-4.9E0,-6.2E0,-2.7944436E-3,-3.7369377E-4,-3.6338551E-3,-5.504446E-3,1.1560831E-3,-1.4066033E-3,3.9309147E-3,2.0053412E-3],"split_indices":[28,80,55,27,54,25,25,0,0,0,0,0,0,0,0],"split_type":[0,0,0,0,0,0,0,0,0,0,0,0,0,0,0],"sum_hessian":[6.744939E3,4.7141577E3,2.030781E3,3.401197E3,1.3129608E3,1.0478657E3,9.829153E2,1.2222131E3,2.178984E3,9.0760297E2,4.0535782E2,5.4125E2,5.0661575E2,3.732828E2,6.0963245E2],"tree_param":{"num_deleted":"0","num_feature":"106","num_nodes":"15","size_leaf_vector":"1"}},{"base_weights":[1.0617766E-1,2.0723277E-1,-1.2839338E-1,1.2441507E-1,4.2151228E-1,8.306893E-3,-2.7398705E-1,2.794443E-3,3.736937E-4,3.6338551E-3,5.504446E-3,-1.1560828E-3,1.4066033E-3,-3.9309156E-3,-2.0053408E-3],"categories":[],"categories_nodes":[],"categories_segments":[],"categories_sizes":[],"default_left":[0,0,0,0,0,0,0,0,0,0,0,0,0,0,0],"id":67,"left_children":[1,3,5,7,9,11,13,-1,-1,-1,-1,-1,-1,-1,-1],"loss_changes":[1.599364E2,8.36234E1,4.0440197E1,4.5900944E1,9.647354E0,1.7218288E1,8.529037E0,0E0,0E0,0E0,0E0,0E0,0E0,0E0,0E0],"parents":[2147483647,0,0,1,1,2,2,3,3,4,4,5,5,6,6],"right_children":[2,4,6,8,10,12,14,-1,-1,-1,-1,-1,-1,-1,-1],"split_conditions":[2E1,2E1,5.14E-1,7E0,3.7E1,-4.9E0,-6.2E0,2.794443E-3,3.736937E-4,3.6338551E-3,5.504446E-3,-1.1560828E-3,1.4066033E-3,-3.9309156E-3,-2.0053408E-3],"split_indices":[28,80,55,27,54,25,25,0,0,0,0,0,0,0,0],"split_type":[0,0,0,0,0,0,0,0,0,0,0,0,0,0,0],"sum_hessian":[6.744939E3,4.7141577E3,2.030781E3,3.401197E3,1.3129608E3,1.0478657E3,9.829153E2,1.2222131E3,2.178984E3,9.0760297E2,4.0535782E2,5.4125E2,5.0661575E2,3.732828E2,6.0963245E2],"tree_param":{"num_deleted":"0","num_feature":"106","num_nodes":"15","size_leaf_vector":"1"}},{"base_weights":[-1.0516244E-1,-2.6161015E-1,4.4046678E-2,-1.299596E-1,-3.8295874E-1,-1.710554E-1,1.3934049E-1,-1.9528655E-3,1.2721376E-4,-3.0961968E-3,-5.0957925E-3,-1.1849489E-5,-2.9816132E-3,5.033769E-4,2.5602987E-3],"categories":[],"categories_nodes":[],"categories_segments":[],"categories_sizes":[],"default_left":[0,0,0,0,0,0,0,0,0,0,0,0,0,0,0],"id":68,"left_children":[1,3,5,7,9,11,13,-1,-1,-1,-1,-1,-1,-1,-1],"loss_changes":[1.5741739E2,5.253914E1,7.07872E1,1.4733311E1,1.5744125E1,2.289332E1,2.4839195E1,0E0,0E0,0E0,0E0,0E0,0E0,0E0,0E0],"parents":[2147483647,0,0,1,1,2,2,3,3,4,4,5,5,6,6],"right_children":[2,4,6,8,10,12,14,-1,-1,-1,-1,-1,-1,-1,-1],"split_conditions":[1.5E1,1.2E1,-2E0,6E0,2.3E1,-3.7E0,2.4E1,-1.9528655E-3,1.2721376E-4,-3.0961968E-3,-5.0957925E-3,-1.1849489E-5,-2.9816132E-3,5.033769E-4,2.5602987E-3],"split_indices":[51,80,77,77,80,25,51,0,0,0,0,0,0,0,0],"split_type":[0,0,0,0,0,0,0,0,0,0,0,0,0,0,0],"sum_hessian":[6.74205E3,3.2908245E3,3.4512256E3,1.5794056E3,1.7114187E3,1.0593075E3,2.391918E3,1.0831246E3,4.9628094E2,1.0859043E3,6.255144E2,4.538157E2,6.0549176E2,1.3577495E3,1.0341686E3],"tree_param":{"num_deleted":"0","num_feature":"106","num_nodes":"15","size_leaf_vector":"1"}},{"base_weights":[1.0516244E-1,2.6161015E-1,-4.4046678E-2,1.2995961E-1,3.8295877E-1,1.710554E-1,-1.3934049E-1,1.9528655E-3,-1.2721326E-4,3.0961968E-3,5.095793E-3,1.1849413E-5,2.9816132E-3,-5.0337706E-4,-2.5602984E-3],"categories":[],"categories_nodes":[],"categories_segments":[],"categories_sizes":[],"default_left":[0,0,0,0,0,0,0,0,0,0,0,0,0,0,0],"id":69,"left_children":[1,3,5,7,9,11,13,-1,-1,-1,-1,-1,-1,-1,-1],"loss_changes":[1.5741739E2,5.2539154E1,7.078721E1,1.4733305E1,1.5744141E1,2.289332E1,2.4839188E1,0E0,0E0,0E0,0E0,0E0,0E0,0E0,0E0],"parents":[2147483647,0,0,1,1,2,2,3,3,4,4,5,5,6,6],"right_children":[2,4,6,8,10,12,14,-1,-1,-1,-1,-1,-1,-1,-1],"split_conditions":[1.5E1,1.2E1,-2E0,6E0,2.3E1,-3.7E0,2.4E1,1.9528655E-3,-1.2721326E-4,3.0961968E-3,5.095793E-3,1.1849413E-5,2.9816132E-3,-5.0337706E-4,-2.5602984E-3],"split_indices":[51,80,77,77,80,25,51,0,0,0,0,0,0,0,0],"split_type":[0,0,0,0,0,0,0,0,0,0,0,0,0,0,0],"sum_hessian":[6.74205E3,3.2908245E3,3.4512256E3,1.5794056E3,1.7114187E3,1.0593075E3,2.391918E3,1.0831246E3,4.9628094E2,1.0859043E3,6.255144E2,4.5381573E2,6.0549176E2,1.3577495E3,1.0341686E3],"tree_param":{"num_deleted":"0","num_feature":"106","num_nodes":"15","size_leaf_vector":"1"}},{"base_weights":[-1.0416023E-1,-2.1316211E-1,1.06052965E-1,-7.3093794E-2,-3.3882603E-1,-1.5393816E-1,1.774203E-1,-1.8220886E-3,3.7466668E-4,-4.8022866E-3,-2.724732E-3,-9.13899E-5,-2.8601922E-3,8.916563E-4,2.8499302E-3],"categories":[],"categories_nodes":[],"categories_segments":[],"categories_sizes":[],"default_left":[0,0,0,0,0,0,0,0,0,0,0,0,0,0,0],"id":70,"left_children":[1,3,5,7,9,11,13,-1,-1,-1,-1,-1,-1,-1,-1],"loss_changes":[1.5446024E2,7.810542E1,4.2743637E1,2.5345448E1,2.1818878E1,9.490585E0,1.7127892E1,0E0,0E0,0E0,0E0,0E0,0E0,0E0,0E0],"parents":[2147483647,0,0,1,1,2,2,3,3,4,4,5,5,6,6],"right_children":[2,4,6,8,10,12,14,-1,-1,-1,-1,-1,-1,-1,-1],"split_conditions":[1.9E1,1.2E1,3.68E-1,1E1,7E0,-4.6E0,2.6E1,-1.8220886E-3,3.7466668E-4,-4.8022866E-3,-2.724732E-3,-9.13899E-5,-2.8601922E-3,8.916563E-4,2.8499302E-3],"split_indices":[27,80,55,51,51,25,51,0,0,0,0,0,0,0,0],"split_type":[0,0,0,0,0,0,0,0,0,0,0,0,0,0,0],"sum_hessian":[6.738989E3,4.4378276E3,2.3011614E3,2.0993823E3,2.338445E3,4.9537048E2,1.805791E3,1.0562716E3,1.0431107E3,7.448592E2,1.5935859E3,2.3681819E2,2.5855228E2,9.9296924E2,8.128218E2],"tree_param":{"num_deleted":"0","num_feature":"106","num_nodes":"15","size_leaf_vector":"1"}},{"base_weights":[1.0416021E-1,2.131621E-1,-1.0605298E-1,7.309378E-2,3.3882603E-1,1.5393816E-1,-1.7742032E-1,1.8220885E-3,-3.7466688E-4,4.8022866E-3,2.724732E-3,9.138952E-5,2.8601922E-3,-8.916565E-4,-2.8499302E-3],"categories":[],"categories_nodes":[],"categories_segments":[],"categories_sizes":[],"default_left":[0,0,0,0,0,0,0,0,0,0,0,0,0,0,0],"id":71,"left_children":[1,3,5,7,9,11,13,-1,-1,-1,-1,-1,-1,-1,-1],"loss_changes":[1.5446024E2,7.810541E1,4.274363E1,2.5345451E1,2.1818909E1,9.49059E0,1.7127884E1,0E0,0E0,0E0,0E0,0E0,0E0,0E0,0E0],"parents":[2147483647,0,0,1,1,2,2,3,3,4,4,5,5,6,6],"right_children":[2,4,6,8,10,12,14,-1,-1,-1,-1,-1,-1,-1,-1],"split_conditions":[1.9E1,1.2E1,3.68E-1,1E1,7E0,-4.6E0,2.6E1,1.8220885E-3,-3.7466688E-4,4.8022866E-3,2.724732E-3,9.138952E-5,2.8601922E-3,-8.916565E-4,-2.8499302E-3],"split_indices":[27,80,55,51,51,25,51,0,0,0,0,0,0,0,0],"split_type":[0,0,0,0,0,0,0,0,0,0,0,0,0,0,0],"sum_hessian":[6.738989E3,4.4378276E3,2.3011614E3,2.0993823E3,2.338445E3,4.9537048E2,1.805791E3,1.0562717E3,1.0431107E3,7.448592E2,1.5935859E3,2.3681819E2,2.5855228E2,9.9296924E2,8.128218E2],"tree_param":{"num_deleted":"0","num_feature":"106","num_nodes":"15","size_leaf_vector":"1"}},{"base_weights":[-1.0316473E-1,-2.569565E-1,4.3399714E-2,-1.8045115E-1,-4.597181E-1,1.5951821E-1,-1.2827702E-1,-2.4026355E-3,-1.3147932E-4,-3.893646E-3,-5.684315E-3,7.3463656E-4,2.7499544E-3,-2.6191617E-3,1.2302266E-4],"categories":[],"categories_nodes":[],"categories_segments":[],"categories_sizes":[],"default_left":[0,0,0,0,0,0,0,0,0,0,0,0,0,0,0],"id":72,"left_children":[1,3,5,7,9,11,13,-1,-1,-1,-1,-1,-1,-1,-1],"loss_changes":[1.5186789E2,5.0915955E1,6.880478E1,2.3899406E1,6.662216E0,2.0438057E1,2.616832E1,0E0,0E0,0E0,0E0,0E0,0E0,0E0,0E0],"parents":[2147483647,0,0,1,1,2,2,3,3,4,4,5,5,6,6],"right_children":[2,4,6,8,10,12,14,-1,-1,-1,-1,-1,-1,-1,-1],"split_conditions":[1.5E1,2E1,1.8E1,5.1E0,2.7E1,2.4E1,2.2E1,-2.4026355E-3,-1.3147932E-4,-3.893646E-3,-5.684315E-3,7.3463656E-4,2.7499544E-3,-2.6191617E-3,1.2302266E-4],"split_indices":[51,80,81,77,103,51,27,0,0,0,0,0,0,0,0],"split_type":[0,0,0,0,0,0,0,0,0,0,0,0,0,0,0],"sum_hessian":[6.736091E3,3.2866345E3,3.4494563E3,2.3876316E3,8.9900287E2,2.0577253E3,1.391731E3,1.758512E3,6.2911975E2,5.485756E2,3.5042728E2,1.1800094E3,8.777161E2,7.130345E2,6.786965E2],"tree_param":{"num_deleted":"0","num_feature":"106","num_nodes":"15","size_leaf_vector":"1"}},{"base_weights":[1.0316473E-1,2.569565E-1,-4.3399718E-2,1.8045115E-1,4.5971817E-1,-1.5951821E-1,1.28277E-1,2.4026355E-3,1.3147897E-4,3.8936462E-3,5.684316E-3,-7.346366E-4,-2.7499544E-3,2.6191617E-3,-1.2302284E-4],"categories":[],"categories_nodes":[],"categories_segments":[],"categories_sizes":[],"default_left":[0,0,0,0,0,0,0,0,0,0,0,0,0,0,0],"id":73,"left_children":[1,3,5,7,9,11,13,-1,-1,-1,-1,-1,-1,-1,-1],"loss_changes":[1.5186789E2,5.0915985E1,6.880477E1,2.3899414E1,6.662216E0,2.043805E1,2.6168322E1,0E0,0E0,0E0,0E0,0E0,0E0,0E0,0E0],"parents":[2147483647,0,0,1,1,2,2,3,3,4,4,5,5,6,6],"right_children":[2,4,6,8,10,12,14,-1,-1,-1,-1,-1,-1,-1,-1],"split_conditions":[1.5E1,2E1,1.8E1,5.1E0,2.7E1,2.4E1,2.2E1,2.4026355E-3,1.3147897E-4,3.8936462E-3,5.684316E-3,-7.346366E-4,-2.7499544E-3,2.6191617E-3,-1.2302284E-4],"split_indices":[51,80,81,77,103,51,27,0,0,0,0,0,0,0,0],"split_type":[0,0,0,0,0,0,0,0,0,0,0,0,0,0,0],"sum_hessian":[6.736091E3,3.2866345E3,3.4494563E3,2.3876316E3,8.9900287E2,2.0577253E3,1.391731E3,1.758512E3,6.2911975E2,5.485756E2,3.5042725E2,1.1800093E3,8.777161E2,7.130345E2,6.7869653E2],"tree_param":{"num_deleted":"0","num_feature":"106","num_nodes":"15","size_leaf_vector":"1"}},{"base_weights":[-1.0218184E-1,-1.9986413E-1,1.2436049E-1,-1.1954842E-1,-4.0849558E-1,-8.608369E-3,2.6612014E-1,-2.7102244E-3,-3.4598412E-4,-3.507596E-3,-5.3673605E-3,1.1144157E-3,-1.3684916E-3,3.8236363E-3,1.9457885E-3],"categories":[],"categories_nodes":[],"categories_segments":[],"categories_sizes":[],"default_left":[0,0,0,0,0,0,0,0,0,0,0,0,0,0,0],"id":74,"left_children":[1,3,5,7,9,11,13,-1,-1,-1,-1,-1,-1,-1,-1],"loss_changes":[1.490433E2,7.879973E1,3.8256496E1,4.372844E1,9.49295E0,1.6151966E1,8.094467E0,0E0,0E0,0E0,0E0,0E0,0E0,0E0,0E0],"parents":[2147483647,0,0,1,1,2,2,3,3,4,4,5,5,6,6],"right_children":[2,4,6,8,10,12,14,-1,-1,-1,-1,-1,-1,-1,-1],"split_conditions":[2E1,2E1,5.14E-1,7E0,3.7E1,-4.9E0,-6.2E0,-2.7102244E-3,-3.4598412E-4,-3.507596E-3,-5.3673605E-3,1.1144157E-3,-1.3684916E-3,3.8236363E-3,1.9457885E-3],"split_indices":[28,80,55,27,54,25,25,0,0,0,0,0,0,0,0],"split_type":[0,0,0,0,0,0,0,0,0,0,0,0,0,0,0],"sum_hessian":[6.7330264E3,4.7045845E3,2.0284418E3,3.3980347E3,1.3065498E3,1.0471586E3,9.812831E2,1.2201678E3,2.177867E3,9.0350977E2,4.0304E2,5.409193E2,5.0623932E2,3.7218887E2,6.0909424E2],"tree_param":{"num_deleted":"0","num_feature":"106","num_nodes":"15","size_leaf_vector":"1"}},{"base_weights":[1.0218184E-1,1.9986413E-1,-1.243605E-1,1.1954843E-1,4.0849558E-1,8.60835E-3,-2.6612014E-1,2.7102244E-3,3.4598436E-4,3.507596E-3,5.36736E-3,-1.114416E-3,1.3684914E-3,-3.8236354E-3,-1.9457893E-3],"categories":[],"categories_nodes":[],"categories_segments":[],"categories_sizes":[],"default_left":[0,0,0,0,0,0,0,0,0,0,0,0,0,0,0],"id":75,"left_children":[1,3,5,7,9,11,13,-1,-1,-1,-1,-1,-1,-1,-1],"loss_changes":[1.490433E2,7.879971E1,3.8256493E1,4.3728436E1,9.492966E0,1.6151968E1,8.094452E0,0E0,0E0,0E0,0E0,0E0,0E0,0E0,0E0],"parents":[2147483647,0,0,1,1,2,2,3,3,4,4,5,5,6,6],"right_children":[2,4,6,8,10,12,14,-1,-1,-1,-1,-1,-1,-1,-1],"split_conditions":[2E1,2E1,5.14E-1,7E0,3.7E1,-4.9E0,-6.2E0,2.7102244E-3,3.4598436E-4,3.507596E-3,5.36736E-3,-1.114416E-3,1.3684914E-3,-3.8236354E-3,-1.9457893E-3],"split_indices":[28,80,55,27,54,25,25,0,0,0,0,0,0,0,0],"split_type":[0,0,0,0,0,0,0,0,0,0,0,0,0,0,0],"sum_hessian":[6.7330264E3,4.7045845E3,2.0284417E3,3.3980347E3,1.3065498E3,1.0471586E3,9.812831E2,1.2201678E3,2.177867E3,9.0350977E2,4.0303998E2,5.409193E2,5.0623932E2,3.7218887E2,6.090942E2],"tree_param":{"num_deleted":"0","num_feature":"106","num_nodes":"15","size_leaf_vector":"1"}},{"base_weights":[-1.01207614E-1,-2.5251403E-1,4.288466E-2,-1.3335797E-1,-3.7944117E-1,-1.4678562E-1,1.4477511E-1,-2.0562867E-3,1.8460539E-6,-3.0455568E-3,-4.953205E-3,-2.9360142E-3,-1.3921385E-4,5.788333E-4,2.601461E-3],"categories":[],"categories_nodes":[],"categories_segments":[],"categories_sizes":[],"default_left":[0,0,0,0,0,0,0,0,0,0,0,0,0,0,0],"id":76,"left_children":[1,3,5,7,9,11,13,-1,-1,-1,-1,-1,-1,-1,-1],"loss_changes":[1.467598E2,4.9608536E1,6.666604E1,1.6359844E1,1.3640839E1,2.3513765E1,2.2479454E1,0E0,0E0,0E0,0E0,0E0,0E0,0E0,0E0],"parents":[2147483647,0,0,1,1,2,2,3,3,4,4,5,5,6,6],"right_children":[2,4,6,8,10,12,14,-1,-1,-1,-1,-1,-1,-1,-1],"split_conditions":[1.5E1,1.3E1,-1.4E0,1.2E1,2.3E1,2.1E1,2.4E1,-2.0562867E-3,1.8460539E-6,-3.0455568E-3,-4.953205E-3,-2.9360142E-3,-1.3921385E-4,5.788333E-4,2.601461E-3],"split_indices":[51,80,77,60,80,28,51,0,0,0,0,0,0,0,0],"split_type":[0,0,0,0,0,0,0,0,0,0,0,0,0,0,0],"sum_hessian":[6.72996E3,3.2824343E3,3.4475256E3,1.694103E3,1.5883313E3,1.2046376E3,2.242888E3,1.0988737E3,5.952294E2,9.6702966E2,6.2130164E2,5.71698E2,6.3293964E2,1.2802034E3,9.626845E2],"tree_param":{"num_deleted":"0","num_feature":"106","num_nodes":"15","size_leaf_vector":"1"}},{"base_weights":[1.0120762E-1,2.5251403E-1,-4.2884655E-2,1.33358E-1,3.7944117E-1,1.4678563E-1,-1.4477511E-1,2.0562871E-3,-1.8458775E-6,3.045557E-3,4.953205E-3,2.9360144E-3,1.3921387E-4,-5.788334E-4,-2.601461E-3],"categories":[],"categories_nodes":[],"categories_segments":[],"categories_sizes":[],"default_left":[0,0,0,0,0,0,0,0,0,0,0,0,0,0,0],"id":77,"left_children":[1,3,5,7,9,11,13,-1,-1,-1,-1,-1,-1,-1,-1],"loss_changes":[1.467598E2,4.9608505E1,6.666604E1,1.6359846E1,1.3640854E1,2.3513767E1,2.2479446E1,0E0,0E0,0E0,0E0,0E0,0E0,0E0,0E0],"parents":[2147483647,0,0,1,1,2,2,3,3,4,4,5,5,6,6],"right_children":[2,4,6,8,10,12,14,-1,-1,-1,-1,-1,-1,-1,-1],