{"learner":{"attributes":{},"feature_names":[],"feature_types":[],"gradient_booster":{"model":{"gbtree_model_param":{"num_parallel_tree":"1","num_trees":"1500"},"iteration_indptr":[0,2,4,6,8,10,12,14,16,18,20,22,24,26,28,30,32,34,36,38,40,42,44,46,48,50,52,54,56,58,60,62,64,66,68,70,72,74,76,78,80,82,84,86,88,90,92,94,96,98,100,102,104,106,108,110,112,114,116,118,120,122,124,126,128,130,132,134,136,138,140,142,144,146,148,150,152,154,156,158,160,162,164,166,168,170,172,174,176,178,180,182,184,186,188,190,192,194,196,198,200,202,204,206,208,210,212,214,216,218,220,222,224,226,228,230,232,234,236,238,240,242,244,246,248,250,252,254,256,258,260,262,264,266,268,270,272,274,276,278,280,282,284,286,288,290,292,294,296,298,300,302,304,306,308,310,312,314,316,318,320,322,324,326,328,330,332,334,336,338,340,342,344,346,348,350,352,354,356,358,360,362,364,366,368,370,372,374,376,378,380,382,384,386,388,390,392,394,396,398,400,402,404,406,408,410,412,414,416,418,420,422,424,426,428,430,432,434,436,438,440,442,444,446,448,450,452,454,456,458,460,462,464,466,468,470,472,474,476,478,480,482,484,486,488,490,492,494,496,498,500,502,504,506,508,510,512,514,516,518,520,522,524,526,528,530,532,534,536,538,540,542,544,546,548,550,552,554,556,558,560,562,564,566,568,570,572,574,576,578,580,582,584,586,588,590,592,594,596,598,600,602,604,606,608,610,612,614,616,618,620,622,624,626,628,630,632,634,636,638,640,642,644,646,648,650,652,654,656,658,660,662,664,666,668,670,672,674,676,678,680,682,684,686,688,690,692,694,696,698,700,702,704,706,708,710,712,714,716,718,720,722,724,726,728,730,732,734,736,738,740,742,744,746,748,750,752,754,756,758,760,762,764,766,768,770,772,774,776,778,780,782,784,786,788,790,792,794,796,798,800,802,804,806,808,810,812,814,816,818,820,822,824,826,828,830,832,834,836,838,840,842,844,846,848,850,852,854,856,858,860,862,864,866,868,870,872,874,876,878,880,882,884,886,888,890,892,894,896,898,900,902,904,906,908,910,912,914,916,918,920,922,924,926,928,930,932,934,936,938,940,942,944,946,948,950,952,954,956,958,960,962,964,966,968,970,972,974,976,978,980,982,984,986,988,990,992,994,996,998,1000,1002,1004,1006,1008,1010,1012,1014,1016,1018,1020,1022,1024,1026,1028,1030,1032,1034,1036,1038,1040,1042,1044,1046,1048,1050,1052,1054,1056,1058,1060,1062,1064,1066,1068,1070,1072,1074,1076,1078,1080,1082,1084,1086,1088,1090,1092,1094,1096,1098,1100,1102,1104,1106,1108,1110,1112,1114,1116,1118,1120,1122,1124,1126,1128,1130,1132,1134,1136,1138,1140,1142,1144,1146,1148,1150,1152,1154,1156,1158,1160,1162,1164,1166,1168,1170,1172,1174,1176,1178,1180,1182,1184,1186,1188,1190,1192,1194,1196,1198,1200,1202,1204,1206,1208,1210,1212,1214,1216,1218,1220,1222,1224,1226,1228,1230,1232,1234,1236,1238,1240,1242,1244,1246,1248,1250,1252,1254,1256,1258,1260,1262,1264,1266,1268,1270,1272,1274,1276,1278,1280,1282,1284,1286,1288,1290,1292,1294,1296,1298,1300,1302,1304,1306,1308,1310,1312,1314,1316,1318,1320,1322,1324,1326,1328,1330,1332,1334,1336,1338,1340,1342,1344,1346,1348,1350,1352,1354,1356,1358,1360,1362,1364,1366,1368,1370,1372,1374,1376,1378,1380,1382,1384,1386,1388,1390,1392,1394,1396,1398,1400,1402,1404,1406,1408,1410,1412,1414,1416,1418,1420,1422,1424,1426,1428,1430,1432,1434,1436,1438,1440,1442,1444,1446,1448,1450,1452,1454,1456,1458,1460,1462,1464,1466,1468,1470,1472,1474,1476,1478,1480,1482,1484,1486,1488,1490,1492,1494,1496,1498,1500],"tree_info":[0,1,0,1,0,1,0,1,0,1,0,1,0,1,0,1,0,1,0,1,0,1,0,1,0,1,0,1,0,1,0,1,0,1,0,1,0,1,0,1,0,1,0,1,0,1,0,1,0,1,0,1,0,1,0,1,0,1,0,1,0,1,0,1,0,1,0,1,0,1,0,1,0,1,0,1,0,1,0,1,0,1,0,1,0,1,0,1,0,1,0,1,0,1,0,1,0,1,0,1,0,1,0,1,0,1,0,1,0,1,0,1,0,1,0,1,0,1,0,1,0,1,0,1,0,1,0,1,0,1,0,1,0,1,0,1,0,1,0,1,0,1,0,1,0,1,0,1,0,1,0,1,0,1,0,1,0,1,0,1,0,1,0,1,0,1,0,1,0,1,0,1,0,1,0,1,0,1,0,1,0,1,0,1,0,1,0,1,0,1,0,1,0,1,0,1,0,1,0,1,0,1,0,1,0,1,0,1,0,1,0,1,0,1,0,1,0,1,0,1,0,1,0,1,0,1,0,1,0,1,0,1,0,1,0,1,0,1,0,1,0,1,0,1,0,1,0,1,0,1,0,1,0,1,0,1,0,1,0,1,0,1,0,1,0,1,0,1,0,1,0,1,0,1,0,1,0,1,0,1,0,1,0,1,0,1,0,1,0,1,0,1,0,1,0,1,0,1,0,1,0,1,0,1,0,1,0,1,0,1,0,1,0,1,0,1,0,1,0,1,0,1,0,1,0,1,0,1,0,1,0,1,0,1,0,1,0,1,0,1,0,1,0,1,0,1,0,1,0,1,0,1,0,1,0,1,0,1,0,1,0,1,0,1,0,1,0,1,0,1,0,1,0,1,0,1,0,1,0,1,0,1,0,1,0,1,0,1,0,1,0,1,0,1,0,1,0,1,0,1,0,1,0,1,0,1,0,1,0,1,0,1,0,1,0,1,0,1,0,1,0,1,0,1,0,1,0,1,0,1,0,1,0,1,0,1,0,1,0,1,0,1,0,1,0,1,0,1,0,1,0,1,0,1,0,1,0,1,0,1,0,1,0,1,0,1,0,1,0,1,0,1,0,1,0,1,0,1,0,1,0,1,0,1,0,1,0,1,0,1,0,1,0,1,0,1,0,1,0,1,0,1,0,1,0,1,0,1,0,1,0,1,0,1,0,1,0,1,0,1,0,1,0,1,0,1,0,1,0,1,0,1,0,1,0,1,0,1,0,1,0,1,0,1,0,1,0,1,0,1,0,1,0,1,0,1,0,1,0,1,0,1,0,1,0,1,0,1,0,1,0,1,0,1,0,1,0,1,0,1,0,1,0,1,0,1,0,1,0,1,0,1,0,1,0,1,0,1,0,1,0,1,0,1,0,1,0,1,0,1,0,1,0,1,0,1,0,1,0,1,0,1,0,1,0,1,0,1,0,1,0,1,0,1,0,1,0,1,0,1,0,1,0,1,0,1,0,1,0,1,0,1,0,1,0,1,0,1,0,1,0,1,0,1,0,1,0,1,0,1,0,1,0,1,0,1,0,1,0,1,0,1,0,1,0,1,0,1,0,1,0,1,0,1,0,1,0,1,0,1,0,1,0,1,0,1,0,1,0,1,0,1,0,1,0,1,0,1,0,1,0,1,0,1,0,1,0,1,0,1,0,1,0,1,0,1,0,1,0,1,0,1,0,1,0,1,0,1,0,1,0,1,0,1,0,1,0,1,0,1,0,1,0,1,0,1,0,1,0,1,0,1,0,1,0,1,0,1,0,1,0,1,0,1,0,1,0,1,0,1,0,1,0,1,0,1,0,1,0,1,0,1,0,1,0,1,0,1,0,1,0,1,0,1,0,1,0,1,0,1,0,1,0,1,0,1,0,1,0,1,0,1,0,1,0,1,0,1,0,1,0,1,0,1,0,1,0,1,0,1,0,1,0,1,0,1,0,1,0,1,0,1,0,1,0,1,0,1,0,1,0,1,0,1,0,1,0,1,0,1,0,1,0,1,0,1,0,1,0,1,0,1,0,1,0,1,0,1,0,1,0,1,0,1,0,1,0,1,0,1,0,1,0,1,0,1,0,1,0,1,0,1,0,1,0,1,0,1,0,1,0,1,0,1,0,1,0,1,0,1,0,1,0,1,0,1,0,1,0,1,0,1,0,1,0,1,0,1,0,1,0,1,0,1,0,1,0,1,0,1,0,1,0,1,0,1,0,1,0,1,0,1,0,1,0,1,0,1,0,1,0,1,0,1,0,1,0,1,0,1,0,1,0,1,0,1,0,1,0,1,0,1,0,1,0,1,0,1,0,1,0,1,0,1,0,1,0,1,0,1,0,1,0,1,0,1,0,1,0,1,0,1,0,1,0,1,0,1,0,1,0,1,0,1,0,1,0,1,0,1,0,1,0,1,0,1,0,1,0,1,0,1,0,1,0,1,0,1,0,1,0,1,0,1,0,1,0,1,0,1,0,1,0,1,0,1,0,1,0,1,0,1,0,1,0,1,0,1,0,1,0,1,0,1,0,1,0,1,0,1,0,1,0,1,0,1,0,1,0,1,0,1,0,1,0,1,0,1,0,1,0,1,0,1,0,1,0,1,0,1,0,1,0,1,0,1,0,1,0,1,0,1,0,1,0,1,0,1,0,1,0,1,0,1,0,1,0,1,0,1,0,1,0,1,0,1,0,1,0,1,0,1,0,1,0,1,0,1,0,1,0,1,0,1,0,1,0,1,0,1,0,1,0,1,0,1,0,1,0,1,0,1,0,1,0,1,0,1,0,1,0,1,0,1,0,1,0,1,0,1,0,1,0,1,0,1,0,1,0,1,0,1,0,1,0,1,0,1,0,1,0,1,0,1,0,1,0,1,0,1,0,1,0,1,0,1,0,1,0,1,0,1,0,1,0,1,0,1,0,1,0,1,0,1,0,1,0,1,0,1,0,1,0,1,0,1,0,1,0,1,0,1,0,1,0,1,0,1,0,1,0,1,0,1,0,1,0,1,0,1,0,1,0,1,0,1,0,1,0,1,0,1,0,1,0,1,0,1,0,1,0,1,0,1,0,1,0,1,0,1,0,1,0,1,0,1,0,1,0,1,0,1,0,1,0,1,0,1,0,1,0,1,0,1,0,1,0,1,0,1,0,1,0,1,0,1,0,1,0,1,0,1,0,1,0,1,0,1,0,1,0,1,0,1,0,1,0,1,0,1,0,1,0,1,0,1,0,1,0,1,0,1,0,1,0,1,0,1,0,1,0,1,0,1,0,1,0,1,0,1,0,1,0,1,0,1,0,1,0,1,0,1,0,1,0,1,0,1,0,1,0,1,0,1,0,1,0,1,0,1,0,1,0,1,0,1,0,1,0,1,0,1,0,1,0,1,0,1,0,1],"trees":[{"base_weights":[-1.4764649E-1,1.2670884E-1,-3.0647448E-1,-1.3862024E-1,2.4940334E-1,-1.4171301E-1,-4.9282297E-1,5.8139535E-4,-2.9479768E-3,8.5588876E-4,3.6185205E-3,-3.214671E-3,-1.5512675E-4,-5.856777E-3,-3.5832822E-3],"categories":[],"categories_nodes":[],"categories_segments":[],"categories_sizes":[],"default_left":[0,0,0,0,0,0,0,0,0,0,0,0,0,0,0],"id":0,"left_children":[1,3,5,7,9,11,13,-1,-1,-1,-1,-1,-1,-1,-1],"loss_changes":[2.9118726E2,7.980917E1,1.2986545E2,2.384782E1,3.0842148E1,5.097961E1,2.458603E1,0E0,0E0,0E0,0E0,0E0,0E0,0E0,0E0],"parents":[2147483647,0,0,1,1,2,2,3,3,4,4,5,5,6,6],"right_children":[2,4,6,8,10,12,14,-1,-1,-1,-1,-1,-1,-1,-1],"split_conditions":[4.59E-1,-2E0,1.4E1,-4.9E0,2.4E1,8E0,-1.9E0,5.8139535E-4,-2.9479768E-3,8.5588876E-4,3.6185205E-3,-3.214671E-3,-1.5512675E-4,-5.856777E-3,-3.5832822E-3],"split_indices":[3,77,80,25,51,51,77,0,0,0,0,0,0,0,0],"split_type":[0,0,0,0,0,0,0,0,0,0,0,0,0,0,0],"sum_hessian":[6.6805E3,2.4495E3,4.231E3,7.745E2,1.675E3,2.2465E3,1.9845E3,3.43E2,4.315E2,6.825E2,9.925E2,9.26E2,1.3205E3,1.172E3,8.125E2],"tree_param":{"num_deleted":"0","num_feature":"106","num_nodes":"15","size_leaf_vector":"1"}},{"base_weights":[1.4764649E-1,-1.2670884E-1,3.0647448E-1,1.3862024E-1,-2.4940334E-1,1.4171301E-1,4.9282297E-1,-5.8139535E-4,2.9479768E-3,-8.5588876E-4,-3.6185205E-3,3.214671E-3,1.5512675E-4,5.856777E-3,3.5832822E-3],"categories":[],"categories_nodes":[],"categories_segments":[],"categories_sizes":[],"default_left":[0,0,0,0,0,0,0,0,0,0,0,0,0,0,0],"id":1,"left_children":[1,3,5,7,9,11,13,-1,-1,-1,-1,-1,-1,-1,-1],"loss_changes":[2.9118726E2,7.980917E1,1.2986545E2,2.384782E1,3.0842148E1,5.097961E1,2.458603E1,0E0,0E0,0E0,0E0,0E0,0E0,0E0,0E0],"parents":[2147483647,0,0,1,1,2,2,3,3,4,4,5,5,6,6],"right_children":[2,4,6,8,10,12,14,-1,-1,-1,-1,-1,-1,-1,-1],"split_conditions":[4.59E-1,-2E0,1.4E1,-4.9E0,2.4E1,8E0,-1.9E0,-5.8139535E-4,2.9479768E-3,-8.5588876E-4,-3.6185205E-3,3.214671E-3,1.5512675E-4,5.856777E-3,3.5832822E-3],"split_indices":[3,77,80,25,51,51,77,0,0,0,0,0,0,0,0],"split_type":[0,0,0,0,0,0,0,0,0,0,0,0,0,0,0],"sum_hessian":[6.6805E3,2.4495E3,4.231E3,7.745E2,1.675E3,2.2465E3,1.9845E3,3.43E2,4.315E2,6.825E2,9.925E2,9.26E2,1.3205E3,1.172E3,8.125E2],"tree_param":{"num_deleted":"0","num_feature":"106","num_nodes":"15","size_leaf_vector":"1"}},{"base_weights":[-1.4617333E-1,1.254435E-1,-3.034171E-1,-1.372378E-1,2.4691398E-1,-1.4029796E-1,-4.8791194E-1,5.755986E-4,-2.918591E-3,8.4734266E-4,3.5824187E-3,-3.1825923E-3,-1.5357613E-4,-5.798458E-3,-3.5475385E-3],"categories":[],"categories_nodes":[],"categories_segments":[],"categories_sizes":[],"default_left":[0,0,0,0,0,0,0,0,0,0,0,0,0,0,0],"id":2,"left_children":[1,3,5,7,9,11,13,-1,-1,-1,-1,-1,-1,-1,-1],"loss_changes":[2.8540195E2,7.822394E1,1.2729022E2,2.3374638E1,3.0229813E1,4.9967033E1,2.409964E1,0E0,0E0,0E0,0E0,0E0,0E0,0E0,0E0],"parents":[2147483647,0,0,1,1,2,2,3,3,4,4,5,5,6,6],"right_children":[2,4,6,8,10,12,14,-1,-1,-1,-1,-1,-1,-1,-1],"split_conditions":[4.59E-1,-2E0,1.4E1,-4.9E0,2.4E1,8E0,-1.9E0,5.755986E-4,-2.918591E-3,8.4734266E-4,3.5824187E-3,-3.1825923E-3,-1.5357613E-4,-5.798458E-3,-3.5475385E-3],"split_indices":[3,77,80,25,51,51,77,0,0,0,0,0,0,0,0],"split_type":[0,0,0,0,0,0,0,0,0,0,0,0,0,0,0],"sum_hessian":[6.6804224E3,2.4494827E3,4.23094E3,7.744961E2,1.6749865E3,2.2464905E3,1.9844495E3,3.4299988E2,4.3149625E2,6.824995E2,9.92487E2,9.259904E2,1.3205E3,1.17196E3,8.1248956E2],"tree_param":{"num_deleted":"0","num_feature":"106","num_nodes":"15","size_leaf_vector":"1"}},{"base_weights":[1.4617333E-1,-1.2544352E-1,3.0341712E-1,1.3723777E-1,-2.4691398E-1,1.4029802E-1,4.879119E-1,-5.755977E-4,2.9185899E-3,-8.4734295E-4,-3.5824187E-3,3.1825923E-3,1.5357701E-4,5.798458E-3,3.5475385E-3],"categories":[],"categories_nodes":[],"categories_segments":[],"categories_sizes":[],"default_left":[0,0,0,0,0,0,0,0,0,0,0,0,0,0,0],"id":3,"left_children":[1,3,5,7,9,11,13,-1,-1,-1,-1,-1,-1,-1,-1],"loss_changes":[2.8540198E2,7.822394E1,1.2729016E2,2.3374615E1,3.0229797E1,4.996701E1,2.409967E1,0E0,0E0,0E0,0E0,0E0,0E0,0E0,0E0],"parents":[2147483647,0,0,1,1,2,2,3,3,4,4,5,5,6,6],"right_children":[2,4,6,8,10,12,14,-1,-1,-1,-1,-1,-1,-1,-1],"split_conditions":[4.59E-1,-2E0,1.4E1,-4.9E0,2.4E1,8E0,-1.9E0,-5.755977E-4,2.9185899E-3,-8.4734295E-4,-3.5824187E-3,3.1825923E-3,1.5357701E-4,5.798458E-3,3.5475385E-3],"split_indices":[3,77,80,25,51,51,77,0,0,0,0,0,0,0,0],"split_type":[0,0,0,0,0,0,0,0,0,0,0,0,0,0,0],"sum_hessian":[6.6804224E3,2.4494827E3,4.23094E3,7.7449615E2,1.6749866E3,2.2464905E3,1.9844495E3,3.429999E2,4.3149625E2,6.824996E2,9.92487E2,9.259905E2,1.3205E3,1.1719598E3,8.1248956E2],"tree_param":{"num_deleted":"0","num_feature":"106","num_nodes":"15","size_leaf_vector":"1"}},{"base_weights":[-1.4471819E-1,1.2419257E-1,-3.0039865E-1,-1.358704E-1,2.4445337E-1,-1.3889822E-1,-4.830742E-1,5.6986045E-4,-2.8895463E-3,8.388847E-4,3.546768E-3,-3.1508966E-3,-1.5204158E-4,-5.7411087E-3,-3.5122405E-3],"categories":[],"categories_nodes":[],"categories_segments":[],"categories_sizes":[],"default_left":[0,0,0,0,0,0,0,0,0,0,0,0,0,0,0],"id":4,"left_children":[1,3,5,7,9,11,13,-1,-1,-1,-1,-1,-1,-1,-1],"loss_changes":[2.797398E2,7.667139E1,1.2477908E2,2.2911322E1,2.9631172E1,4.8976032E1,2.3628265E1,0E0,0E0,0E0,0E0,0E0,0E0,0E0,0E0],"parents":[2147483647,0,0,1,1,2,2,3,3,4,4,5,5,6,6],"right_children":[2,4,6,8,10,12,14,-1,-1,-1,-1,-1,-1,-1,-1],"split_conditions":[4.59E-1,-2E0,1.4E1,-4.9E0,2.4E1,8E0,-1.9E0,5.6986045E-4,-2.8895463E-3,8.388847E-4,3.546768E-3,-3.1508966E-3,-1.5204158E-4,-5.7411087E-3,-3.5122405E-3],"split_indices":[3,77,80,25,51,51,77,0,0,0,0,0,0,0,0],"split_type":[0,0,0,0,0,0,0,0,0,0,0,0,0,0,0],"sum_hessian":[6.680193E3,2.4494312E3,4.230761E3,7.744847E2,1.6749465E3,2.246462E3,1.9842994E3,3.4299954E2,4.3148517E2,6.82498E2,9.9244855E2,9.2596216E2,1.3204999E3,1.1718408E3,8.124587E2],"tree_param":{"num_deleted":"0","num_feature":"106","num_nodes":"15","size_leaf_vector":"1"}},{"base_weights":[1.4471821E-1,-1.2419252E-1,3.0039868E-1,1.3587044E-1,-2.4445331E-1,1.3889825E-1,4.830742E-1,-5.698595E-4,2.8895463E-3,-8.388835E-4,-3.546768E-3,3.1508976E-3,1.5204158E-4,5.7411087E-3,3.5122405E-3],"categories":[],"categories_nodes":[],"categories_segments":[],"categories_sizes":[],"default_left":[0,0,0,0,0,0,0,0,0,0,0,0,0,0,0],"id":5,"left_children":[1,3,5,7,9,11,13,-1,-1,-1,-1,-1,-1,-1,-1],"loss_changes":[2.7973975E2,7.667138E1,1.2477908E2,2.291131E1,2.9631195E1,4.8976055E1,2.3628265E1,0E0,0E0,0E0,0E0,0E0,0E0,0E0,0E0],"parents":[2147483647,0,0,1,1,2,2,3,3,4,4,5,5,6,6],"right_children":[2,4,6,8,10,12,14,-1,-1,-1,-1,-1,-1,-1,-1],"split_conditions":[4.59E-1,-2E0,1.4E1,-4.9E0,2.4E1,8E0,-1.9E0,-5.698595E-4,2.8895463E-3,-8.388835E-4,-3.546768E-3,3.1508976E-3,1.5204158E-4,5.7411087E-3,3.5122405E-3],"split_indices":[3,77,80,25,51,51,77,0,0,0,0,0,0,0,0],"split_type":[0,0,0,0,0,0,0,0,0,0,0,0,0,0,0],"sum_hessian":[6.680193E3,2.4494312E3,4.230761E3,7.7448474E2,1.6749465E3,2.246462E3,1.9842994E3,3.4299957E2,4.3148517E2,6.82498E2,9.9244855E2,9.259621E2,1.3204999E3,1.1718408E3,8.124587E2],"tree_param":{"num_deleted":"0","num_feature":"106","num_nodes":"15","size_leaf_vector":"1"}},{"base_weights":[-1.4328076E-1,1.2295572E-1,-2.9741836E-1,-1.3451801E-1,2.4202093E-1,-1.3751361E-1,-4.783077E-1,5.6417857E-4,-2.8608388E-3,8.3050993E-4,3.5115604E-3,-3.1195795E-3,-1.5052194E-4,-5.6846985E-3,-3.4773787E-3],"categories":[],"categories_nodes":[],"categories_segments":[],"categories_sizes":[],"default_left":[0,0,0,0,0,0,0,0,0,0,0,0,0,0,0],"id":6,"left_children":[1,3,5,7,9,11,13,-1,-1,-1,-1,-1,-1,-1,-1],"loss_changes":[2.7419754E2,7.5150795E1,1.2232977E2,2.245763E1,2.9046028E1,4.8006165E1,2.3171265E1,0E0,0E0,0E0,0E0,0E0,0E0,0E0,0E0],"parents":[2147483647,0,0,1,1,2,2,3,3,4,4,5,5,6,6],"right_children":[2,4,6,8,10,12,14,-1,-1,-1,-1,-1,-1,-1,-1],"split_conditions":[4.59E-1,-2E0,1.4E1,-4.9E0,2.4E1,8E0,-1.9E0,5.6417857E-4,-2.8608388E-3,8.3050993E-4,3.5115604E-3,-3.1195795E-3,-1.5052194E-4,-5.6846985E-3,-3.4773787E-3],"split_indices":[3,77,80,25,51,51,77,0,0,0,0,0,0,0,0],"split_type":[0,0,0,0,0,0,0,0,0,0,0,0,0,0,0],"sum_hessian":[6.6798154E3,2.449347E3,4.2304688E3,7.744659E2,1.674881E3,2.2464153E3,1.9840533E3,3.42999E2,4.3146692E2,6.824956E2,9.923854E2,9.259156E2,1.3204998E3,1.1716454E3,8.12408E2],"tree_param":{"num_deleted":"0","num_feature":"106","num_nodes":"15","size_leaf_vector":"1"}},{"base_weights":[1.4328077E-1,-1.2295574E-1,2.974184E-1,1.3451801E-1,-2.4202098E-1,1.3751365E-1,4.783077E-1,-5.6417857E-4,2.8608388E-3,-8.3051086E-4,-3.5115604E-3,3.1195795E-3,1.5052283E-4,5.6846975E-3,3.4773797E-3],"categories":[],"categories_nodes":[],"categories_segments":[],"categories_sizes":[],"default_left":[0,0,0,0,0,0,0,0,0,0,0,0,0,0,0],"id":7,"left_children":[1,3,5,7,9,11,13,-1,-1,-1,-1,-1,-1,-1,-1],"loss_changes":[2.7419757E2,7.515082E1,1.2232971E2,2.245763E1,2.9046005E1,4.8006138E1,2.3171204E1,0E0,0E0,0E0,0E0,0E0,0E0,0E0,0E0],"parents":[2147483647,0,0,1,1,2,2,3,3,4,4,5,5,6,6],"right_children":[2,4,6,8,10,12,14,-1,-1,-1,-1,-1,-1,-1,-1],"split_conditions":[4.59E-1,-2E0,1.4E1,-4.9E0,2.4E1,8E0,-1.9E0,-5.6417857E-4,2.8608388E-3,-8.3051086E-4,-3.5115604E-3,3.1195795E-3,1.5052283E-4,5.6846975E-3,3.4773797E-3],"split_indices":[3,77,80,25,51,51,77,0,0,0,0,0,0,0,0],"split_type":[0,0,0,0,0,0,0,0,0,0,0,0,0,0,0],"sum_hessian":[6.6798154E3,2.449347E3,4.2304688E3,7.744659E2,1.6748809E3,2.2464153E3,1.9840533E3,3.42999E2,4.3146692E2,6.8249554E2,9.923854E2,9.259156E2,1.3204996E3,1.1716454E3,8.1240796E2],"tree_param":{"num_deleted":"0","num_feature":"106","num_nodes":"15","size_leaf_vector":"1"}},{"base_weights":[-1.418607E-1,1.2173288E-1,-2.944755E-1,-1.3318026E-1,2.3961642E-1,-5.394652E-1,-1.7863394E-1,5.5855524E-4,-2.832462E-3,8.22222E-4,3.4767874E-3,-4.400809E-3,-6.4093987E-3,-3.5951948E-3,-5.1929057E-4],"categories":[],"categories_nodes":[],"categories_segments":[],"categories_sizes":[],"default_left":[0,0,0,0,0,0,0,0,0,0,0,0,0,0,0],"id":8,"left_children":[1,3,5,7,9,11,13,-1,-1,-1,-1,-1,-1,-1,-1],"loss_changes":[2.6877264E2,7.366149E1,1.199812E2,2.2013374E1,2.8473892E1,1.3411804E1,6.585572E1,0E0,0E0,0E0,0E0,0E0,0E0,0E0,0E0],"parents":[2147483647,0,0,1,1,2,2,3,3,4,4,5,5,6,6],"right_children":[2,4,6,8,10,12,14,-1,-1,-1,-1,-1,-1,-1,-1],"split_conditions":[4.59E-1,-2E0,-1.4E0,-4.9E0,2.4E1,2.3E1,8E0,5.5855524E-4,-2.832462E-3,8.22222E-4,3.4767874E-3,-4.400809E-3,-6.4093987E-3,-3.5951948E-3,-5.1929057E-4],"split_indices":[3,77,77,25,51,1,51,0,0,0,0,0,0,0,0],"split_type":[0,0,0,0,0,0,0,0,0,0,0,0,0,0,0],"sum_hessian":[6.6792954E3,2.4492305E3,4.230065E3,7.7444E2,1.6747904E3,1.3568494E3,2.8732156E3,3.429982E2,4.3144177E2,6.8249225E2,9.922982E2,6.8818146E2,6.686679E2,1.182799E3,1.6904165E3],"tree_param":{"num_deleted":"0","num_feature":"106","num_nodes":"15","size_leaf_vector":"1"}},{"base_weights":[1.4186068E-1,-1.2173285E-1,2.9447547E-1,1.3318028E-1,-2.3961638E-1,5.3946507E-1,1.7863393E-1,-5.5855495E-4,2.832462E-3,-8.222211E-4,-3.4767874E-3,4.4008074E-3,6.4093973E-3,3.595194E-3,5.192906E-4],"categories":[],"categories_nodes":[],"categories_segments":[],"categories_sizes":[],"default_left":[0,0,0,0,0,0,0,0,0,0,0,0,0,0,0],"id":9,"left_children":[1,3,5,7,9,11,13,-1,-1,-1,-1,-1,-1,-1,-1],"loss_changes":[2.6877252E2,7.366148E1,1.1998114E2,2.201337E1,2.8473923E1,1.3411835E1,6.585569E1,0E0,0E0,0E0,0E0,0E0,0E0,0E0,0E0],"parents":[2147483647,0,0,1,1,2,2,3,3,4,4,5,5,6,6],"right_children":[2,4,6,8,10,12,14,-1,-1,-1,-1,-1,-1,-1,-1],"split_conditions":[4.59E-1,-2E0,-1.4E0,-4.9E0,2.4E1,2.3E1,8E0,-5.5855495E-4,2.832462E-3,-8.222211E-4,-3.4767874E-3,4.4008074E-3,6.4093973E-3,3.595194E-3,5.192906E-4],"split_indices":[3,77,77,25,51,1,51,0,0,0,0,0,0,0,0],"split_type":[0,0,0,0,0,0,0,0,0,0,0,0,0,0,0],"sum_hessian":[6.6792954E3,2.4492305E3,4.230065E3,7.7443994E2,1.6747905E3,1.3568494E3,2.8732153E3,3.4299817E2,4.3144177E2,6.8249225E2,9.922982E2,6.8818146E2,6.686679E2,1.1827991E3,1.6904164E3],"tree_param":{"num_deleted":"0","num_feature":"106","num_nodes":"15","size_leaf_vector":"1"}},{"base_weights":[-1.4045754E-1,1.2052365E-1,-2.915682E-1,-1.3185705E-1,2.3723911E-1,-1.3426921E-1,-4.695626E-1,5.5298686E-4,-2.8044106E-3,8.140159E-4,3.4424386E-3,-3.0527299E-3,-1.4244173E-4,-5.5765784E-3,-3.4202763E-3],"categories":[],"categories_nodes":[],"categories_segments":[],"categories_sizes":[],"default_left":[0,0,0,0,0,0,0,0,0,0,0,0,0,0,0],"id":10,"left_children":[1,3,5,7,9,11,13,-1,-1,-1,-1,-1,-1,-1,-1],"loss_changes":[2.6346112E2,7.220271E1,1.1838605E2,2.15783E1,2.7914467E1,4.61199E1,2.2103577E1,0E0,0E0,0E0,0E0,0E0,0E0,0E0,0E0],"parents":[2147483647,0,0,1,1,2,2,3,3,4,4,5,5,6,6],"right_children":[2,4,6,8,10,12,14,-1,-1,-1,-1,-1,-1,-1,-1],"split_conditions":[4.59E-1,-2E0,1.4E1,-4.9E0,2.4E1,8E0,-1.9E0,5.5298686E-4,-2.8044106E-3,8.140159E-4,3.4424386E-3,-3.0527299E-3,-1.4244173E-4,-5.5765784E-3,-3.4202763E-3],"split_indices":[3,77,80,25,51,51,77,0,0,0,0,0,0,0,0],"split_type":[0,0,0,0,0,0,0,0,0,0,0,0,0,0,0],"sum_hessian":[6.678659E3,2.449083E3,4.229576E3,7.744071E2,1.6746759E3,2.2462515E3,1.983325E3,3.4299722E2,4.314099E2,6.82488E2,9.9218787E2,9.257542E2,1.3204972E3,1.171047E3,8.1227795E2],"tree_param":{"num_deleted":"0","num_feature":"106","num_nodes":"15","size_leaf_vector":"1"}},{"base_weights":[1.4045756E-1,-1.2052364E-1,2.915682E-1,1.3185708E-1,-2.372391E-1,1.3426924E-1,4.6956256E-1,-5.5298686E-4,2.8044109E-3,-8.140168E-4,-3.4424379E-3,3.0527308E-3,1.4244173E-4,5.5765784E-3,3.4202756E-3],"categories":[],"categories_nodes":[],"categories_segments":[],"categories_sizes":[],"default_left":[0,0,0,0,0,0,0,0,0,0,0,0,0,0,0],"id":11,"left_children":[1,3,5,7,9,11,13,-1,-1,-1,-1,-1,-1,-1,-1],"loss_changes":[2.6346112E2,7.220271E1,1.1838599E2,2.1578304E1,2.7914444E1,4.611992E1,2.2103638E1,0E0,0E0,0E0,0E0,0E0,0E0,0E0,0E0],"parents":[2147483647,0,0,1,1,2,2,3,3,4,4,5,5,6,6],"right_children":[2,4,6,8,10,12,14,-1,-1,-1,-1,-1,-1,-1,-1],"split_conditions":[4.59E-1,-2E0,1.4E1,-4.9E0,2.4E1,8E0,-1.9E0,-5.5298686E-4,2.8044109E-3,-8.140168E-4,-3.4424379E-3,3.0527308E-3,1.4244173E-4,5.5765784E-3,3.4202756E-3],"split_indices":[3,77,80,25,51,51,77,0,0,0,0,0,0,0,0],"split_type":[0,0,0,0,0,0,0,0,0,0,0,0,0,0,0],"sum_hessian":[6.678659E3,2.449083E3,4.229576E3,7.7440717E2,1.6746759E3,2.2462515E3,1.9833251E3,3.4299722E2,4.3140994E2,6.82488E2,9.9218787E2,9.257542E2,1.3204972E3,1.171047E3,8.1227795E2],"tree_param":{"num_deleted":"0","num_feature":"106","num_nodes":"15","size_leaf_vector":"1"}},{"base_weights":[-1.3907106E-1,-3.395531E-1,5.4253057E-2,-1.9526862E-1,-5.064403E-1,-1.9232807E-1,1.8765356E-1,-2.7807115E-3,-2.6909873E-4,-4.095772E-3,-6.3937926E-3,5.7269447E-4,-3.2502392E-3,6.29974E-4,3.5000157E-3],"categories":[],"categories_nodes":[],"categories_segments":[],"categories_sizes":[],"default_left":[0,0,0,0,0,0,0,0,0,0,0,0,0,0,0],"id":12,"left_children":[1,3,5,7,9,11,13,-1,-1,-1,-1,-1,-1,-1,-1],"loss_changes":[2.5887823E2,7.885391E1,1.1190861E2,2.4529945E1,1.9307434E1,3.9580612E1,4.4652863E1,0E0,0E0,0E0,0E0,0E0,0E0,0E0,0E0],"parents":[2147483647,0,0,1,1,2,2,3,3,4,4,5,5,6,6],"right_children":[2,4,6,8,10,12,14,-1,-1,-1,-1,-1,-1,-1,-1],"split_conditions":[1.5E1,1.4E1,-1.4E0,5.3E0,2.3E1,-4.7E0,2.4E1,-2.7807115E-3,-2.6909873E-4,-4.095772E-3,-6.3937926E-3,5.7269447E-4,-3.2502392E-3,6.29974E-4,3.5000157E-3],"split_indices":[51,80,77,77,80,25,51,0,0,0,0,0,0,0,0],"split_type":[0,0,0,0,0,0,0,0,0,0,0,0,0,0,0],"sum_hessian":[6.6778716E3,3.277875E3,3.3999963E3,1.7591495E3,1.5187255E3,1.1934847E3,2.2065115E3,1.1787584E3,5.803912E2,8.809332E2,6.3779224E2,4.1446158E2,7.7902313E2,1.2489299E3,9.5758154E2],"tree_param":{"num_deleted":"0","num_feature":"106","num_nodes":"15","size_leaf_vector":"1"}},{"base_weights":[1.3907109E-1,3.3955312E-1,-5.425301E-2,1.9526862E-1,5.0644034E-1,1.9232811E-1,-1.876535E-1,2.7807115E-3,2.6909873E-4,4.095772E-3,6.3937926E-3,-5.7269435E-4,3.2502396E-3,-6.29974E-4,-3.5000145E-3],"categories":[],"categories_nodes":[],"categories_segments":[],"categories_sizes":[],"default_left":[0,0,0,0,0,0,0,0,0,0,0,0,0,0,0],"id":13,"left_children":[1,3,5,7,9,11,13,-1,-1,-1,-1,-1,-1,-1,-1],"loss_changes":[2.5887817E2,7.885391E1,1.11908615E2,2.4529945E1,1.9307465E1,3.958062E1,4.4652817E1,0E0,0E0,0E0,0E0,0E0,0E0,0E0,0E0],"parents":[2147483647,0,0,1,1,2,2,3,3,4,4,5,5,6,6],"right_children":[2,4,6,8,10,12,14,-1,-1,-1,-1,-1,-1,-1,-1],"split_conditions":[1.5E1,1.4E1,-1.4E0,5.3E0,2.3E1,-4.7E0,2.4E1,2.7807115E-3,2.6909873E-4,4.095772E-3,6.3937926E-3,-5.7269435E-4,3.2502396E-3,-6.29974E-4,-3.5000145E-3],"split_indices":[51,80,77,77,80,25,51,0,0,0,0,0,0,0,0],"split_type":[0,0,0,0,0,0,0,0,0,0,0,0,0,0,0],"sum_hessian":[6.6778716E3,3.277875E3,3.3999963E3,1.7591495E3,1.5187255E3,1.1934847E3,2.2065115E3,1.1787584E3,5.803912E2,8.809333E2,6.3779224E2,4.1446158E2,7.7902313E2,1.2489299E3,9.5758154E2],"tree_param":{"num_deleted":"0","num_feature":"106","num_nodes":"15","size_leaf_vector":"1"}},{"base_weights":[-1.3769963E-1,1.1848261E-1,-2.8605205E-1,-1.2898752E-1,2.3293264E-1,-1.3161394E-1,-4.6088785E-1,5.417667E-4,-2.7443257E-3,8.045754E-4,3.3765633E-3,-3.0028815E-3,-1.3246431E-4,-5.474817E-3,-3.355835E-3],"categories":[],"categories_nodes":[],"categories_segments":[],"categories_sizes":[],"default_left":[0,0,0,0,0,0,0,0,0,0,0,0,0,0,0],"id":14,"left_children":[1,3,5,7,9,11,13,-1,-1,-1,-1,-1,-1,-1,-1],"loss_changes":[2.5383434E2,6.941283E1,1.141369E2,2.0669445E1,2.6725006E1,4.485991E1,2.1335907E1,0E0,0E0,0E0,0E0,0E0,0E0,0E0,0E0],"parents":[2147483647,0,0,1,1,2,2,3,3,4,4,5,5,6,6],"right_children":[2,4,6,8,10,12,14,-1,-1,-1,-1,-1,-1,-1,-1],"split_conditions":[4.59E-1,-2E0,1.4E1,-4.9E0,2.4E1,8E0,-1.9E0,5.417667E-4,-2.7443257E-3,8.045754E-4,3.3765633E-3,-3.0028815E-3,-1.3246431E-4,-5.474817E-3,-3.355835E-3],"split_indices":[3,77,80,25,51,51,77,0,0,0,0,0,0,0,0],"split_type":[0,0,0,0,0,0,0,0,0,0,0,0,0,0,0],"sum_hessian":[6.6770347E3,2.4487002E3,4.2283345E3,7.7431244E2,1.6743878E3,2.2460652E3,1.9822693E3,3.4299457E2,4.3131787E2,6.8248083E2,9.91907E2,9.255771E2,1.3204883E3,1.1702072E3,8.120622E2],"tree_param":{"num_deleted":"0","num_feature":"106","num_nodes":"15","size_leaf_vector":"1"}},{"base_weights":[1.3769963E-1,-1.1848265E-1,2.8605208E-1,1.2898743E-1,-2.3293266E-1,1.3161395E-1,4.6088785E-1,-5.4176763E-4,2.7443247E-3,-8.0457464E-4,-3.3765642E-3,3.0028813E-3,1.3246473E-4,5.474817E-3,3.3558353E-3],"categories":[],"categories_nodes":[],"categories_segments":[],"categories_sizes":[],"default_left":[0,0,0,0,0,0,0,0,0,0,0,0,0,0,0],"id":15,"left_children":[1,3,5,7,9,11,13,-1,-1,-1,-1,-1,-1,-1,-1],"loss_changes":[2.5383438E2,6.9412796E1,1.141369E2,2.0669443E1,2.6725044E1,4.4859894E1,2.1335907E1,0E0,0E0,0E0,0E0,0E0,0E0,0E0,0E0],"parents":[2147483647,0,0,1,1,2,2,3,3,4,4,5,5,6,6],"right_children":[2,4,6,8,10,12,14,-1,-1,-1,-1,-1,-1,-1,-1],"split_conditions":[4.59E-1,-2E0,1.4E1,-4.9E0,2.4E1,8E0,-1.9E0,-5.4176763E-4,2.7443247E-3,-8.0457464E-4,-3.3765642E-3,3.0028813E-3,1.3246473E-4,5.474817E-3,3.3558353E-3],"split_indices":[3,77,80,25,51,51,77,0,0,0,0,0,0,0,0],"split_type":[0,0,0,0,0,0,0,0,0,0,0,0,0,0,0],"sum_hessian":[6.6770347E3,2.4487002E3,4.2283345E3,7.7431244E2,1.6743878E3,2.2460652E3,1.9822693E3,3.4299457E2,4.313179E2,6.8248083E2,9.919069E2,9.25577E2,1.3204883E3,1.1702072E3,8.120622E2],"tree_param":{"num_deleted":"0","num_feature":"106","num_nodes":"15","size_leaf_vector":"1"}},{"base_weights":[-1.3634545E-1,-3.3332625E-1,5.356892E-2,-4.4065356E-1,-1.16819255E-1,-1.8842505E-1,1.8447314E-1,-3.632959E-3,-6.2829815E-3,-2.0677375E-3,2.1247605E-4,5.604303E-4,-3.1843903E-3,6.249674E-4,3.4337887E-3],"categories":[],"categories_nodes":[],"categories_segments":[],"categories_sizes":[],"default_left":[0,0,0,0,0,0,0,0,0,0,0,0,0,0,0],"id":16,"left_children":[1,3,5,7,9,11,13,-1,-1,-1,-1,-1,-1,-1,-1],"loss_changes":[2.4980113E2,7.611194E1,1.0775082E2,3.1575714E1,1.3512914E1,3.797361E1,4.275959E1,0E0,0E0,0E0,0E0,0E0,0E0,0E0,0E0],"parents":[2147483647,0,0,1,1,2,2,3,3,4,4,5,5,6,6],"right_children":[2,4,6,8,10,12,14,-1,-1,-1,-1,-1,-1,-1,-1],"split_conditions":[1.5E1,2.9E0,-1.4E0,2.3E1,9E0,-4.7E0,2.4E1,-3.632959E-3,-6.2829815E-3,-2.0677375E-3,2.1247605E-4,5.604303E-4,-3.1843903E-3,6.249674E-4,3.4337887E-3],"split_indices":[51,77,77,80,51,25,51,0,0,0,0,0,0,0,0],"split_type":[0,0,0,0,0,0,0,0,0,0,0,0,0,0,0],"sum_hessian":[6.676003E3,3.2766638E3,3.399339E3,2.1899983E3,1.0866656E3,1.1931683E3,2.206171E3,1.552788E3,6.372102E2,6.576744E2,4.2899127E2,4.1444586E2,7.7872253E2,1.2489032E3,9.5726764E2],"tree_param":{"num_deleted":"0","num_feature":"106","num_nodes":"15","size_leaf_vector":"1"}},{"base_weights":[1.3634545E-1,3.3332628E-1,-5.356895E-2,4.406536E-1,1.16819285E-1,1.8842506E-1,-1.8447319E-1,3.6329594E-3,6.282982E-3,2.0677375E-3,-2.1247541E-4,-5.604304E-4,3.1843905E-3,-6.249679E-4,-3.433789E-3],"categories":[],"categories_nodes":[],"categories_segments":[],"categories_sizes":[],"default_left":[0,0,0,0,0,0,0,0,0,0,0,0,0,0,0],"id":17,"left_children":[1,3,5,7,9,11,13,-1,-1,-1,-1,-1,-1,-1,-1],"loss_changes":[2.4980116E2,7.611197E1,1.0775085E2,3.1575775E1,1.3512907E1,3.7973618E1,4.2759575E1,0E0,0E0,0E0,0E0,0E0,0E0,0E0,0E0],"parents":[2147483647,0,0,1,1,2,2,3,3,4,4,5,5,6,6],"right_children":[2,4,6,8,10,12,14,-1,-1,-1,-1,-1,-1,-1,-1],"split_conditions":[1.5E1,2.9E0,-1.4E0,2.3E1,9E0,-4.7E0,2.4E1,3.6329594E-3,6.282982E-3,2.0677375E-3,-2.1247541E-4,-5.604304E-4,3.1843905E-3,-6.249679E-4,-3.433789E-3],"split_indices":[51,77,77,80,51,25,51,0,0,0,0,0,0,0,0],"split_type":[0,0,0,0,0,0,0,0,0,0,0,0,0,0,0],"sum_hessian":[6.676003E3,3.2766638E3,3.399339E3,2.1899983E3,1.0866656E3,1.1931683E3,2.206171E3,1.552788E3,6.3721014E2,6.576744E2,4.2899127E2,4.1444586E2,7.787225E2,1.2489031E3,9.572677E2],"tree_param":{"num_deleted":"0","num_feature":"106","num_nodes":"15","size_leaf_vector":"1"}},{"base_weights":[-1.350057E-1,-3.3007187E-1,5.3039018E-2,-1.8960708E-1,-4.9267915E-1,-1.865669E-1,1.8264611E-1,-2.7106882E-3,-2.3999641E-4,-4.2748163E-3,-6.8216175E-3,5.548432E-4,-3.1531933E-3,6.1872305E-4,3.400162E-3],"categories":[],"categories_nodes":[],"categories_segments":[],"categories_sizes":[],"default_left":[0,0,0,0,0,0,0,0,0,0,0,0,0,0,0],"id":18,"left_children":[1,3,5,7,9,11,13,-1,-1,-1,-1,-1,-1,-1,-1],"loss_changes":[2.4489798E2,7.475345E1,1.0561974E2,2.3734283E1,1.8463043E1,3.722865E1,4.1925255E1,0E0,0E0,0E0,0E0,0E0,0E0,0E0,0E0],"parents":[2147483647,0,0,1,1,2,2,3,3,4,4,5,5,6,6],"right_children":[2,4,6,8,10,12,14,-1,-1,-1,-1,-1,-1,-1,-1],"split_conditions":[1.5E1,1.4E1,-1.4E0,5.3E0,2.6E1,-4.7E0,2.4E1,-2.7106882E-3,-2.3999641E-4,-4.2748163E-3,-6.8216175E-3,5.548432E-4,-3.1531933E-3,6.1872305E-4,3.400162E-3],"split_indices":[51,80,77,77,80,25,51,0,0,0,0,0,0,0,0],"split_type":[0,0,0,0,0,0,0,0,0,0,0,0,0,0,0],"sum_hessian":[6.6749194E3,3.2759219E3,3.3989978E3,1.7587928E3,1.517129E3,1.1930166E3,2.2059812E3,1.1784705E3,5.803224E2,1.1311702E3,3.8595883E2,4.1444324E2,7.7857336E2,1.2489028E3,9.5707825E2],"tree_param":{"num_deleted":"0","num_feature":"106","num_nodes":"15","size_leaf_vector":"1"}},{"base_weights":[1.3500567E-1,3.300718E-1,-5.303903E-2,1.8960702E-1,4.9267912E-1,1.8656696E-1,-1.8264617E-1,2.7106875E-3,2.3999574E-4,4.2748163E-3,6.8216175E-3,-5.548432E-4,3.1531944E-3,-6.1872334E-4,-3.400163E-3],"categories":[],"categories_nodes":[],"categories_segments":[],"categories_sizes":[],"default_left":[0,0,0,0,0,0,0,0,0,0,0,0,0,0,0],"id":19,"left_children":[1,3,5,7,9,11,13,-1,-1,-1,-1,-1,-1,-1,-1],"loss_changes":[2.4489795E2,7.475342E1,1.056198E2,2.3734272E1,1.8463104E1,3.7228664E1,4.192527E1,0E0,0E0,0E0,0E0,0E0,0E0,0E0,0E0],"parents":[2147483647,0,0,1,1,2,2,3,3,4,4,5,5,6,6],"right_children":[2,4,6,8,10,12,14,-1,-1,-1,-1,-1,-1,-1,-1],"split_conditions":[1.5E1,1.4E1,-1.4E0,5.3E0,2.6E1,-4.7E0,2.4E1,2.7106875E-3,2.3999574E-4,4.2748163E-3,6.8216175E-3,-5.548432E-4,3.1531944E-3,-6.1872334E-4,-3.400163E-3],"split_indices":[51,80,77,77,80,25,51,0,0,0,0,0,0,0,0],"split_type":[0,0,0,0,0,0,0,0,0,0,0,0,0,0,0],"sum_hessian":[6.6749194E3,3.2759219E3,3.3989976E3,1.7587928E3,1.517129E3,1.1930166E3,2.205981E3,1.1784706E3,5.803224E2,1.1311702E3,3.859588E2,4.1444324E2,7.7857336E2,1.2489028E3,9.5707825E2],"tree_param":{"num_deleted":"0","num_feature":"106","num_nodes":"15","size_leaf_vector":"1"}},{"base_weights":[-1.3368164E-1,1.1565224E-1,-2.7810723E-1,-4.257085E-2,2.8606987E-1,-1.275604E-1,-4.4868895E-1,1.378391E-3,-1.9411774E-3,1.5638333E-3,3.7917388E-3,-2.9278286E-3,-1.1657723E-4,-5.331881E-3,-3.2652265E-3],"categories":[],"categories_nodes":[],"categories_segments":[],"categories_sizes":[],"default_left":[0,0,0,0,0,0,0,0,0,0,0,0,0,0,0],"id":20,"left_children":[1,3,5,7,9,11,13,-1,-1,-1,-1,-1,-1,-1,-1],"loss_changes":[2.4039041E2,6.604448E1,1.0848984E2,3.4769993E1,1.4178116E1,4.301956E1,2.0277344E1,0E0,0E0,0E0,0E0,0E0,0E0,0E0,0E0],"parents":[2147483647,0,0,1,1,2,2,3,3,4,4,5,5,6,6],"right_children":[2,4,6,8,10,12,14,-1,-1,-1,-1,-1,-1,-1,-1],"split_conditions":[4.59E-1,5.14E-1,1.4E1,-4.9E0,2.4E1,8E0,-1.9E0,1.378391E-3,-1.9411774E-3,1.5638333E-3,3.7917388E-3,-2.9278286E-3,-1.1657723E-4,-5.331881E-3,-3.2652265E-3],"split_indices":[3,55,80,25,51,51,77,0,0,0,0,0,0,0,0],"split_type":[0,0,0,0,0,0,0,0,0,0,0,0,0,0,0],"sum_hessian":[6.6737285E3,2.4479053E3,4.225823E3,1.2697576E3,1.1781476E3,2.2456626E3,1.9801608E3,5.797185E2,6.900391E2,4.9346683E2,6.846808E2,9.2521576E2,1.3204469E3,1.1685448E3,8.116159E2],"tree_param":{"num_deleted":"0","num_feature":"106","num_nodes":"15","size_leaf_vector":"1"}},{"base_weights":[1.3368165E-1,-1.1565228E-1,2.7810726E-1,4.257082E-2,-2.8606993E-1,1.2756042E-1,4.4868898E-1,-1.3783916E-3,1.9411772E-3,-1.563834E-3,-3.7917388E-3,2.927829E-3,1.1657752E-4,5.3318813E-3,3.2652272E-3],"categories":[],"categories_nodes":[],"categories_segments":[],"categories_sizes":[],"default_left":[0,0,0,0,0,0,0,0,0,0,0,0,0,0,0],"id":21,"left_children":[1,3,5,7,9,11,13,-1,-1,-1,-1,-1,-1,-1,-1],"loss_changes":[2.4039049E2,6.604448E1,1.084899E2,3.477E1,1.4178116E1,4.301956E1,2.0277313E1,0E0,0E0,0E0,0E0,0E0,0E0,0E0,0E0],"parents":[2147483647,0,0,1,1,2,2,3,3,4,4,5,5,6,6],"right_children":[2,4,6,8,10,12,14,-1,-1,-1,-1,-1,-1,-1,-1],"split_conditions":[4.59E-1,5.14E-1,1.4E1,-4.9E0,2.4E1,8E0,-1.9E0,-1.3783916E-3,1.9411772E-3,-1.563834E-3,-3.7917388E-3,2.927829E-3,1.1657752E-4,5.3318813E-3,3.2652272E-3],"split_indices":[3,55,80,25,51,51,77,0,0,0,0,0,0,0,0],"split_type":[0,0,0,0,0,0,0,0,0,0,0,0,0,0,0],"sum_hessian":[6.6737285E3,2.4479053E3,4.225823E3,1.2697576E3,1.1781476E3,2.2456626E3,1.9801606E3,5.7971844E2,6.900391E2,4.934668E2,6.846808E2,9.2521576E2,1.3204469E3,1.1685448E3,8.1161584E2],"tree_param":{"num_deleted":"0","num_feature":"106","num_nodes":"15","size_leaf_vector":"1"}},{"base_weights":[-1.323723E-1,-3.240612E-1,5.236737E-2,-4.2892438E-1,-1.1269747E-1,-1.831289E-1,1.7973489E-1,-3.5344495E-3,-6.122308E-3,-2.0076756E-3,2.2433694E-4,5.3731905E-4,-3.091751E-3,6.140677E-4,3.339791E-3],"categories":[],"categories_nodes":[],"categories_segments":[],"categories_sizes":[],"default_left":[0,0,0,0,0,0,0,0,0,0,0,0,0,0,0],"id":22,"left_children":[1,3,5,7,9,11,13,-1,-1,-1,-1,-1,-1,-1,-1],"loss_changes":[2.3633937E2,7.2545105E1,1.019894E2,3.0067444E1,1.2946284E1,3.565274E1,4.0252E1,0E0,0E0,0E0,0E0,0E0,0E0,0E0,0E0],"parents":[2147483647,0,0,1,1,2,2,3,3,4,4,5,5,6,6],"right_children":[2,4,6,8,10,12,14,-1,-1,-1,-1,-1,-1,-1,-1],"split_conditions":[1.5E1,2.9E0,-1.4E0,2.3E1,9E0,-4.7E0,2.4E1,-3.5344495E-3,-6.122308E-3,-2.0076756E-3,2.2433694E-4,5.3731905E-4,-3.091751E-3,6.140677E-4,3.339791E-3],"split_indices":[51,77,77,80,51,25,51,0,0,0,0,0,0,0,0],"split_type":[0,0,0,0,0,0,0,0,0,0,0,0,0,0,0],"sum_hessian":[6.6724097E3,3.2742454E3,3.3981643E3,2.1877935E3,1.0864519E3,1.1926239E3,2.2055405E3,1.5517594E3,6.360341E2,6.574689E2,4.2898306E2,4.144258E2,7.7819806E2,1.2488704E3,9.566701E2],"tree_param":{"num_deleted":"0","num_feature":"106","num_nodes":"15","size_leaf_vector":"1"}},{"base_weights":[1.3237232E-1,3.2406121E-1,-5.2367367E-2,4.2892438E-1,1.1269747E-1,1.8312888E-1,-1.7973487E-1,3.5344495E-3,6.1223083E-3,2.0076756E-3,-2.2433694E-4,-5.3731905E-4,3.0917507E-3,-6.140675E-4,-3.339791E-3],"categories":[],"categories_nodes":[],"categories_segments":[],"categories_sizes":[],"default_left":[0,0,0,0,0,0,0,0,0,0,0,0,0,0,0],"id":23,"left_children":[1,3,5,7,9,11,13,-1,-1,-1,-1,-1,-1,-1,-1],"loss_changes":[2.3633939E2,7.2545105E1,1.0198938E2,3.0067413E1,1.2946283E1,3.5652737E1,4.0252007E1,0E0,0E0,0E0,0E0,0E0,0E0,0E0,0E0],"parents":[2147483647,0,0,1,1,2,2,3,3,4,4,5,5,6,6],"right_children":[2,4,6,8,10,12,14,-1,-1,-1,-1,-1,-1,-1,-1],"split_conditions":[1.5E1,2.9E0,-1.4E0,2.3E1,9E0,-4.7E0,2.4E1,3.5344495E-3,6.1223083E-3,2.0076756E-3,-2.2433694E-4,-5.3731905E-4,3.0917507E-3,-6.140675E-4,-3.339791E-3],"split_indices":[51,77,77,80,51,25,51,0,0,0,0,0,0,0,0],"split_type":[0,0,0,0,0,0,0,0,0,0,0,0,0,0,0],"sum_hessian":[6.6724097E3,3.2742454E3,3.3981643E3,2.1877935E3,1.0864519E3,1.1926238E3,2.2055405E3,1.5517594E3,6.360341E2,6.574689E2,4.2898306E2,4.144258E2,7.78198E2,1.2488704E3,9.566701E2],"tree_param":{"num_deleted":"0","num_feature":"106","num_nodes":"15","size_leaf_vector":"1"}},{"base_weights":[-1.3107833E-1,-3.2092085E-1,5.1850863E-2,-4.2481658E-1,-1.1157975E-1,-1.8132937E-1,1.7795943E-1,-3.500038E-3,-6.0660155E-3,-1.9878545E-3,2.2209852E-4,5.319635E-4,-3.0616233E-3,6.079329E-4,3.3072783E-3],"categories":[],"categories_nodes":[],"categories_segments":[],"categories_sizes":[],"default_left":[0,0,0,0,0,0,0,0,0,0,0,0,0,0,0],"id":24,"left_children":[1,3,5,7,9,11,13,-1,-1,-1,-1,-1,-1,-1,-1],"loss_changes":[2.3171973E2,7.116672E1,9.997522E1,2.9542603E1,1.2691096E1,3.4955803E1,3.9470963E1,0E0,0E0,0E0,0E0,0E0,0E0,0E0,0E0],"parents":[2147483647,0,0,1,1,2,2,3,3,4,4,5,5,6,6],"right_children":[2,4,6,8,10,12,14,-1,-1,-1,-1,-1,-1,-1,-1],"split_conditions":[1.5E1,2.9E0,-1.4E0,2.3E1,9E0,-4.7E0,2.4E1,-3.500038E-3,-6.0660155E-3,-1.9878545E-3,2.2209852E-4,5.319635E-4,-3.0616233E-3,6.079329E-4,3.3072783E-3],"split_indices":[51,77,77,80,51,25,51,0,0,0,0,0,0,0,0],"split_type":[0,0,0,0,0,0,0,0,0,0,0,0,0,0,0],"sum_hessian":[6.670989E3,3.2732651E3,3.3977236E3,2.1868867E3,1.0863785E3,1.1924303E3,2.2052935E3,1.5513578E3,6.3552893E2,6.573948E2,4.2898373E2,4.1442227E2,7.78008E2,1.2488684E3,9.56425E2],"tree_param":{"num_deleted":"0","num_feature":"106","num_nodes":"15","size_leaf_vector":"1"}},{"base_weights":[1.3107835E-1,3.2092083E-1,-5.185084E-2,4.2481655E-1,1.1157977E-1,1.8132941E-1,-1.7795943E-1,3.5000378E-3,6.0660155E-3,1.9878545E-3,-2.2209823E-4,-5.319634E-4,3.0616238E-3,-6.079327E-4,-3.3072783E-3],"categories":[],"categories_nodes":[],"categories_segments":[],"categories_sizes":[],"default_left":[0,0,0,0,0,0,0,0,0,0,0,0,0,0,0],"id":25,"left_children":[1,3,5,7,9,11,13,-1,-1,-1,-1,-1,-1,-1,-1],"loss_changes":[2.317197E2,7.116669E1,9.997525E1,2.9542572E1,1.2691093E1,3.4955814E1,3.9470978E1,0E0,0E0,0E0,0E0,0E0,0E0,0E0,0E0],"parents":[2147483647,0,0,1,1,2,2,3,3,4,4,5,5,6,6],"right_children":[2,4,6,8,10,12,14,-1,-1,-1,-1,-1,-1,-1,-1],"split_conditions":[1.5E1,2.9E0,-1.4E0,2.3E1,9E0,-4.7E0,2.4E1,3.5000378E-3,6.0660155E-3,1.9878545E-3,-2.2209823E-4,-5.319634E-4,3.0616238E-3,-6.079327E-4,-3.3072783E-3],"split_indices":[51,77,77,80,51,25,51,0,0,0,0,0,0,0,0],"split_type":[0,0,0,0,0,0,0,0,0,0,0,0,0,0,0],"sum_hessian":[6.670989E3,3.2732651E3,3.3977236E3,2.1868867E3,1.0863785E3,1.1924303E3,2.2052935E3,1.5513578E3,6.3552893E2,6.573948E2,4.2898376E2,4.1442227E2,7.78008E2,1.2488683E3,9.56425E2],"tree_param":{"num_deleted":"0","num_feature":"106","num_nodes":"15","size_leaf_vector":"1"}},{"base_weights":[-1.297992E-1,1.12891704E-1,-2.704294E-1,-4.1570216E-2,2.7928853E-1,-3.79614E-1,-4.5609977E-2,1.3352376E-3,-1.8867112E-3,4.2808126E-3,2.0309929E-3,-5.0895056E-3,-2.8060796E-3,-1.9652082E-3,9.0986735E-4],"categories":[],"categories_nodes":[],"categories_segments":[],"categories_sizes":[],"default_left":[0,0,0,0,0,0,0,0,0,0,0,0,0,0,0],"id":26,"left_children":[1,3,5,7,9,11,13,-1,-1,-1,-1,-1,-1,-1,-1],"loss_changes":[2.2769098E2,6.2927887E1,1.03657166E2,3.274509E1,1.3273689E1,3.625879E1,2.8502104E1,0E0,0E0,0E0,0E0,0E0,0E0,0E0,0E0],"parents":[2147483647,0,0,1,1,2,2,3,3,4,4,5,5,6,6],"right_children":[2,4,6,8,10,12,14,-1,-1,-1,-1,-1,-1,-1,-1],"split_conditions":[4.59E-1,5.14E-1,2.9E0,-4.9E0,-6.2E0,-1.9E0,9E0,1.3352376E-3,-1.8867112E-3,4.2808126E-3,2.0309929E-3,-5.0895056E-3,-2.8060796E-3,-1.9652082E-3,9.0986735E-4],"split_indices":[3,55,77,25,25,77,51,0,0,0,0,0,0,0,0],"split_type":[0,0,0,0,0,0,0,0,0,0,0,0,0,0,0],"sum_hessian":[6.6694556E3,2.446916E3,4.2225396E3,1.2693557E3,1.1775603E3,2.8417444E3,1.3807952E3,5.7957764E2,6.89778E2,3.9721188E2,7.803484E2,1.2303438E3,1.6114006E3,6.558163E2,7.249788E2],"tree_param":{"num_deleted":"0","num_feature":"106","num_nodes":"15","size_leaf_vector":"1"}},{"base_weights":[1.2979923E-1,-1.12891674E-1,2.704294E-1,4.157024E-2,-2.792885E-1,3.7961403E-1,4.5609985E-2,-1.3352376E-3,1.8867117E-3,-4.280812E-3,-2.0309926E-3,5.0895056E-3,2.8060796E-3,1.9652082E-3,-9.0986735E-4],"categories":[],"categories_nodes":[],"categories_segments":[],"categories_sizes":[],"default_left":[0,0,0,0,0,0,0,0,0,0,0,0,0,0,0],"id":27,"left_children":[1,3,5,7,9,11,13,-1,-1,-1,-1,-1,-1,-1,-1],"loss_changes":[2.2769095E2,6.2927864E1,1.03657166E2,3.2745094E1,1.3273689E1,3.625882E1,2.8502104E1,0E0,0E0,0E0,0E0,0E0,0E0,0E0,0E0],"parents":[2147483647,0,0,1,1,2,2,3,3,4,4,5,5,6,6],"right_children":[2,4,6,8,10,12,14,-1,-1,-1,-1,-1,-1,-1,-1],"split_conditions":[4.59E-1,5.14E-1,2.9E0,-4.9E0,-6.2E0,-1.9E0,9E0,-1.3352376E-3,1.8867117E-3,-4.280812E-3,-2.0309926E-3,5.0895056E-3,2.8060796E-3,1.9652082E-3,-9.0986735E-4],"split_indices":[3,55,77,25,25,77,51,0,0,0,0,0,0,0,0],"split_type":[0,0,0,0,0,0,0,0,0,0,0,0,0,0,0],"sum_hessian":[6.6694556E3,2.446916E3,4.2225396E3,1.2693557E3,1.1775603E3,2.8417444E3,1.3807952E3,5.7957764E2,6.89778E2,3.9721188E2,7.803484E2,1.2303439E3,1.6114006E3,6.5581635E2,7.2497876E2],"tree_param":{"num_deleted":"0","num_feature":"106","num_nodes":"15","size_leaf_vector":"1"}},{"base_weights":[-1.2853214E-1,-3.1517777E-1,5.125493E-2,-4.0398365E-1,-7.808695E-2,-1.7796478E-1,1.752016E-1,-3.336218E-3,-5.966374E-3,-2.0014062E-3,1.8733022E-4,5.154562E-4,-3.0019272E-3,6.0247537E-4,3.2515628E-3],"categories":[],"categories_nodes":[],"categories_segments":[],"categories_sizes":[],"default_left":[0,0,0,0,0,0,0,0,0,0,0,0,0,0,0],"id":28,"left_children":[1,3,5,7,9,11,13,-1,-1,-1,-1,-1,-1,-1,-1],"loss_changes":[2.2380066E2,6.886432E1,9.65638E1,3.2066772E1,1.055533E1,3.3480896E1,3.8003166E1,0E0,0E0,0E0,0E0,0E0,0E0,0E0,0E0],"parents":[2147483647,0,0,1,1,2,2,3,3,4,4,5,5,6,6],"right_children":[2,4,6,8,10,12,14,-1,-1,-1,-1,-1,-1,-1,-1],"split_conditions":[1.5E1,3.8E0,-1.4E0,2.3E1,6E0,-4.7E0,2.4E1,-3.336218E-3,-5.966374E-3,-2.0014062E-3,1.8733022E-4,5.154562E-4,-3.0019272E-3,6.0247537E-4,3.2515628E-3],"split_indices":[51,77,77,80,27,25,51,0,0,0,0,0,0,0,0],"split_type":[0,0,0,0,0,0,0,0,0,0,0,0,0,0,0],"sum_hessian":[6.6678936E3,3.2711755E3,3.3967178E3,2.3792778E3,8.918978E2,1.1919532E3,2.2047646E3,1.744775E3,6.345028E2,3.940639E2,4.9783392E2,4.144009E2,7.7755237E2,1.2488263E3,9.559383E2],"tree_param":{"num_deleted":"0","num_feature":"106","num_nodes":"15","size_leaf_vector":"1"}},{"base_weights":[1.2853214E-1,3.151778E-1,-5.125495E-2,4.039837E-1,7.808691E-2,1.7796476E-1,-1.7520161E-1,3.3362182E-3,5.966374E-3,2.0014055E-3,-1.8733036E-4,-5.1545707E-4,3.0019274E-3,-6.024759E-4,-3.2515626E-3],"categories":[],"categories_nodes":[],"categories_segments":[],"categories_sizes":[],"default_left":[0,0,0,0,0,0,0,0,0,0,0,0,0,0,0],"id":29,"left_children":[1,3,5,7,9,11,13,-1,-1,-1,-1,-1,-1,-1,-1],"loss_changes":[2.2380072E2,6.886435E1,9.6563805E1,3.206671E1,1.0555326E1,3.348092E1,3.8003136E1,0E0,0E0,0E0,0E0,0E0,0E0,0E0,0E0],"parents":[2147483647,0,0,1,1,2,2,3,3,4,4,5,5,6,6],"right_children":[2,4,6,8,10,12,14,-1,-1,-1,-1,-1,-1,-1,-1],"split_conditions":[1.5E1,3.8E0,-1.4E0,2.3E1,6E0,-4.7E0,2.4E1,3.3362182E-3,5.966374E-3,2.0014055E-3,-1.8733036E-4,-5.1545707E-4,3.0019274E-3,-6.024759E-4,-3.2515626E-3],"split_indices":[51,77,77,80,27,25,51,0,0,0,0,0,0,0,0],"split_type":[0,0,0,0,0,0,0,0,0,0,0,0,0,0,0],"sum_hessian":[6.6678936E3,3.2711755E3,3.3967178E3,2.3792778E3,8.918978E2,1.1919532E3,2.2047646E3,1.744775E3,6.345028E2,3.940639E2,4.9783392E2,4.144009E2,7.7755237E2,1.2488263E3,9.5593835E2],"tree_param":{"num_deleted":"0","num_feature":"106","num_nodes":"15","size_leaf_vector":"1"}},{"base_weights":[-1.2728146E-1,-2.4589601E-1,1.5081957E-1,-1.01228826E-1,-4.1176426E-1,-4.4213575E-3,3.1812286E-1,-2.590085E-3,1.6372159E-4,-5.5293376E-3,-3.3512064E-3,1.4245356E-3,-1.6177697E-3,4.601522E-3,2.2505806E-3],"categories":[],"categories_nodes":[],"categories_segments":[],"categories_sizes":[],"default_left":[0,0,0,0,0,0,0,0,0,0,0,0,0,0,0],"id":30,"left_children":[1,3,5,7,9,11,13,-1,-1,-1,-1,-1,-1,-1,-1],"loss_changes":[2.1996613E2,1.1211725E2,5.1791477E1,4.6353767E1,2.3371246E1,2.3950407E1,1.2582367E1,0E0,0E0,0E0,0E0,0E0,0E0,0E0,0E0],"parents":[2147483647,0,0,1,1,2,2,3,3,4,4,5,5,6,6],"right_children":[2,4,6,8,10,12,14,-1,-1,-1,-1,-1,-1,-1,-1],"split_conditions":[2E1,1.4E1,5.14E-1,9E0,8E0,-4.9E0,-6.1E0,-2.590085E-3,1.6372159E-4,-5.5293376E-3,-3.3512064E-3,1.4245356E-3,-1.6177697E-3,4.601522E-3,2.2505806E-3],"split_indices":[28,80,55,51,51,25,25,0,0,0,0,0,0,0,0],"split_type":[0,0,0,0,0,0,0,0,0,0,0,0,0,0,0],"sum_hessian":[6.666177E3,4.673128E3,1.9930486E3,2.4969475E3,2.1761807E3,1.0342969E3,9.587517E2,1.0658049E3,1.4311425E3,7.635631E2,1.4126176E3,5.3501306E2,4.9928375E2,3.779718E2,5.807799E2],"tree_param":{"num_deleted":"0","num_feature":"106","num_nodes":"15","size_leaf_vector":"1"}},{"base_weights":[1.2728144E-1,2.4589601E-1,-1.5081958E-1,1.0122879E-1,4.117643E-1,4.421362E-3,-3.181229E-1,2.5900842E-3,-1.637218E-4,5.529338E-3,3.3512064E-3,-1.4245356E-3,1.6177698E-3,-4.601522E-3,-2.2505813E-3],"categories":[],"categories_nodes":[],"categories_segments":[],"categories_sizes":[],"default_left":[0,0,0,0,0,0,0,0,0,0,0,0,0,0,0],"id":31,"left_children":[1,3,5,7,9,11,13,-1,-1,-1,-1,-1,-1,-1,-1],"loss_changes":[2.1996616E2,1.1211728E2,5.1791485E1,4.6353745E1,2.3371246E1,2.3950407E1,1.2582367E1,0E0,0E0,0E0,0E0,0E0,0E0,0E0,0E0],"parents":[2147483647,0,0,1,1,2,2,3,3,4,4,5,5,6,6],"right_children":[2,4,6,8,10,12,14,-1,-1,-1,-1,-1,-1,-1,-1],"split_conditions":[2E1,1.4E1,5.14E-1,9E0,8E0,-4.9E0,-6.1E0,2.5900842E-3,-1.637218E-4,5.529338E-3,3.3512064E-3,-1.4245356E-3,1.6177698E-3,-4.601522E-3,-2.2505813E-3],"split_indices":[28,80,55,51,51,25,25,0,0,0,0,0,0,0,0],"split_type":[0,0,0,0,0,0,0,0,0,0,0,0,0,0,0],"sum_hessian":[6.666177E3,4.673128E3,1.9930486E3,2.4969475E3,2.1761807E3,1.0342969E3,9.587517E2,1.065805E3,1.4311425E3,7.635631E2,1.4126176E3,5.3501306E2,4.9928378E2,3.779718E2,5.807799E2],"tree_param":{"num_deleted":"0","num_feature":"106","num_nodes":"15","size_leaf_vector":"1"}},{"base_weights":[-1.2604217E-1,-3.0941364E-1,5.051909E-2,-3.969683E-1,-7.5843595E-2,-1.7498907E-1,1.7244458E-1,-3.275237E-3,-5.87323E-3,-1.9580256E-3,1.9288276E-4,5.002904E-4,-2.9488604E-3,5.971336E-4,3.1957903E-3],"categories":[],"categories_nodes":[],"categories_segments":[],"categories_sizes":[],"default_left":[0,0,0,0,0,0,0,0,0,0,0,0,0,0,0],"id":32,"left_children":[1,3,5,7,9,11,13,-1,-1,-1,-1,-1,-1,-1,-1],"loss_changes":[2.1581848E2,6.683804E1,9.342163E1,3.124347E1,1.0191773E1,3.218686E1,3.655712E1,0E0,0E0,0E0,0E0,0E0,0E0,0E0,0E0],"parents":[2147483647,0,0,1,1,2,2,3,3,4,4,5,5,6,6],"right_children":[2,4,6,8,10,12,14,-1,-1,-1,-1,-1,-1,-1,-1],"split_conditions":[1.5E1,3.8E0,-1.4E0,2.3E1,6E0,-4.7E0,2.4E1,-3.275237E-3,-5.87323E-3,-1.9580256E-3,1.9288276E-4,5.002904E-4,-2.9488604E-3,5.971336E-4,3.1957903E-3],"split_indices":[51,77,77,80,27,25,51,0,0,0,0,0,0,0,0],"split_type":[0,0,0,0,0,0,0,0,0,0,0,0,0,0,0],"sum_hessian":[6.664458E3,3.2688115E3,3.3956465E3,2.377061E3,8.9175037E2,1.1914874E3,2.2041592E3,1.7436638E3,6.333973E2,3.9394153E2,4.9780887E2,4.143791E2,7.7710834E2,1.2487782E3,9.553809E2],"tree_param":{"num_deleted":"0","num_feature":"106","num_nodes":"15","size_leaf_vector":"1"}},{"base_weights":[1.2604216E-1,3.094136E-1,-5.0519083E-2,3.9696828E-1,7.584357E-2,1.7498906E-1,-1.7244457E-1,3.2752368E-3,5.87323E-3,1.9580254E-3,-1.9288292E-4,-5.002903E-4,2.94886E-3,-5.971334E-4,-3.1957899E-3],"categories":[],"categories_nodes":[],"categories_segments":[],"categories_sizes":[],"default_left":[0,0,0,0,0,0,0,0,0,0,0,0,0,0,0],"id":33,"left_children":[1,3,5,7,9,11,13,-1,-1,-1,-1,-1,-1,-1,-1],"loss_changes":[2.1581847E2,6.683801E1,9.342161E1,3.124347E1,1.0191772E1,3.2186855E1,3.655712E1,0E0,0E0,0E0,0E0,0E0,0E0,0E0,0E0],"parents":[2147483647,0,0,1,1,2,2,3,3,4,4,5,5,6,6],"right_children":[2,4,6,8,10,12,14,-1,-1,-1,-1,-1,-1,-1,-1],"split_conditions":[1.5E1,3.8E0,-1.4E0,2.3E1,6E0,-4.7E0,2.4E1,3.2752368E-3,5.87323E-3,1.9580254E-3,-1.9288292E-4,-5.002903E-4,2.94886E-3,-5.971334E-4,-3.1957899E-3],"split_indices":[51,77,77,80,27,25,51,0,0,0,0,0,0,0,0],"split_type":[0,0,0,0,0,0,0,0,0,0,0,0,0,0,0],"sum_hessian":[6.664458E3,3.2688115E3,3.3956465E3,2.377061E3,8.9175037E2,1.1914874E3,2.2041592E3,1.7436638E3,6.333973E2,3.939415E2,4.9780887E2,4.1437906E2,7.7710834E2,1.2487782E3,9.553809E2],"tree_param":{"num_deleted":"0","num_feature":"106","num_nodes":"15","size_leaf_vector":"1"}},{"base_weights":[-1.24819204E-1,-2.413431E-1,1.4831442E-1,-9.906456E-2,-4.0461564E-1,-4.3652356E-3,3.1290403E-1,-2.5424205E-3,1.6554713E-4,-5.439169E-3,-3.2903692E-3,1.3963091E-3,-1.5865124E-3,4.5284973E-3,2.2125647E-3],"categories":[],"categories_nodes":[],"categories_segments":[],"categories_sizes":[],"default_left":[0,0,0,0,0,0,0,0,0,0,0,0,0,0,0],"id":34,"left_children":[1,3,5,7,9,11,13,-1,-1,-1,-1,-1,-1,-1,-1],"loss_changes":[2.1211414E2,1.08474E2,5.0092007E1,4.4811867E1,2.2718048E1,2.3017439E1,1.220285E1,0E0,0E0,0E0,0E0,0E0,0E0,0E0,0E0],"parents":[2147483647,0,0,1,1,2,2,3,3,4,4,5,5,6,6],"right_children":[2,4,6,8,10,12,14,-1,-1,-1,-1,-1,-1,-1,-1],"split_conditions":[2E1,1.4E1,5.14E-1,9E0,8E0,-4.9E0,-6.1E0,-2.5424205E-3,1.6554713E-4,-5.439169E-3,-3.2903692E-3,1.3963091E-3,-1.5865124E-3,4.5284973E-3,2.2125647E-3],"split_indices":[28,80,55,51,51,25,25,0,0,0,0,0,0,0,0],"split_type":[0,0,0,0,0,0,0,0,0,0,0,0,0,0,0],"sum_hessian":[6.662557E3,4.6702554E3,1.9923016E3,2.4964297E3,2.1738257E3,1.0340503E3,9.5825134E2,1.0653627E3,1.431067E3,7.6241003E2,1.4114156E3,5.349101E2,4.9914014E2,3.776456E2,5.806058E2],"tree_param":{"num_deleted":"0","num_feature":"106","num_nodes":"15","size_leaf_vector":"1"}},{"base_weights":[1.248192E-1,2.413431E-1,-1.4831443E-1,9.906456E-2,4.0461564E-1,4.3652407E-3,-3.1290406E-1,2.5424205E-3,-1.6554713E-4,5.439169E-3,3.290369E-3,-1.396309E-3,1.5865123E-3,-4.5284983E-3,-2.2125647E-3],"categories":[],"categories_nodes":[],"categories_segments":[],"categories_sizes":[],"default_left":[0,0,0,0,0,0,0,0,0,0,0,0,0,0,0],"id":35,"left_children":[1,3,5,7,9,11,13,-1,-1,-1,-1,-1,-1,-1,-1],"loss_changes":[2.121141E2,1.08474E2,5.0092014E1,4.481187E1,2.2718048E1,2.3017431E1,1.2202866E1,0E0,0E0,0E0,0E0,0E0,0E0,0E0,0E0],"parents":[2147483647,0,0,1,1,2,2,3,3,4,4,5,5,6,6],"right_children":[2,4,6,8,10,12,14,-1,-1,-1,-1,-1,-1,-1,-1],"split_conditions":[2E1,1.4E1,5.14E-1,9E0,8E0,-4.9E0,-6.1E0,2.5424205E-3,-1.6554713E-4,5.439169E-3,3.290369E-3,-1.396309E-3,1.5865123E-3,-4.5284983E-3,-2.2125647E-3],"split_indices":[28,80,55,51,51,25,25,0,0,0,0,0,0,0,0],"split_type":[0,0,0,0,0,0,0,0,0,0,0,0,0,0,0],"sum_hessian":[6.6625566E3,4.6702554E3,1.9923015E3,2.4964297E3,2.1738257E3,1.0340502E3,9.5825134E2,1.0653627E3,1.431067E3,7.6241003E2,1.4114156E3,5.349101E2,4.9914014E2,3.7764557E2,5.806058E2],"tree_param":{"num_deleted":"0","num_feature":"106","num_nodes":"15","size_leaf_vector":"1"}},{"base_weights":[-1.236073E-1,-3.0377847E-1,4.9793813E-2,-3.9011598E-1,-7.365273E-2,-1.8982156E-1,1.6090591E-1,-3.2155956E-3,-5.7826648E-3,-3.3466874E-3,-3.0797368E-4,-2.902111E-4,-3.565758E-3,5.0771504E-4,3.028112E-3],"categories":[],"categories_nodes":[],"categories_segments":[],"categories_sizes":[],"default_left":[0,0,0,0,0,0,0,0,0,0,0,0,0,0,0],"id":36,"left_children":[1,3,5,7,9,11,13,-1,-1,-1,-1,-1,-1,-1,-1],"loss_changes":[2.0813788E2,6.488544E1,9.0431984E1,3.0456757E1,9.974129E0,2.8845936E1,3.6247917E1,0E0,0E0,0E0,0E0,0E0,0E0,0E0,0E0],"parents":[2147483647,0,0,1,1,2,2,3,3,4,4,5,5,6,6],"right_children":[2,4,6,8,10,12,14,-1,-1,-1,-1,-1,-1,-1,-1],"split_conditions":[1.5E1,3.8E0,-1.9E0,2.3E1,3E0,3.96E-1,2.4E1,-3.2155956E-3,-5.7826648E-3,-3.3466874E-3,-3.0797368E-4,-2.902111E-4,-3.565758E-3,5.0771504E-4,3.028112E-3],"split_indices":[51,77,77,80,33,3,51,0,0,0,0,0,0,0,0],"split_type":[0,0,0,0,0,0,0,0,0,0,0,0,0,0,0],"sum_hessian":[6.660659E3,3.266193E3,3.3944658E3,2.3746047E3,8.9158844E2,1.0751582E3,2.3193076E3,1.7424261E3,6.321785E2,1.247815E2,7.6680695E2,5.479482E2,5.2721E2,1.3065986E3,1.01270905E3],"tree_param":{"num_deleted":"0","num_feature":"106","num_nodes":"15","size_leaf_vector":"1"}},{"base_weights":[1.23607285E-1,3.0377844E-1,-4.9793832E-2,3.9011598E-1,7.365272E-2,1.8982154E-1,-1.6090593E-1,3.2155956E-3,5.7826648E-3,3.3466874E-3,3.079736E-4,2.9021094E-4,3.565758E-3,-5.077155E-4,-3.028112E-3],"categories":[],"categories_nodes":[],"categories_segments":[],"categories_sizes":[],"default_left":[0,0,0,0,0,0,0,0,0,0,0,0,0,0,0],"id":37,"left_children":[1,3,5,7,9,11,13,-1,-1,-1,-1,-1,-1,-1,-1],"loss_changes":[2.0813788E2,6.488544E1,9.0432E1,3.0456787E1,9.974131E0,2.8845928E1,3.6247906E1,0E0,0E0,0E0,0E0,0E0,0E0,0E0,0E0],"parents":[2147483647,0,0,1,1,2,2,3,3,4,4,5,5,6,6],"right_children":[2,4,6,8,10,12,14,-1,-1,-1,-1,-1,-1,-1,-1],"split_conditions":[1.5E1,3.8E0,-1.9E0,2.3E1,3E0,3.96E-1,2.4E1,3.2155956E-3,5.7826648E-3,3.3466874E-3,3.079736E-4,2.9021094E-4,3.565758E-3,-5.077155E-4,-3.028112E-3],"split_indices":[51,77,77,80,33,3,51,0,0,0,0,0,0,0,0],"split_type":[0,0,0,0,0,0,0,0,0,0,0,0,0,0,0],"sum_hessian":[6.660659E3,3.266193E3,3.394466E3,2.3746047E3,8.9158844E2,1.0751582E3,2.3193076E3,1.7424261E3,6.321785E2,1.247815E2,7.6680695E2,5.479482E2,5.272101E2,1.3065986E3,1.01270905E3],"tree_param":{"num_deleted":"0","num_feature":"106","num_nodes":"15","size_leaf_vector":"1"}},{"base_weights":[-1.22410834E-1,-2.3684433E-1,1.4574513E-1,-9.692463E-2,-3.975669E-1,-4.586233E-3,3.0786055E-1,-2.68715E-3,4.3390126E-5,-5.510313E-3,-3.3058422E-3,1.3721664E-3,-1.5652594E-3,4.458224E-3,2.1756953E-3],"categories":[],"categories_nodes":[],"categories_segments":[],"categories_sizes":[],"default_left":[0,0,0,0,0,0,0,0,0,0,0,0,0,0,0],"id":38,"left_children":[1,3,5,7,9,11,13,-1,-1,-1,-1,-1,-1,-1,-1],"loss_changes":[2.0439224E2,1.04938934E2,4.8561512E1,4.3437153E1,2.2147125E1,2.2317324E1,1.1845345E1,0E0,0E0,0E0,0E0,0E0,0E0,0E0,0E0],"parents":[2147483647,0,0,1,1,2,2,3,3,4,4,5,5,6,6],"right_children":[2,4,6,8,10,12,14,-1,-1,-1,-1,-1,-1,-1,-1],"split_conditions":[2E1,1.4E1,5.14E-1,8E0,7E0,-4.9E0,-6.1E0,-2.68715E-3,4.3390126E-5,-5.510313E-3,-3.3058422E-3,1.3721664E-3,-1.5652594E-3,4.458224E-3,2.1756953E-3],"split_indices":[28,80,55,51,51,25,25,0,0,0,0,0,0,0,0],"split_type":[0,0,0,0,0,0,0,0,0,0,0,0,0,0,0],"sum_hessian":[6.6586357E3,4.6671025E3,1.9915333E3,2.4958777E3,2.1712246E3,1.0338267E3,9.5770667E2,9.249973E2,1.5708805E3,6.575293E2,1.5136953E3,5.348017E2,4.990249E2,3.772868E2,5.8041986E2],"tree_param":{"num_deleted":"0","num_feature":"106","num_nodes":"15","size_leaf_vector":"1"}},{"base_weights":[1.22410804E-1,2.3684429E-1,-1.4574516E-1,9.6924596E-2,3.9756688E-1,4.586187E-3,-3.0786055E-1,2.6871497E-3,-4.3390475E-5,5.510312E-3,3.305842E-3,-1.3721667E-3,1.5652587E-3,-4.458224E-3,-2.1756955E-3],"categories":[],"categories_nodes":[],"categories_segments":[],"categories_sizes":[],"default_left":[0,0,0,0,0,0,0,0,0,0,0,0,0,0,0],"id":39,"left_children":[1,3,5,7,9,11,13,-1,-1,-1,-1,-1,-1,-1,-1],"loss_changes":[2.0439227E2,1.04938934E2,4.8561497E1,4.343715E1,2.2147095E1,2.231732E1,1.1845337E1,0E0,0E0,0E0,0E0,0E0,0E0,0E0,0E0],"parents":[2147483647,0,0,1,1,2,2,3,3,4,4,5,5,6,6],"right_children":[2,4,6,8,10,12,14,-1,-1,-1,-1,-1,-1,-1,-1],"split_conditions":[2E1,1.4E1,5.14E-1,8E0,7E0,-4.9E0,-6.1E0,2.6871497E-3,-4.3390475E-5,5.510312E-3,3.305842E-3,-1.3721667E-3,1.5652587E-3,-4.458224E-3,-2.1756955E-3],"split_indices":[28,80,55,51,51,25,25,0,0,0,0,0,0,0,0],"split_type":[0,0,0,0,0,0,0,0,0,0,0,0,0,0,0],"sum_hessian":[6.6586357E3,4.6671025E3,1.9915333E3,2.495878E3,2.1712246E3,1.0338267E3,9.577067E2,9.249974E2,1.5708805E3,6.575293E2,1.5136954E3,5.3480176E2,4.9902493E2,3.772868E2,5.8041986E2],"tree_param":{"num_deleted":"0","num_feature":"106","num_nodes":"15","size_leaf_vector":"1"}},{"base_weights":[-1.2122534E-1,-2.9831135E-1,4.912152E-2,-3.8345525E-1,-7.158278E-2,-1.693544E-1,1.6721663E-1,-3.1575942E-3,-5.6948964E-3,-3.292069E-3,-2.9301594E-4,-1.4134511E-4,-3.318054E-3,5.881057E-4,3.0887988E-3],"categories":[],"categories_nodes":[],"categories_segments":[],"categories_sizes":[],"default_left":[0,0,0,0,0,0,0,0,0,0,0,0,0,0,0],"id":40,"left_children":[1,3,5,7,9,11,13,-1,-1,-1,-1,-1,-1,-1,-1],"loss_changes":[2.0084741E2,6.2989594E1,8.7602264E1,2.9704285E1,9.711267E0,3.0038456E1,3.3825405E1,0E0,0E0,0E0,0E0,0E0,0E0,0E0,0E0],"parents":[2147483647,0,0,1,1,2,2,3,3,4,4,5,5,6,6],"right_children":[2,4,6,8,10,12,14,-1,-1,-1,-1,-1,-1,-1,-1],"split_conditions":[1.5E1,3.8E0,-1.4E0,2.3E1,3E0,3.96E-1,2.4E1,-3.1575942E-3,-5.6948964E-3,-3.292069E-3,-2.9301594E-4,-1.4134511E-4,-3.318054E-3,5.881057E-4,3.0887988E-3],"split_indices":[51,77,77,80,33,3,51,0,0,0,0,0,0,0,0],"split_type":[0,0,0,0,0,0,0,0,0,0,0,0,0,0,0],"sum_hessian":[6.6565767E3,3.2633613E3,3.3932153E3,2.3719329E3,8.9142847E2,1.1904497E3,2.2027656E3,1.7410735E3,6.308595E2,1.2471844E2,7.6671E2,6.093298E2,5.8111993E2,1.2486595E3,9.5410614E2],"tree_param":{"num_deleted":"0","num_feature":"106","num_nodes":"15","size_leaf_vector":"1"}},{"base_weights":[1.2122534E-1,2.9831135E-1,-4.912152E-2,3.8345522E-1,7.158277E-2,1.693544E-1,-1.6721661E-1,3.1575938E-3,5.694897E-3,3.2920693E-3,2.9301585E-4,1.4134488E-4,3.318054E-3,-5.881056E-4,-3.0887988E-3],"categories":[],"categories_nodes":[],"categories_segments":[],"categories_sizes":[],"default_left":[0,0,0,0,0,0,0,0,0,0,0,0,0,0,0],"id":41,"left_children":[1,3,5,7,9,11,13,-1,-1,-1,-1,-1,-1,-1,-1],"loss_changes":[2.0084741E2,6.2989563E1,8.760225E1,2.9704315E1,9.711268E0,3.003846E1,3.3825405E1,0E0,0E0,0E0,0E0,0E0,0E0,0E0,0E0],"parents":[2147483647,0,0,1,1,2,2,3,3,4,4,5,5,6,6],"right_children":[2,4,6,8,10,12,14,-1,-1,-1,-1,-1,-1,-1,-1],"split_conditions":[1.5E1,3.8E0,-1.4E0,2.3E1,3E0,3.96E-1,2.4E1,3.1575938E-3,5.694897E-3,3.2920693E-3,2.9301585E-4,1.4134488E-4,3.318054E-3,-5.881056E-4,-3.0887988E-3],"split_indices":[51,77,77,80,33,3,51,0,0,0,0,0,0,0,0],"split_type":[0,0,0,0,0,0,0,0,0,0,0,0,0,0,0],"sum_hessian":[6.6565767E3,3.2633613E3,3.3932153E3,2.3719329E3,8.9142847E2,1.1904497E3,2.2027656E3,1.7410735E3,6.308595E2,1.2471844E2,7.6671E2,6.093298E2,5.8111993E2,1.2486595E3,9.5410614E2],"tree_param":{"num_deleted":"0","num_feature":"106","num_nodes":"15","size_leaf_vector":"1"}},{"base_weights":[-1.20054945E-1,1.0586667E-1,-2.5114885E-1,-3.8746256E-2,2.6178923E-1,-3.5467297E-1,-3.8660757E-2,1.2418539E-3,-1.7568786E-3,4.0051965E-3,1.9092151E-3,-4.773042E-3,-2.61165E-3,-1.8115721E-3,9.015611E-4],"categories":[],"categories_nodes":[],"categories_segments":[],"categories_sizes":[],"default_left":[0,0,0,0,0,0,0,0,0,0,0,0,0,0,0],"id":42,"left_children":[1,3,5,7,9,11,13,-1,-1,-1,-1,-1,-1,-1,-1],"loss_changes":[1.971388E2,5.5130196E1,9.263739E1,2.8338722E1,1.1489243E1,3.2349365E1,2.5364235E1,0E0,0E0,0E0,0E0,0E0,0E0,0E0,0E0],"parents":[2147483647,0,0,1,1,2,2,3,3,4,4,5,5,6,6],"right_children":[2,4,6,8,10,12,14,-1,-1,-1,-1,-1,-1,-1,-1],"split_conditions":[4.59E-1,5.14E-1,2.9E0,-4.9E0,-6.2E0,-1.9E0,9E0,1.2418539E-3,-1.7568786E-3,4.0051965E-3,1.9092151E-3,-4.773042E-3,-2.61165E-3,-1.8115721E-3,9.015611E-4],"split_indices":[3,55,77,25,25,77,51,0,0,0,0,0,0,0,0],"split_type":[0,0,0,0,0,0,0,0,0,0,0,0,0,0,0],"sum_hessian":[6.654385E3,2.4435198E3,4.2108647E3,1.2681266E3,1.1753933E3,2.8309556E3,1.3799094E3,5.791515E2,6.8897504E2,3.958422E2,7.795511E2,1.2229758E3,1.6079797E3,6.549743E2,7.2493506E2],"tree_param":{"num_deleted":"0","num_feature":"106","num_nodes":"15","size_leaf_vector":"1"}},{"base_weights":[1.2005495E-1,-1.05866686E-1,2.5114885E-1,3.8746234E-2,-2.6178923E-1,3.5467297E-1,3.8660776E-2,-1.2418544E-3,1.7568785E-3,-4.0051956E-3,-1.9092154E-3,4.773042E-3,2.6116502E-3,1.8115722E-3,-9.0156076E-4],"categories":[],"categories_nodes":[],"categories_segments":[],"categories_sizes":[],"default_left":[0,0,0,0,0,0,0,0,0,0,0,0,0,0,0],"id":43,"left_children":[1,3,5,7,9,11,13,-1,-1,-1,-1,-1,-1,-1,-1],"loss_changes":[1.9713882E2,5.5130188E1,9.263736E1,2.8338732E1,1.1489235E1,3.2349365E1,2.536423E1,0E0,0E0,0E0,0E0,0E0,0E0,0E0,0E0],"parents":[2147483647,0,0,1,1,2,2,3,3,4,4,5,5,6,6],"right_children":[2,4,6,8,10,12,14,-1,-1,-1,-1,-1,-1,-1,-1],"split_conditions":[4.59E-1,5.14E-1,2.9E0,-4.9E0,-6.2E0,-1.9E0,9E0,-1.2418544E-3,1.7568785E-3,-4.0051956E-3,-1.9092154E-3,4.773042E-3,2.6116502E-3,1.8115722E-3,-9.0156076E-4],"split_indices":[3,55,77,25,25,77,51,0,0,0,0,0,0,0,0],"split_type":[0,0,0,0,0,0,0,0,0,0,0,0,0,0,0],"sum_hessian":[6.654385E3,2.4435198E3,4.2108647E3,1.2681266E3,1.1753933E3,2.8309556E3,1.3799094E3,5.791515E2,6.889751E2,3.9584222E2,7.795511E2,1.2229758E3,1.6079797E3,6.549743E2,7.249351E2],"tree_param":{"num_deleted":"0","num_feature":"106","num_nodes":"15","size_leaf_vector":"1"}},{"base_weights":[-1.1889512E-1,-2.9305932E-1,4.8555735E-2,-3.7683856E-1,-7.020193E-2,-1.8352562E-1,1.5613613E-1,-3.1008862E-3,-5.6055975E-3,-3.2461607E-3,-2.8463916E-4,-2.8844102E-4,-3.44206E-3,5.018621E-4,2.928168E-3],"categories":[],"categories_nodes":[],"categories_segments":[],"categories_sizes":[],"default_left":[0,0,0,0,0,0,0,0,0,0,0,0,0,0,0],"id":44,"left_children":[1,3,5,7,9,11,13,-1,-1,-1,-1,-1,-1,-1,-1],"loss_changes":[1.9404648E2,6.086557E1,8.4738266E1,2.8890991E1,9.465798E0,2.670985E1,3.3563854E1,0E0,0E0,0E0,0E0,0E0,0E0,0E0,0E0],"parents":[2147483647,0,0,1,1,2,2,3,3,4,4,5,5,6,6],"right_children":[2,4,6,8,10,12,14,-1,-1,-1,-1,-1,-1,-1,-1],"split_conditions":[1.5E1,3.8E0,-1.9E0,2.3E1,3E0,3.96E-1,2.4E1,-3.1008862E-3,-5.6055975E-3,-3.2461607E-3,-2.8463916E-4,-2.8844102E-4,-3.44206E-3,5.018621E-4,2.928168E-3],"split_indices":[51,77,77,80,33,3,51,0,0,0,0,0,0,0,0],"split_type":[0,0,0,0,0,0,0,0,0,0,0,0,0,0,0],"sum_hessian":[6.6521543E3,3.2603462E3,3.3918083E3,2.3690525E3,8.912938E2,1.074057E3,2.3177512E3,1.7396772E3,6.2937524E2,1.2465876E2,7.666351E2,5.47845E2,5.262121E2,1.306425E3,1.0113262E3],"tree_param":{"num_deleted":"0","num_feature":"106","num_nodes":"15","size_leaf_vector":"1"}},{"base_weights":[1.18895136E-1,2.9305935E-1,-4.8555724E-2,3.768386E-1,7.020195E-2,1.8352562E-1,-1.5613611E-1,3.1008865E-3,5.6055975E-3,3.2461607E-3,2.846393E-4,2.8844073E-4,3.4420602E-3,-5.0186215E-4,-2.9281676E-3],"categories":[],"categories_nodes":[],"categories_segments":[],"categories_sizes":[],"default_left":[0,0,0,0,0,0,0,0,0,0,0,0,0,0,0],"id":45,"left_children":[1,3,5,7,9,11,13,-1,-1,-1,-1,-1,-1,-1,-1],"loss_changes":[1.9404648E2,6.086554E1,8.473825E1,2.8891022E1,9.465798E0,2.6709862E1,3.356383E1,0E0,0E0,0E0,0E0,0E0,0E0,0E0,0E0],"parents":[2147483647,0,0,1,1,2,2,3,3,4,4,5,5,6,6],"right_children":[2,4,6,8,10,12,14,-1,-1,-1,-1,-1,-1,-1,-1],"split_conditions":[1.5E1,3.8E0,-1.9E0,2.3E1,3E0,3.96E-1,2.4E1,3.1008865E-3,5.6055975E-3,3.2461607E-3,2.846393E-4,2.8844073E-4,3.4420602E-3,-5.0186215E-4,-2.9281676E-3],"split_indices":[51,77,77,80,33,3,51,0,0,0,0,0,0,0,0],"split_type":[0,0,0,0,0,0,0,0,0,0,0,0,0,0,0],"sum_hessian":[6.652155E3,3.2603462E3,3.3918083E3,2.3690525E3,8.912938E2,1.0740571E3,2.3177512E3,1.7396772E3,6.293752E2,1.2465877E2,7.666351E2,5.47845E2,5.262121E2,1.306425E3,1.01132623E3],"tree_param":{"num_deleted":"0","num_feature":"106","num_nodes":"15","size_leaf_vector":"1"}},{"base_weights":[-1.1774995E-1,-2.9028088E-1,4.8079785E-2,-3.733278E-1,-6.950804E-2,-9.8861635E-2,2.1560974E-1,-3.0712117E-3,-5.5572507E-3,-1.8446859E-3,2.1575698E-4,-2.0658292E-3,1.3549202E-3,3.9175386E-3,1.5683653E-3],"categories":[],"categories_nodes":[],"categories_segments":[],"categories_sizes":[],"default_left":[0,0,0,0,0,0,0,0,0,0,0,0,0,0,0],"id":46,"left_children":[1,3,5,7,9,11,13,-1,-1,-1,-1,-1,-1,-1,-1],"loss_changes":[1.9029889E2,5.973889E1,8.352559E1,2.8430511E1,9.346676E0,4.5665436E1,1.6350838E1,0E0,0E0,0E0,0E0,0E0,0E0,0E0,0E0],"parents":[2147483647,0,0,1,1,2,2,3,3,4,4,5,5,6,6],"right_children":[2,4,6,8,10,12,14,-1,-1,-1,-1,-1,-1,-1,-1],"split_conditions":[1.5E1,3.8E0,5.24E-1,2.3E1,6E0,2.6E1,-6.1E0,-3.0712117E-3,-5.5572507E-3,-1.8446859E-3,2.1575698E-4,-2.0658292E-3,1.3549202E-3,3.9175386E-3,1.5683653E-3],"split_indices":[51,77,55,80,27,51,25,0,0,0,0,0,0,0,0],"split_type":[0,0,0,0,0,0,0,0,0,0,0,0,0,0,0],"sum_hessian":[6.649818E3,3.2586917E3,3.391126E3,2.36745E3,8.912417E2,1.8067904E3,1.5843356E3,1.7389349E3,6.28515E2,3.935282E2,4.977135E2,1.2379033E3,5.688871E2,3.949625E2,1.189373E3],"tree_param":{"num_deleted":"0","num_feature":"106","num_nodes":"15","size_leaf_vector":"1"}},{"base_weights":[1.1774996E-1,2.9028088E-1,-4.8079785E-2,3.733278E-1,6.950803E-2,9.886163E-2,-2.1560974E-1,3.0712117E-3,5.5572516E-3,1.8446856E-3,-2.1575681E-4,2.0658292E-3,-1.3549202E-3,-3.9175386E-3,-1.568365E-3],"categories":[],"categories_nodes":[],"categories_segments":[],"categories_sizes":[],"default_left":[0,0,0,0,0,0,0,0,0,0,0,0,0,0,0],"id":47,"left_children":[1,3,5,7,9,11,13,-1,-1,-1,-1,-1,-1,-1,-1],"loss_changes":[1.9029889E2,5.973889E1,8.352557E1,2.8430542E1,9.346672E0,4.566544E1,1.6350845E1,0E0,0E0,0E0,0E0,0E0,0E0,0E0,0E0],"parents":[2147483647,0,0,1,1,2,2,3,3,4,4,5,5,6,6],"right_children":[2,4,6,8,10,12,14,-1,-1,-1,-1,-1,-1,-1,-1],"split_conditions":[1.5E1,3.8E0,5.24E-1,2.3E1,6E0,2.6E1,-6.1E0,3.0712117E-3,5.5572516E-3,1.8446856E-3,-2.1575681E-4,2.0658292E-3,-1.3549202E-3,-3.9175386E-3,-1.568365E-3],"split_indices":[51,77,55,80,27,51,25,0,0,0,0,0,0,0,0],"split_type":[0,0,0,0,0,0,0,0,0,0,0,0,0,0,0],"sum_hessian":[6.6498174E3,3.2586917E3,3.391126E3,2.36745E3,8.912417E2,1.8067904E3,1.5843356E3,1.7389349E3,6.28515E2,3.935282E2,4.977135E2,1.2379033E3,5.688871E2,3.949625E2,1.189373E3],"tree_param":{"num_deleted":"0","num_feature":"106","num_nodes":"15","size_leaf_vector":"1"}},{"base_weights":[-1.1661501E-1,-2.2627708E-1,1.4013702E-1,-9.184878E-2,-3.8110927E-1,-8.2849056E-2,2.4173637E-1,-2.578406E-3,5.892252E-5,-5.3181057E-3,-3.1544247E-3,6.997375E-4,-2.0000567E-3,3.65115E-3,1.4866572E-3],"categories":[],"categories_nodes":[],"categories_segments":[],"categories_sizes":[],"default_left":[0,0,0,0,0,0,0,0,0,0,0,0,0,0,0],"id":48,"left_children":[1,3,5,7,9,11,13,-1,-1,-1,-1,-1,-1,-1,-1],"loss_changes":[1.8722563E2,9.6938E1,4.5113033E1,4.0483715E1,2.1256226E1,1.1182018E1,1.5650177E1,0E0,0E0,0E0,0E0,0E0,0E0,0E0,0E0],"parents":[2147483647,0,0,1,1,2,2,3,3,4,4,5,5,6,6],"right_children":[2,4,6,8,10,12,14,-1,-1,-1,-1,-1,-1,-1,-1],"split_conditions":[2E1,1.4E1,-2E0,8E0,7E0,-5.7E0,-5.9E0,-2.578406E-3,5.892252E-5,-5.3181057E-3,-3.1544247E-3,6.997375E-4,-2.0000567E-3,3.65115E-3,1.4866572E-3],"split_indices":[28,80,77,51,51,25,25,0,0,0,0,0,0,0,0],"split_type":[0,0,0,0,0,0,0,0,0,0,0,0,0,0,0],"sum_hessian":[6.6474673E3,4.6580664E3,1.9894008E3,2.4941716E3,2.1638948E3,6.227654E2,1.3666354E3,9.2374835E2,1.5704232E3,6.545783E2,1.5093164E3,2.704216E2,3.5234378E2,5.863802E2,7.802552E2],"tree_param":{"num_deleted":"0","num_feature":"106","num_nodes":"15","size_leaf_vector":"1"}},{"base_weights":[1.16615E-1,2.2627707E-1,-1.4013705E-1,9.184877E-2,3.8110924E-1,8.284905E-2,-2.417364E-1,2.578406E-3,-5.8922575E-5,5.3181057E-3,3.1544243E-3,-6.997374E-4,2.0000564E-3,-3.651151E-3,-1.4866572E-3],"categories":[],"categories_nodes":[],"categories_segments":[],"categories_sizes":[],"default_left":[0,0,0,0,0,0,0,0,0,0,0,0,0,0,0],"id":49,"left_children":[1,3,5,7,9,11,13,-1,-1,-1,-1,-1,-1,-1,-1],"loss_changes":[1.8722568E2,9.693796E1,4.511304E1,4.048371E1,2.1256226E1,1.1182016E1,1.5650192E1,0E0,0E0,0E0,0E0,0E0,0E0,0E0,0E0],"parents":[2147483647,0,0,1,1,2,2,3,3,4,4,5,5,6,6],"right_children":[2,4,6,8,10,12,14,-1,-1,-1,-1,-1,-1,-1,-1],"split_conditions":[2E1,1.4E1,-2E0,8E0,7E0,-5.7E0,-5.9E0,2.578406E-3,-5.8922575E-5,5.3181057E-3,3.1544243E-3,-6.997374E-4,2.0000564E-3,-3.651151E-3,-1.4866572E-3],"split_indices":[28,80,77,51,51,25,25,0,0,0,0,0,0,0,0],"split_type":[0,0,0,0,0,0,0,0,0,0,0,0,0,0,0],"sum_hessian":[6.6474673E3,4.6580664E3,1.9894008E3,2.4941716E3,2.1638948E3,6.227654E2,1.3666354E3,9.2374835E2,1.5704232E3,6.545783E2,1.5093164E3,2.704216E2,3.5234378E2,5.863802E2,7.802552E2],"tree_param":{"num_deleted":"0","num_feature":"106","num_nodes":"15","size_leaf_vector":"1"}},{"base_weights":[-1.1549252E-1,-2.8510404E-1,4.7430433E-2,-3.6703798E-1,-6.7534596E-2,-9.7103395E-2,2.1221589E-1,-3.0163147E-3,-5.4751644E-3,-2.2624293E-4,-2.984725E-3,-2.0277244E-3,1.3274308E-3,1.2601381E-3,3.2804948E-3],"categories":[],"categories_nodes":[],"categories_segments":[],"categories_sizes":[],"default_left":[0,0,0,0,0,0,0,0,0,0,0,0,0,0,0],"id":50,"left_children":[1,3,5,7,9,11,13,-1,-1,-1,-1,-1,-1,-1,-1],"loss_changes":[1.8366765E2,5.802353E1,8.077757E1,2.7755737E1,9.245089E0,4.391575E1,1.5781799E1,0E0,0E0,0E0,0E0,0E0,0E0,0E0,0E0],"parents":[2147483647,0,0,1,1,2,2,3,3,4,4,5,5,6,6],"right_children":[2,4,6,8,10,12,14,-1,-1,-1,-1,-1,-1,-1,-1],"split_conditions":[1.5E1,3.8E0,5.24E-1,2.3E1,6.1E0,2.6E1,2.4E1,-3.0163147E-3,-5.4751644E-3,-2.2624293E-4,-2.984725E-3,-2.0277244E-3,1.3274308E-3,1.2601381E-3,3.2804948E-3],"split_indices":[51,77,55,80,20,51,51,0,0,0,0,0,0,0,0],"split_type":[0,0,0,0,0,0,0,0,0,0,0,0,0,0,0],"sum_hessian":[6.645043E3,3.2553252E3,3.3897175E3,2.3642798E3,8.910455E2,1.8060427E3,1.5836749E3,1.7373314E3,6.269483E2,7.468953E2,1.4415016E2,1.2373187E3,5.68724E2,9.0916925E2,6.745056E2],"tree_param":{"num_deleted":"0","num_feature":"106","num_nodes":"15","size_leaf_vector":"1"}},{"base_weights":[1.15492515E-1,2.8510404E-1,-4.7430433E-2,3.6703798E-1,6.753457E-2,9.710342E-2,-2.1221592E-1,3.0163147E-3,5.4751644E-3,2.262427E-4,2.9847245E-3,2.0277246E-3,-1.3274306E-3,-1.2601385E-3,-3.2804953E-3],"categories":[],"categories_nodes":[],"categories_segments":[],"categories_sizes":[],"default_left":[0,0,0,0,0,0,0,0,0,0,0,0,0,0,0],"id":51,"left_children":[1,3,5,7,9,11,13,-1,-1,-1,-1,-1,-1,-1,-1],"loss_changes":[1.8366763E2,5.802353E1,8.07776E1,2.7755707E1,9.245089E0,4.3915752E1,1.5781799E1,0E0,0E0,0E0,0E0,0E0,0E0,0E0,0E0],"parents":[2147483647,0,0,1,1,2,2,3,3,4,4,5,5,6,6],"right_children":[2,4,6,8,10,12,14,-1,-1,-1,-1,-1,-1,-1,-1],"split_conditions":[1.5E1,3.8E0,5.24E-1,2.3E1,6.1E0,2.6E1,2.4E1,3.0163147E-3,5.4751644E-3,2.262427E-4,2.9847245E-3,2.0277246E-3,-1.3274306E-3,-1.2601385E-3,-3.2804953E-3],"split_indices":[51,77,55,80,20,51,51,0,0,0,0,0,0,0,0],"split_type":[0,0,0,0,0,0,0,0,0,0,0,0,0,0,0],"sum_hessian":[6.6450425E3,3.2553252E3,3.3897175E3,2.3642798E3,8.910455E2,1.8060427E3,1.5836748E3,1.7373314E3,6.269483E2,7.468953E2,1.4415016E2,1.2373187E3,5.68724E2,9.091692E2,6.745056E2],"tree_param":{"num_deleted":"0","num_feature":"106","num_nodes":"15","size_leaf_vector":"1"}},{"base_weights":[-1.1438218E-1,-2.2214918E-1,1.3784479E-1,-9.0006E-2,-3.7453339E-1,-1.353792E-1,2.1824431E-1,-2.534712E-3,6.196709E-5,-5.236616E-3,-3.096186E-3,-2.3050732E-3,8.4755523E-4,3.4576873E-3,1.2755495E-3],"categories":[],"categories_nodes":[],"categories_segments":[],"categories_sizes":[],"default_left":[0,0,0,0,0,0,0,0,0,0,0,0,0,0,0],"id":52,"left_children":[1,3,5,7,9,11,13,-1,-1,-1,-1,-1,-1,-1,-1],"loss_changes":[1.8061392E2,9.3704575E1,4.373121E1,3.9229027E1,2.076419E1,9.504327E0,1.7737106E1,0E0,0E0,0E0,0E0,0E0,0E0,0E0,0E0],"parents":[2147483647,0,0,1,1,2,2,3,3,4,4,5,5,6,6],"right_children":[2,4,6,8,10,12,14,-1,-1,-1,-1,-1,-1,-1,-1],"split_conditions":[2E1,1.4E1,3.71E-1,8E0,7E0,2.7E1,-6E0,-2.534712E-3,6.196709E-5,-5.236616E-3,-3.096186E-3,-2.3050732E-3,8.4755523E-4,3.4576873E-3,1.2755495E-3],"split_indices":[28,80,55,51,51,28,25,0,0,0,0,0,0,0,0],"split_type":[0,0,0,0,0,0,0,0,0,0,0,0,0,0,0],"sum_hessian":[6.6425513E3,4.6541353E3,1.9884161E3,2.4934653E3,2.1606702E3,4.5192908E2,1.536487E3,9.231824E2,1.5702828E3,6.53143E2,1.5075271E3,3.1553006E2,1.3639902E2,6.37393E2,8.99094E2],"tree_param":{"num_deleted":"0","num_feature":"106","num_nodes":"15","size_leaf_vector":"1"}},{"base_weights":[1.14382185E-1,2.221492E-1,-1.3784477E-1,9.000601E-2,3.745334E-1,1.3537918E-1,-2.182443E-1,2.5347122E-3,-6.1966995E-5,5.236616E-3,3.096186E-3,2.305073E-3,-8.475553E-4,-3.457687E-3,-1.2755495E-3],"categories":[],"categories_nodes":[],"categories_segments":[],"categories_sizes":[],"default_left":[0,0,0,0,0,0,0,0,0,0,0,0,0,0,0],"id":53,"left_children":[1,3,5,7,9,11,13,-1,-1,-1,-1,-1,-1,-1,-1],"loss_changes":[1.8061395E2,9.370456E1,4.3731197E1,3.9229027E1,2.076419E1,9.504326E0,1.7737099E1,0E0,0E0,0E0,0E0,0E0,0E0,0E0,0E0],"parents":[2147483647,0,0,1,1,2,2,3,3,4,4,5,5,6,6],"right_children":[2,4,6,8,10,12,14,-1,-1,-1,-1,-1,-1,-1,-1],"split_conditions":[2E1,1.4E1,3.71E-1,8E0,7E0,2.7E1,-6E0,2.5347122E-3,-6.1966995E-5,5.236616E-3,3.096186E-3,2.305073E-3,-8.475553E-4,-3.457687E-3,-1.2755495E-3],"split_indices":[28,80,55,51,51,28,25,0,0,0,0,0,0,0,0],"split_type":[0,0,0,0,0,0,0,0,0,0,0,0,0,0,0],"sum_hessian":[6.6425513E3,4.6541353E3,1.9884161E3,2.4934653E3,2.1606702E3,4.5192908E2,1.536487E3,9.231824E2,1.5702828E3,6.53143E2,1.5075271E3,3.1553006E2,1.3639902E2,6.37393E2,8.99094E2],"tree_param":{"num_deleted":"0","num_feature":"106","num_nodes":"15","size_leaf_vector":"1"}},{"base_weights":[-1.1328253E-1,-2.800359E-1,4.679023E-2,-3.6088705E-1,-6.560275E-2,-1.7700271E-1,1.5049902E-1,-2.962605E-3,-5.3951107E-3,-3.1460198E-3,-2.479235E-4,-2.7636834E-4,-3.3243361E-3,4.9300777E-4,2.8126517E-3],"categories":[],"categories_nodes":[],"categories_segments":[],"categories_sizes":[],"default_left":[0,0,0,0,0,0,0,0,0,0,0,0,0,0,0],"id":54,"left_children":[1,3,5,7,9,11,13,-1,-1,-1,-1,-1,-1,-1,-1],"loss_changes":[1.7728067E2,5.637059E1,7.868896E1,2.7105957E1,9.055098E0,2.4918465E1,3.0641563E1,0E0,0E0,0E0,0E0,0E0,0E0,0E0,0E0],"parents":[2147483647,0,0,1,1,2,2,3,3,4,4,5,5,6,6],"right_children":[2,4,6,8,10,12,14,-1,-1,-1,-1,-1,-1,-1,-1],"split_conditions":[1.5E1,3.8E0,-1.9E0,2.3E1,3E0,3.96E-1,2.4E1,-2.962605E-3,-5.3951107E-3,-3.1460198E-3,-2.479235E-4,-2.7636834E-4,-3.3243361E-3,4.9300777E-4,2.8126517E-3],"split_indices":[51,77,77,80,33,3,51,0,0,0,0,0,0,0,0],"split_type":[0,0,0,0,0,0,0,0,0,0,0,0,0,0,0],"sum_hessian":[6.640057E3,3.251797E3,3.38826E3,2.3609338E3,8.908632E2,1.0727241E3,2.315536E3,1.7356359E3,6.25298E2,1.2450479E2,7.663584E2,5.4763556E2,5.250886E2,1.306122E3,1.0094138E3],"tree_param":{"num_deleted":"0","num_feature":"106","num_nodes":"15","size_leaf_vector":"1"}},{"base_weights":[1.1328253E-1,2.800359E-1,-4.6790242E-2,3.6088705E-1,6.560276E-2,1.7700268E-1,-1.5049902E-1,2.9626053E-3,5.3951107E-3,3.1460195E-3,2.4792363E-4,2.763683E-4,3.3243357E-3,-4.9300765E-4,-2.812652E-3],"categories":[],"categories_nodes":[],"categories_segments":[],"categories_sizes":[],"default_left":[0,0,0,0,0,0,0,0,0,0,0,0,0,0,0],"id":55,"left_children":[1,3,5,7,9,11,13,-1,-1,-1,-1,-1,-1,-1,-1],"loss_changes":[1.772807E2,5.637059E1,7.868895E1,2.7105957E1,9.055096E0,2.4918465E1,3.0641567E1,0E0,0E0,0E0,0E0,0E0,0E0,0E0,0E0],"parents":[2147483647,0,0,1,1,2,2,3,3,4,4,5,5,6,6],"right_children":[2,4,6,8,10,12,14,-1,-1,-1,-1,-1,-1,-1,-1],"split_conditions":[1.5E1,3.8E0,-1.9E0,2.3E1,3E0,3.96E-1,2.4E1,2.9626053E-3,5.3951107E-3,3.1460195E-3,2.4792363E-4,2.763683E-4,3.3243357E-3,-4.9300765E-4,-2.812652E-3],"split_indices":[51,77,77,80,33,3,51,0,0,0,0,0,0,0,0],"split_type":[0,0,0,0,0,0,0,0,0,0,0,0,0,0,0],"sum_hessian":[6.640057E3,3.251797E3,3.38826E3,2.3609338E3,8.908632E2,1.0727241E3,2.315536E3,1.7356359E3,6.25298E2,1.245048E2,7.663584E2,5.4763556E2,5.250886E2,1.306122E3,1.0094138E3],"tree_param":{"num_deleted":"0","num_feature":"106","num_nodes":"15","size_leaf_vector":"1"}},{"base_weights":[-1.12197146E-1,1.0023161E-1,-2.356634E-1,-1.6010743E-1,1.7878594E-1,-3.3442017E-1,-3.3702612E-2,-1.720274E-5,-2.91114E-3,8.2790095E-4,3.0268722E-3,-4.519887E-3,-2.4516168E-3,9.502181E-4,-1.6381886E-3],"categories":[],"categories_nodes":[],"categories_segments":[],"categories_sizes":[],"default_left":[0,0,0,0,0,0,0,0,0,0,0,0,0,0,0],"id":56,"left_children":[1,3,5,7,9,11,13,-1,-1,-1,-1,-1,-1,-1,-1],"loss_changes":[1.7413387E2,4.9944855E1,8.372957E1,1.1750022E1,2.2282207E1,2.9478546E1,2.3128452E1,0E0,0E0,0E0,0E0,0E0,0E0,0E0,0E0],"parents":[2147483647,0,0,1,1,2,2,3,3,4,4,5,5,6,6],"right_children":[2,4,6,8,10,12,14,-1,-1,-1,-1,-1,-1,-1,-1],"split_conditions":[4.59E-1,3.71E-1,2.9E0,-4.7E0,2.6E1,-1.9E0,3.1E0,-1.720274E-5,-2.91114E-3,8.2790095E-4,3.0268722E-3,-4.519887E-3,-2.4516168E-3,9.502181E-4,-1.6381886E-3],"split_indices":[3,55,77,25,51,77,25,0,0,0,0,0,0,0,0],"split_type":[0,0,0,0,0,0,0,0,0,0,0,0,0,0,0],"sum_hessian":[6.63739E3,2.4398008E3,4.1975894E3,5.652969E2,1.8745039E3,2.8186448E3,1.3789447E3,2.563647E2,3.0893222E2,1.0571313E3,8.173726E2,1.2146636E3,1.6039812E3,6.933153E2,6.856294E2],"tree_param":{"num_deleted":"0","num_feature":"106","num_nodes":"15","size_leaf_vector":"1"}},{"base_weights":[1.1219716E-1,-1.002316E-1,2.356634E-1,1.6010746E-1,-1.7878594E-1,3.3442017E-1,3.3702638E-2,1.7202894E-5,2.9111404E-3,-8.2790107E-4,-3.0268722E-3,4.519887E-3,2.451617E-3,-9.502176E-4,1.6381886E-3],"categories":[],"categories_nodes":[],"categories_segments":[],"categories_sizes":[],"default_left":[0,0,0,0,0,0,0,0,0,0,0,0,0,0,0],"id":57,"left_children":[1,3,5,7,9,11,13,-1,-1,-1,-1,-1,-1,-1,-1],"loss_changes":[1.7413388E2,4.994487E1,8.372957E1,1.1750026E1,2.2282196E1,2.9478516E1,2.3128445E1,0E0,0E0,0E0,0E0,0E0,0E0,0E0,0E0],"parents":[2147483647,0,0,1,1,2,2,3,3,4,4,5,5,6,6],"right_children":[2,4,6,8,10,12,14,-1,-1,-1,-1,-1,-1,-1,-1],"split_conditions":[4.59E-1,3.71E-1,2.9E0,-4.7E0,2.6E1,-1.9E0,3.1E0,1.7202894E-5,2.9111404E-3,-8.2790107E-4,-3.0268722E-3,4.519887E-3,2.451617E-3,-9.502176E-4,1.6381886E-3],"split_indices":[3,55,77,25,51,77,25,0,0,0,0,0,0,0,0],"split_type":[0,0,0,0,0,0,0,0,0,0,0,0,0,0,0],"sum_hessian":[6.63739E3,2.4398008E3,4.1975894E3,5.652969E2,1.8745039E3,2.8186448E3,1.3789447E3,2.563647E2,3.089322E2,1.0571313E3,8.173726E2,1.2146636E3,1.6039812E3,6.933153E2,6.856294E2],"tree_param":{"num_deleted":"0","num_feature":"106","num_nodes":"15","size_leaf_vector":"1"}},{"base_weights":[-1.1112123E-1,-2.7515584E-1,4.6241783E-2,-3.5476673E-1,-6.429101E-2,-9.433003E-2,2.064945E-1,-2.9101192E-3,-5.313207E-3,-2.0103776E-4,-2.916377E-3,-1.962869E-3,1.2735054E-3,3.739602E-3,1.5077575E-3],"categories":[],"categories_nodes":[],"categories_segments":[],"categories_sizes":[],"default_left":[0,0,0,0,0,0,0,0,0,0,0,0,0,0,0],"id":58,"left_children":[1,3,5,7,9,11,13,-1,-1,-1,-1,-1,-1,-1,-1],"loss_changes":[1.7130075E2,5.4520874E1,7.633186E1,2.639215E1,8.952141E0,4.0828064E1,1.4717339E1,0E0,0E0,0E0,0E0,0E0,0E0,0E0,0E0],"parents":[2147483647,0,0,1,1,2,2,3,3,4,4,5,5,6,6],"right_children":[2,4,6,8,10,12,14,-1,-1,-1,-1,-1,-1,-1,-1],"split_conditions":[1.5E1,3.8E0,5.24E-1,2.3E1,6.1E0,2.6E1,-6.1E0,-2.9101192E-3,-5.313207E-3,-2.0103776E-4,-2.916377E-3,-1.962869E-3,1.2735054E-3,3.739602E-3,1.5077575E-3],"split_indices":[51,77,55,80,20,51,25,0,0,0,0,0,0,0,0],"split_type":[0,0,0,0,0,0,0,0,0,0,0,0,0,0,0],"sum_hessian":[6.6347314E3,3.248137E3,3.3865945E3,2.3574226E3,8.907145E2,1.8042972E3,1.5822972E3,1.7339354E3,6.234871E2,7.466781E2,1.4403635E2,1.2359603E3,5.683369E2,3.9359988E2,1.1886973E3],"tree_param":{"num_deleted":"0","num_feature":"106","num_nodes":"15","size_leaf_vector":"1"}},{"base_weights":[1.1112125E-1,2.7515584E-1,-4.6241753E-2,3.5476673E-1,6.429101E-2,9.4330035E-2,-2.0649444E-1,2.9101195E-3,5.313207E-3,2.0103768E-4,2.9163775E-3,1.9628692E-3,-1.2735054E-3,-3.7396012E-3,-1.5077569E-3],"categories":[],"categories_nodes":[],"categories_segments":[],"categories_sizes":[],"default_left":[0,0,0,0,0,0,0,0,0,0,0,0,0,0,0],"id":59,"left_children":[1,3,5,7,9,11,13,-1,-1,-1,-1,-1,-1,-1,-1],"loss_changes":[1.7130072E2,5.4520874E1,7.633184E1,2.639215E1,8.952145E0,4.082807E1,1.4717331E1,0E0,0E0,0E0,0E0,0E0,0E0,0E0,0E0],"parents":[2147483647,0,0,1,1,2,2,3,3,4,4,5,5,6,6],"right_children":[2,4,6,8,10,12,14,-1,-1,-1,-1,-1,-1,-1,-1],"split_conditions":[1.5E1,3.8E0,5.24E-1,2.3E1,6.1E0,2.6E1,-6.1E0,2.9101195E-3,5.313207E-3,2.0103768E-4,2.9163775E-3,1.9628692E-3,-1.2735054E-3,-3.7396012E-3,-1.5077569E-3],"split_indices":[51,77,55,80,20,51,25,0,0,0,0,0,0,0,0],"split_type":[0,0,0,0,0,0,0,0,0,0,0,0,0,0,0],"sum_hessian":[6.6347314E3,3.248137E3,3.3865945E3,2.3574226E3,8.907144E2,1.8042972E3,1.5822972E3,1.7339354E3,6.234871E2,7.466781E2,1.4403633E2,1.2359603E3,5.68337E2,3.9359988E2,1.1886974E3],"tree_param":{"num_deleted":"0","num_feature":"106","num_nodes":"15","size_leaf_vector":"1"}},{"base_weights":[-1.1005657E-1,-2.1422482E-1,1.3354237E-1,-8.625751E-2,-3.621768E-1,-4.5216703E-3,2.8480718E-1,-2.4543477E-3,7.327355E-5,-5.093043E-3,-2.9824462E-3,1.14106E-3,-1.2893256E-3,4.1669183E-3,1.9669095E-3],"categories":[],"categories_nodes":[],"categories_segments":[],"categories_sizes":[],"default_left":[0,0,0,0,0,0,0,0,0,0,0,0,0,0,0],"id":60,"left_children":[1,3,5,7,9,11,13,-1,-1,-1,-1,-1,-1,-1,-1],"loss_changes":[1.6834332E2,8.794267E1,4.1507317E1,3.71372E1,2.0115631E1,1.5364224E1,1.0939499E1,0E0,0E0,0E0,0E0,0E0,0E0,0E0,0E0],"parents":[2147483647,0,0,1,1,2,2,3,3,4,4,5,5,6,6],"right_children":[2,4,6,8,10,12,14,-1,-1,-1,-1,-1,-1,-1,-1],"split_conditions":[2E1,1.4E1,4E-1,8E0,7E0,-4.9E0,-6.1E0,-2.4543477E-3,7.327355E-5,-5.093043E-3,-2.9824462E-3,1.14106E-3,-1.2893256E-3,4.1669183E-3,1.9669095E-3],"split_indices":[28,80,77,51,51,25,25,0,0,0,0,0,0,0,0],"split_type":[0,0,0,0,0,0,0,0,0,0,0,0,0,0,0],"sum_hessian":[6.6320205E3,4.6455864E3,1.9864341E3,2.4918806E3,2.1537058E3,1.0390403E3,9.473938E2,9.220149E2,1.5698656E3,6.5026965E2,1.5034363E3,5.3192474E2,5.071155E2,3.7796295E2,5.6943085E2],"tree_param":{"num_deleted":"0","num_feature":"106","num_nodes":"15","size_leaf_vector":"1"}},{"base_weights":[1.1005658E-1,2.1422483E-1,-1.3354237E-1,8.625752E-2,3.621768E-1,4.521661E-3,-2.8480718E-1,2.4543477E-3,-7.327347E-5,5.093043E-3,2.9824462E-3,-1.1410601E-3,1.2893255E-3,-4.166918E-3,-1.9669095E-3],"categories":[],"categories_nodes":[],"categories_segments":[],"categories_sizes":[],"default_left":[0,0,0,0,0,0,0,0,0,0,0,0,0,0,0],"id":61,"left_children":[1,3,5,7,9,11,13,-1,-1,-1,-1,-1,-1,-1,-1],"loss_changes":[1.6834335E2,8.794267E1,4.1507313E1,3.71372E1,2.0115631E1,1.5364223E1,1.0939491E1,0E0,0E0,0E0,0E0,0E0,0E0,0E0,0E0],"parents":[2147483647,0,0,1,1,2,2,3,3,4,4,5,5,6,6],"right_children":[2,4,6,8,10,12,14,-1,-1,-1,-1,-1,-1,-1,-1],"split_conditions":[2E1,1.4E1,4E-1,8E0,7E0,-4.9E0,-6.1E0,2.4543477E-3,-7.327347E-5,5.093043E-3,2.9824462E-3,-1.1410601E-3,1.2893255E-3,-4.166918E-3,-1.9669095E-3],"split_indices":[28,80,77,51,51,25,25,0,0,0,0,0,0,0,0],"split_type":[0,0,0,0,0,0,0,0,0,0,0,0,0,0,0],"sum_hessian":[6.6320205E3,4.6455864E3,1.9864341E3,2.4918806E3,2.1537058E3,1.0390403E3,9.473938E2,9.220149E2,1.5698656E3,6.5026965E2,1.5034363E3,5.3192474E2,5.071155E2,3.7796298E2,5.6943085E2],"tree_param":{"num_deleted":"0","num_feature":"106","num_nodes":"15","size_leaf_vector":"1"}},{"base_weights":[-1.0900247E-1,-2.7028668E-1,4.5611337E-2,-3.4885997E-1,-6.2448807E-2,-1.5564027E-1,1.5431714E-1,-2.8583775E-3,-5.237054E-3,-1.8789992E-4,-2.871712E-3,-1.3919077E-4,-3.045816E-3,5.6208536E-4,2.8303468E-3],"categories":[],"categories_nodes":[],"categories_segments":[],"categories_sizes":[],"default_left":[0,0,0,0,0,0,0,0,0,0,0,0,0,0,0],"id":62,"left_children":[1,3,5,7,9,11,13,-1,-1,-1,-1,-1,-1,-1,-1],"loss_changes":[1.653497E2,5.297519E1,7.410005E1,2.5797699E1,8.741394E0,2.507235E1,2.7753521E1,0E0,0E0,0E0,0E0,0E0,0E0,0E0,0E0],"parents":[2147483647,0,0,1,1,2,2,3,3,4,4,5,5,6,6],"right_children":[2,4,6,8,10,12,14,-1,-1,-1,-1,-1,-1,-1,-1],"split_conditions":[1.5E1,3.8E0,-1.4E0,2.3E1,6.1E0,3.96E-1,2.4E1,-2.8583775E-3,-5.237054E-3,-1.8789992E-4,-2.871712E-3,-1.3919077E-4,-3.045816E-3,5.6208536E-4,2.8303468E-3],"split_indices":[51,77,77,80,20,3,51,0,0,0,0,0,0,0,0],"split_type":[0,0,0,0,0,0,0,0,0,0,0,0,0,0,0],"sum_hessian":[6.629265E3,3.2442754E3,3.3849895E3,2.353757E3,8.905184E2,1.1870052E3,2.1979841E3,1.7320741E3,6.21683E2,7.46561E2,1.439574E2,6.088057E2,5.781995E2,1.2481102E3,9.498739E2],"tree_param":{"num_deleted":"0","num_feature":"106","num_nodes":"15","size_leaf_vector":"1"}},{"base_weights":[1.0900246E-1,2.7028668E-1,-4.561134E-2,3.4885994E-1,6.244881E-2,1.5564026E-1,-1.5431714E-1,2.8583773E-3,5.237054E-3,1.8789998E-4,2.8717124E-3,1.3919095E-4,3.0458157E-3,-5.620855E-4,-2.8303468E-3],"categories":[],"categories_nodes":[],"categories_segments":[],"categories_sizes":[],"default_left":[0,0,0,0,0,0,0,0,0,0,0,0,0,0,0],"id":63,"left_children":[1,3,5,7,9,11,13,-1,-1,-1,-1,-1,-1,-1,-1],"loss_changes":[1.6534969E2,5.2975204E1,7.410004E1,2.5797699E1,8.741394E0,2.5072336E1,2.7753517E1,0E0,0E0,0E0,0E0,0E0,0E0,0E0,0E0],"parents":[2147483647,0,0,1,1,2,2,3,3,4,4,5,5,6,6],"right_children":[2,4,6,8,10,12,14,-1,-1,-1,-1,-1,-1,-1,-1],"split_conditions":[1.5E1,3.8E0,-1.4E0,2.3E1,6.1E0,3.96E-1,2.4E1,2.8583773E-3,5.237054E-3,1.8789998E-4,2.8717124E-3,1.3919095E-4,3.0458157E-3,-5.620855E-4,-2.8303468E-3],"split_indices":[51,77,77,80,20,3,51,0,0,0,0,0,0,0,0],"split_type":[0,0,0,0,0,0,0,0,0,0,0,0,0,0,0],"sum_hessian":[6.6292646E3,3.2442754E3,3.3849893E3,2.353757E3,8.905184E2,1.1870052E3,2.1979841E3,1.7320741E3,6.21683E2,7.46561E2,1.439574E2,6.088057E2,5.781995E2,1.2481102E3,9.498739E2],"tree_param":{"num_deleted":"0","num_feature":"106","num_nodes":"15","size_leaf_vector":"1"}},{"base_weights":[-1.0796184E-1,-2.102948E-1,1.3124236E-1,-1.1991045E-1,-4.138568E-1,-5.8682947E-3,2.795007E-1,-2.8258997E-3,-2.3982835E-4,-3.58403E-3,-5.4532513E-3,1.2179051E-3,-1.4268138E-3,4.051138E-3,1.9774437E-3],"categories":[],"categories_nodes":[],"categories_segments":[],"categories_sizes":[],"default_left":[0,0,0,0,0,0,0,0,0,0,0,0,0,0,0],"id":64,"left_children":[1,3,5,7,9,11,13,-1,-1,-1,-1,-1,-1,-1,-1],"loss_changes":[1.622555E2,8.535829E1,4.037954E1,5.018163E1,1.0207611E1,1.8058191E1,9.721184E0,0E0,0E0,0E0,0E0,0E0,0E0,0E0,0E0],"parents":[2147483647,0,0,1,1,2,2,3,3,4,4,5,5,6,6],"right_children":[2,4,6,8,10,12,14,-1,-1,-1,-1,-1,-1,-1,-1],"split_conditions":[2E1,1.9E1,5.14E-1,8E0,3.7E1,-4.9E0,-6.1E0,-2.8258997E-3,-2.3982835E-4,-3.58403E-3,-5.4532513E-3,1.2179051E-3,-1.4268138E-3,4.051138E-3,1.9774437E-3],"split_indices":[28,80,55,51,54,25,25,0,0,0,0,0,0,0,0],"split_type":[0,0,0,0,0,0,0,0,0,0,0,0,0,0,0],"sum_hessian":[6.6263696E3,4.641031E3,1.9853392E3,3.2150796E3,1.4259509E3,1.0319463E3,9.5339294E2,1.1918783E3,2.0232013E3,1.00553796E3,4.20413E2,5.338896E2,4.9805673E2,3.7431992E2,5.7907306E2],"tree_param":{"num_deleted":"0","num_feature":"106","num_nodes":"15","size_leaf_vector":"1"}},{"base_weights":[1.0796184E-1,2.102948E-1,-1.3124236E-1,1.1991045E-1,4.138568E-1,5.8683036E-3,-2.795007E-1,2.8259E-3,2.3982822E-4,3.5840299E-3,5.4532513E-3,-1.2179048E-3,1.4268135E-3,-4.051138E-3,-1.9774442E-3],"categories":[],"categories_nodes":[],"categories_segments":[],"categories_sizes":[],"default_left":[0,0,0,0,0,0,0,0,0,0,0,0,0,0,0],"id":65,"left_children":[1,3,5,7,9,11,13,-1,-1,-1,-1,-1,-1,-1,-1],"loss_changes":[1.622555E2,8.535828E1,4.0379547E1,5.018163E1,1.0207611E1,1.8058186E1,9.721184E0,0E0,0E0,0E0,0E0,0E0,0E0,0E0,0E0],"parents":[2147483647,0,0,1,1,2,2,3,3,4,4,5,5,6,6],"right_children":[2,4,6,8,10,12,14,-1,-1,-1,-1,-1,-1,-1,-1],"split_conditions":[2E1,1.9E1,5.14E-1,8E0,3.7E1,-4.9E0,-6.1E0,2.8259E-3,2.3982822E-4,3.5840299E-3,5.4532513E-3,-1.2179048E-3,1.4268135E-3,-4.051138E-3,-1.9774442E-3],"split_indices":[28,80,55,51,54,25,25,0,0,0,0,0,0,0,0],"split_type":[0,0,0,0,0,0,0,0,0,0,0,0,0,0,0],"sum_hessian":[6.62637E3,4.641031E3,1.9853392E3,3.2150796E3,1.4259509E3,1.0319463E3,9.5339294E2,1.1918783E3,2.0232013E3,1.00553796E3,4.20413E2,5.338896E2,4.9805676E2,3.7431992E2,5.7907306E2],"tree_param":{"num_deleted":"0","num_feature":"106","num_nodes":"15","size_leaf_vector":"1"}},{"base_weights":[-1.0692939E-1,-2.6556882E-1,4.5046378E-2,-3.432671E-1,-6.0316727E-2,-1.7259504E-1,1.423971E-1,-2.8117038E-3,-5.1591448E-3,-3.036584E-3,-2.0483776E-4,-2.8409078E-4,-3.2334467E-3,4.7402756E-4,2.6555315E-3],"categories":[],"categories_nodes":[],"categories_segments":[],"categories_sizes":[],"default_left":[0,0,0,0,0,0,0,0,0,0,0,0,0,0,0],"id":66,"left_children":[1,3,5,7,9,11,13,-1,-1,-1,-1,-1,-1,-1,-1],"loss_changes":[1.5972525E2,5.167157E1,7.1727104E1,2.5060333E1,8.633076E0,2.2734459E1,2.7349594E1,0E0,0E0,0E0,0E0,0E0,0E0,0E0,0E0],"parents":[2147483647,0,0,1,1,2,2,3,3,4,4,5,5,6,6],"right_children":[2,4,6,8,10,12,14,-1,-1,-1,-1,-1,-1,-1,-1],"split_conditions":[1.5E1,3.8E0,-2E0,2.3E1,3E0,3.96E-1,2.4E1,-2.8117038E-3,-5.1591448E-3,-3.036584E-3,-2.0483776E-4,-2.8409078E-4,-3.2334467E-3,4.7402756E-4,2.6555315E-3],"split_indices":[51,77,77,80,33,3,51,0,0,0,0,0,0,0,0],"split_type":[0,0,0,0,0,0,0,0,0,0,0,0,0,0,0],"sum_hessian":[6.6235376E3,3.2403555E3,3.3831821E3,2.350065E3,8.902907E2,1.0453594E3,2.3378228E3,1.7303369E3,6.197279E2,1.2430167E2,7.65989E2,5.349192E2,5.104402E2,1.3205916E3,1.01723114E3],"tree_param":{"num_deleted":"0","num_feature":"106","num_nodes":"15","size_leaf_vector":"1"}},{"base_weights":[1.0692939E-1,2.655688E-1,-4.5046367E-2,3.4326708E-1,6.031671E-2,1.7259505E-1,-1.4239709E-1,2.8117036E-3,5.1591448E-3,3.036584E-3,2.0483762E-4,2.8409107E-4,3.2334467E-3,-4.7402765E-4,-2.655531E-3],"categories":[],"categories_nodes":[],"categories_segments":[],"categories_sizes":[],"default_left":[0,0,0,0,0,0,0,0,0,0,0,0,0,0,0],"id":67,"left_children":[1,3,5,7,9,11,13,-1,-1,-1,-1,-1,-1,-1,-1],"loss_changes":[1.5972522E2,5.1671555E1,7.1727104E1,2.5060333E1,8.633076E0,2.2734457E1,2.7349594E1,0E0,0E0,0E0,0E0,0E0,0E0,0E0,0E0],"parents":[2147483647,0,0,1,1,2,2,3,3,4,4,5,5,6,6],"right_children":[2,4,6,8,10,12,14,-1,-1,-1,-1,-1,-1,-1,-1],"split_conditions":[1.5E1,3.8E0,-2E0,2.3E1,3E0,3.96E-1,2.4E1,2.8117036E-3,5.1591448E-3,3.036584E-3,2.0483762E-4,2.8409107E-4,3.2334467E-3,-4.7402765E-4,-2.655531E-3],"split_indices":[51,77,77,80,33,3,51,0,0,0,0,0,0,0,0],"split_type":[0,0,0,0,0,0,0,0,0,0,0,0,0,0,0],"sum_hessian":[6.6235376E3,3.2403555E3,3.3831821E3,2.350065E3,8.902907E2,1.0453594E3,2.3378228E3,1.7303369E3,6.197279E2,1.24301674E2,7.65989E2,5.349192E2,5.104402E2,1.3205916E3,1.0172312E3],"tree_param":{"num_deleted":"0","num_feature":"106","num_nodes":"15","size_leaf_vector":"1"}},{"base_weights":[-1.05910294E-1,-2.6309127E-1,4.4607073E-2,-3.5186237E-1,-8.6409554E-2,-9.07775E-2,1.9895475E-1,-2.8720584E-3,-5.1168236E-3,-1.6888819E-3,2.1558764E-4,-1.8877214E-3,1.2214457E-3,3.590899E-3,1.4583037E-3],"categories":[],"categories_nodes":[],"categories_segments":[],"categories_sizes":[],"default_left":[0,0,0,0,0,0,0,0,0,0,0,0,0,0,0],"id":68,"left_children":[1,3,5,7,9,11,13,-1,-1,-1,-1,-1,-1,-1,-1],"loss_changes":[1.5666737E2,5.0774277E1,7.071707E1,2.2128296E1,9.661787E0,3.7644524E1,1.3399521E1,0E0,0E0,0E0,0E0,0E0,0E0,0E0,0E0],"parents":[2147483647,0,0,1,1,2,2,3,3,4,4,5,5,6,6],"right_children":[2,4,6,8,10,12,14,-1,-1,-1,-1,-1,-1,-1,-1],"split_conditions":[1.5E1,2.9E0,5.24E-1,2.3E1,1.16E1,2.6E1,-6.1E0,-2.8720584E-3,-5.1168236E-3,-1.6888819E-3,2.1558764E-4,-1.8877214E-3,1.2214457E-3,3.590899E-3,1.4583037E-3],"split_indices":[51,77,55,80,60,51,25,0,0,0,0,0,0,0,0],"split_type":[0,0,0,0,0,0,0,0,0,0,0,0,0,0,0],"sum_hessian":[6.6205474E3,3.2382197E3,3.3823276E3,2.1546538E3,1.0835658E3,1.8020706E3,1.5802571E3,1.536035E3,6.1861896E2,6.1397595E2,4.695898E2,1.2341722E3,5.678984E2,3.9221786E2,1.1880392E3],"tree_param":{"num_deleted":"0","num_feature":"106","num_nodes":"15","size_leaf_vector":"1"}},{"base_weights":[1.05910294E-1,2.6309127E-1,-4.460709E-2,3.5186237E-1,8.6409576E-2,9.077749E-2,-1.9895476E-1,2.8720584E-3,5.1168236E-3,1.6888822E-3,-2.1558744E-4,1.8877212E-3,-1.2214461E-3,-3.5909E-3,-1.4583037E-3],"categories":[],"categories_nodes":[],"categories_segments":[],"categories_sizes":[],"default_left":[0,0,0,0,0,0,0,0,0,0,0,0,0,0,0],"id":69,"left_children":[1,3,5,7,9,11,13,-1,-1,-1,-1,-1,-1,-1,-1],"loss_changes":[1.5666739E2,5.077426E1,7.071708E1,2.2128296E1,9.661786E0,3.764453E1,1.3399525E1,0E0,0E0,0E0,0E0,0E0,0E0,0E0,0E0],"parents":[2147483647,0,0,1,1,2,2,3,3,4,4,5,5,6,6],"right_children":[2,4,6,8,10,12,14,-1,-1,-1,-1,-1,-1,-1,-1],"split_conditions":[1.5E1,2.9E0,5.24E-1,2.3E1,1.16E1,2.6E1,-6.1E0,2.8720584E-3,5.1168236E-3,1.6888822E-3,-2.1558744E-4,1.8877212E-3,-1.2214461E-3,-3.5909E-3,-1.4583037E-3],"split_indices":[51,77,55,80,60,51,25,0,0,0,0,0,0,0,0],"split_type":[0,0,0,0,0,0,0,0,0,0,0,0,0,0,0],"sum_hessian":[6.6205474E3,3.2382197E3,3.3823276E3,2.1546538E3,1.0835657E3,1.8020706E3,1.580257E3,1.536035E3,6.1861896E2,6.1397595E2,4.695898E2,1.2341722E3,5.678984E2,3.9221786E2,1.1880392E3],"tree_param":{"num_deleted":"0","num_feature":"106","num_nodes":"15","size_leaf_vector":"1"}},{"base_weights":[-1.0489936E-1,-2.046899E-1,1.28208E-1,-8.149235E-2,-3.476296E-1,-1.4536428E-1,1.9953118E-1,-2.352429E-3,8.765808E-5,-4.923027E-3,-2.8491716E-3,-2.3939237E-3,7.57558E-4,9.805539E-4,2.9794367E-3],"categories":[],"categories_nodes":[],"categories_segments":[],"categories_sizes":[],"default_left":[0,0,0,0,0,0,0,0,0,0,0,0,0,0,0],"id":70,"left_children":[1,3,5,7,9,11,13,-1,-1,-1,-1,-1,-1,-1,-1],"loss_changes":[1.5398734E2,8.159259E1,3.875311E1,3.456613E1,1.9323303E1,8.563278E0,1.5695839E1,0E0,0E0,0E0,0E0,0E0,0E0,0E0,0E0],"parents":[2147483647,0,0,1,1,2,2,3,3,4,4,5,5,6,6],"right_children":[2,4,6,8,10,12,14,-1,-1,-1,-1,-1,-1,-1,-1],"split_conditions":[2E1,1.4E1,3.57E-1,8E0,7E0,2.7E1,2.6E1,-2.352429E-3,8.765808E-5,-4.923027E-3,-2.8491716E-3,-2.3939237E-3,7.57558E-4,9.805539E-4,2.9794367E-3],"split_indices":[28,80,55,51,51,28,51,0,0,0,0,0,0,0,0],"split_type":[0,0,0,0,0,0,0,0,0,0,0,0,0,0,0],"sum_hessian":[6.6175923E3,4.633967E3,1.9836252E3,2.4897012E3,2.1442656E3,4.0999213E2,1.573633E3,9.203395E2,1.5693618E3,6.463444E2,1.4979213E3,2.8760825E2,1.2238386E2,7.757415E2,7.978916E2],"tree_param":{"num_deleted":"0","num_feature":"106","num_nodes":"15","size_leaf_vector":"1"}},{"base_weights":[1.0489935E-1,2.0468989E-1,-1.28208E-1,8.149233E-2,3.4762958E-1,1.4536428E-1,-1.9953118E-1,2.3524286E-3,-8.7658045E-5,4.923027E-3,2.8491716E-3,2.3939232E-3,-7.5755705E-4,-9.805538E-4,-2.9794371E-3],"categories":[],"categories_nodes":[],"categories_segments":[],"categories_sizes":[],"default_left":[0,0,0,0,0,0,0,0,0,0,0,0,0,0,0],"id":71,"left_children":[1,3,5,7,9,11,13,-1,-1,-1,-1,-1,-1,-1,-1],"loss_changes":[1.5398734E2,8.1592606E1,3.8753105E1,3.4566116E1,1.9323273E1,8.563272E0,1.5695854E1,0E0,0E0,0E0,0E0,0E0,0E0,0E0,0E0],"parents":[2147483647,0,0,1,1,2,2,3,3,4,4,5,5,6,6],"right_children":[2,4,6,8,10,12,14,-1,-1,-1,-1,-1,-1,-1,-1],"split_conditions":[2E1,1.4E1,3.57E-1,8E0,7E0,2.7E1,2.6E1,2.3524286E-3,-8.7658045E-5,4.923027E-3,2.8491716E-3,2.3939232E-3,-7.5755705E-4,-9.805538E-4,-2.9794371E-3],"split_indices":[28,80,55,51,51,28,51,0,0,0,0,0,0,0,0],"split_type":[0,0,0,0,0,0,0,0,0,0,0,0,0,0,0],"sum_hessian":[6.6175923E3,4.633967E3,1.9836252E3,2.4897012E3,2.1442656E3,4.0999213E2,1.573633E3,9.203395E2,1.5693618E3,6.463444E2,1.4979213E3,2.8760825E2,1.2238386E2,7.757415E2,7.9789154E2],"tree_param":{"num_deleted":"0","num_feature":"106","num_nodes":"15","size_leaf_vector":"1"}},{"base_weights":[-1.0389863E-1,9.419556E-2,-2.1928453E-1,-1.5223606E-1,1.6859718E-1,-3.1324682E-1,-2.8075676E-2,-3.658589E-5,-2.7542848E-3,7.9588813E-4,2.8381716E-3,-4.255037E-3,-2.2851524E-3,9.418345E-4,-1.5185273E-3],"categories":[],"categories_nodes":[],"categories_segments":[],"categories_sizes":[],"default_left":[0,0,0,0,0,0,0,0,0,0,0,0,0,0,0],"id":72,"left_children":[1,3,5,7,9,11,13,-1,-1,-1,-1,-1,-1,-1,-1],"loss_changes":[1.5123592E2,4.468553E1,7.510603E1,1.0347612E1,1.9169598E1,2.6565765E1,2.0877438E1,0E0,0E0,0E0,0E0,0E0,0E0,0E0,0E0],"parents":[2147483647,0,0,1,1,2,2,3,3,4,4,5,5,6,6],"right_children":[2,4,6,8,10,12,14,-1,-1,-1,-1,-1,-1,-1,-1],"split_conditions":[4.59E-1,3.71E-1,2.9E0,-4.7E0,2.6E1,-1.9E0,3.1E0,-3.658589E-5,-2.7542848E-3,7.9588813E-4,2.8381716E-3,-4.255037E-3,-2.2851524E-3,9.418345E-4,-1.5185273E-3],"split_indices":[3,55,77,25,51,77,25,0,0,0,0,0,0,0,0],"split_type":[0,0,0,0,0,0,0,0,0,0,0,0,0,0,0],"sum_hessian":[6.614628E3,2.434783E3,4.1798447E3,5.6438654E2,1.8703965E3,2.8021816E3,1.3776633E3,2.5630136E2,3.0808517E2,1.0561799E3,8.142166E2,1.2035857E3,1.5985958E3,6.932017E2,6.844617E2],"tree_param":{"num_deleted":"0","num_feature":"106","num_nodes":"15","size_leaf_vector":"1"}},{"base_weights":[1.0389862E-1,-9.419555E-2,2.1928452E-1,1.5223604E-1,-1.6859716E-1,3.1324682E-1,2.8075648E-2,3.658596E-5,2.7542843E-3,-7.958881E-4,-2.8381713E-3,4.255037E-3,2.2851524E-3,-9.4183494E-4,1.518527E-3],"categories":[],"categories_nodes":[],"categories_segments":[],"categories_sizes":[],"default_left":[0,0,0,0,0,0,0,0,0,0,0,0,0,0,0],"id":73,"left_children":[1,3,5,7,9,11,13,-1,-1,-1,-1,-1,-1,-1,-1],"loss_changes":[1.512359E2,4.4685524E1,7.510603E1,1.0347608E1,1.9169598E1,2.6565796E1,2.0877445E1,0E0,0E0,0E0,0E0,0E0,0E0,0E0,0E0],"parents":[2147483647,0,0,1,1,2,2,3,3,4,4,5,5,6,6],"right_children":[2,4,6,8,10,12,14,-1,-1,-1,-1,-1,-1,-1,-1],"split_conditions":[4.59E-1,3.71E-1,2.9E0,-4.7E0,2.6E1,-1.9E0,3.1E0,3.658596E-5,2.7542843E-3,-7.958881E-4,-2.8381713E-3,4.255037E-3,2.2851524E-3,-9.4183494E-4,1.518527E-3],"split_indices":[3,55,77,25,51,77,25,0,0,0,0,0,0,0,0],"split_type":[0,0,0,0,0,0,0,0,0,0,0,0,0,0,0],"sum_hessian":[6.614628E3,2.434783E3,4.1798447E3,5.6438654E2,1.8703965E3,2.8021814E3,1.3776633E3,2.5630136E2,3.080852E2,1.0561799E3,8.142166E2,1.2035857E3,1.5985957E3,6.932017E2,6.844617E2],"tree_param":{"num_deleted":"0","num_feature":"106","num_nodes":"15","size_leaf_vector":"1"}},{"base_weights":[-1.0290873E-1,-2.5638998E-1,4.3903623E-2,-3.320451E-1,-5.7128977E-2,-8.85732E-2,1.9492088E-1,-2.7147224E-3,-5.0117485E-3,-1.4266669E-4,-2.7795518E-3,-1.8361952E-3,1.1786893E-3,1.026969E-3,2.8224313E-3],"categories":[],"categories_nodes":[],"categories_segments":[],"categories_sizes":[],"default_left":[0,0,0,0,0,0,0,0,0,0,0,0,0,0,0],"id":74,"left_children":[1,3,5,7,9,11,13,-1,-1,-1,-1,-1,-1,-1,-1],"loss_changes":[1.4901193E2,4.871895E1,6.76498E1,2.3868225E1,8.428605E0,3.537017E1,1.2695496E1,0E0,0E0,0E0,0E0,0E0,0E0,0E0,0E0],"parents":[2147483647,0,0,1,1,2,2,3,3,4,4,5,5,6,6],"right_children":[2,4,6,8,10,12,14,-1,-1,-1,-1,-1,-1,-1,-1],"split_conditions":[1.5E1,3.8E0,5.24E-1,2.3E1,6.1E0,2.6E1,2.1E1,-2.7147224E-3,-5.0117485E-3,-1.4266669E-4,-2.7795518E-3,-1.8361952E-3,1.1786893E-3,1.026969E-3,2.8224313E-3],"split_indices":[51,77,55,80,20,51,28,0,0,0,0,0,0,0,0],"split_type":[0,0,0,0,0,0,0,0,0,0,0,0,0,0,0],"sum_hessian":[6.611571E3,3.2320059E3,3.379565E3,2.342096E3,8.899099E2,1.800514E3,1.5790509E3,1.7264004E3,6.1569556E2,7.461475E2,1.4376244E2,1.2329652E3,5.675488E2,7.6902924E2,8.100216E2],"tree_param":{"num_deleted":"0","num_feature":"106","num_nodes":"15","size_leaf_vector":"1"}},{"base_weights":[1.0290874E-1,2.5638998E-1,-4.3903608E-2,3.3204508E-1,5.7128977E-2,8.85732E-2,-1.9492085E-1,2.7147222E-3,5.0117485E-3,1.4266664E-4,2.7795518E-3,1.8361952E-3,-1.1786892E-3,-1.0269687E-3,-2.822431E-3],"categories":[],"categories_nodes":[],"categories_segments":[],"categories_sizes":[],"default_left":[0,0,0,0,0,0,0,0,0,0,0,0,0,0,0],"id":75,"left_children":[1,3,5,7,9,11,13,-1,-1,-1,-1,-1,-1,-1,-1],"loss_changes":[1.490119E2,4.871898E1,6.7649796E1,2.3868195E1,8.428606E0,3.5370167E1,1.269548E1,0E0,0E0,0E0,0E0,0E0,0E0,0E0,0E0],"parents":[2147483647,0,0,1,1,2,2,3,3,4,4,5,5,6,6],"right_children":[2,4,6,8,10,12,14,-1,-1,-1,-1,-1,-1,-1,-1],"split_conditions":[1.5E1,3.8E0,5.24E-1,2.3E1,6.1E0,2.6E1,2.1E1,2.7147222E-3,5.0117485E-3,1.4266664E-4,2.7795518E-3,1.8361952E-3,-1.1786892E-3,-1.0269687E-3,-2.822431E-3],"split_indices":[51,77,55,80,20,51,28,0,0,0,0,0,0,0,0],"split_type":[0,0,0,0,0,0,0,0,0,0,0,0,0,0,0],"sum_hessian":[6.611571E3,3.2320059E3,3.379565E3,2.342096E3,8.899099E2,1.800514E3,1.5790509E3,1.7264004E3,6.1569556E2,7.461475E2,1.4376244E2,1.2329651E3,5.675488E2,7.690293E2,8.100216E2],"tree_param":{"num_deleted":"0","num_feature":"106","num_nodes":"15","size_leaf_vector":"1"}},{"base_weights":[-1.0192932E-1,-2.540082E-1,4.3476578E-2,-1.2720133E-1,-3.7092924E-1,-1.6663182E-1,1.3741527E-1,-1.950907E-3,2.3744305E-4,-3.1727133E-3,-5.580696E-3,-2.779383E-4,-3.1213094E-3,4.650388E-4,2.5550674E-3],"categories":[],"categories_nodes":[],"categories_segments":[],"categories_sizes":[],"default_left":[0,0,0,0,0,0,0,0,0,0,0,0,0,0,0],"id":76,"left_children":[1,3,5,7,9,11,13,-1,-1,-1,-1,-1,-1,-1,-1],"loss_changes":[1.4616714E2,4.785312E1,6.6729355E1,1.590251E1,1.6696518E1,2.1094133E1,2.5067749E1,0E0,0E0,0E0,0E0,0E0,0E0,0E0,0E0],"parents":[2147483647,0,0,1,1,2,2,3,3,4,4,5,5,6,6],"right_children":[2,4,6,8,10,12,14,-1,-1,-1,-1,-1,-1,-1,-1],"split_conditions":[1.5E1,1.2E1,-2E0,6E0,2.6E1,3.96E-1,2.4E1,-1.950907E-3,2.3744305E-4,-3.1727133E-3,-5.580696E-3,-2.779383E-4,-3.1213094E-3,4.650388E-4,2.5550674E-3],"split_indices":[51,80,77,77,80,3,51,0,0,0,0,0,0,0,0],"split_type":[0,0,0,0,0,0,0,0,0,0,0,0,0,0,0],"sum_hessian":[6.608461E3,3.2297473E3,3.3787139E3,1.5503745E3,1.6793728E3,1.0436517E3,2.335062E3,1.0691987E3,4.8117578E2,1.3072473E3,3.7212546E2,5.346601E2,5.089916E2,1.3201519E3,1.0149102E3],"tree_param":{"num_deleted":"0","num_feature":"106","num_nodes":"15","size_leaf_vector":"1"}},{"base_weights":[1.01929314E-1,2.5400817E-1,-4.3476585E-2,1.2720132E-1,3.709292E-1,1.6663182E-1,-1.3741527E-1,1.9509068E-3,-2.3744299E-4,3.1727138E-3,5.5806953E-3,2.779382E-4,3.1213092E-3,-4.650388E-4,-2.5550674E-3],"categories":[],"categories_nodes":[],"categories_segments":[],"categories_sizes":[],"default_left":[0,0,0,0,0,0,0,0,0,0,0,0,0,0,0],"id":77,"left_children":[1,3,5,7,9,11,13,-1,-1,-1,-1,-1,-1,-1,-1],"loss_changes":[1.4616714E2,4.785312E1,6.672935E1,1.5902502E1,1.6696518E1,2.1094128E1,2.5067757E1,0E0,0E0,0E0,0E0,0E0,0E0,0E0,0E0],"parents":[2147483647,0,0,1,1,2,2,3,3,4,4,5,5,6,6],"right_children":[2,4,6,8,10,12,14,-1,-1,-1,-1,-1,-1,-1,-1],"split_conditions":[1.5E1,1.2E1,